( 29 / ||| ( 29 / ||| 0.714286 0.142857 0.142857 0.714286 0.142857 0.142857
( 29 ||| ( 29 ||| 0.714286 0.142857 0.142857 0.714286 0.142857 0.142857
( 3 / ||| ( 3 / ||| 0.6 0.2 0.2 0.6 0.2 0.2
( 3 ||| ( 3 ||| 0.6 0.2 0.2 0.6 0.2 0.2
( 4 / ||| ( 4 / ||| 0.714286 0.142857 0.142857 0.714286 0.142857 0.142857
( 4 ||| ( 4 ||| 0.714286 0.142857 0.142857 0.714286 0.142857 0.142857
( 9 / 12 / 2018 ) ||| ( 9 / 12 / 2018 ) ||| 0.6 0.2 0.2 0.6 0.2 0.2
( 9 / 12 / 2018 ||| ( 9 / 12 / 2018 ||| 0.6 0.2 0.2 0.6 0.2 0.2
( 9 / 12 / ||| ( 9 / 12 / ||| 0.6 0.2 0.2 0.6 0.2 0.2
( 9 / 12 ||| ( 9 / 12 ||| 0.6 0.2 0.2 0.6 0.2 0.2
( 9 / ||| ( 9 / ||| 0.6 0.2 0.2 0.6 0.2 0.2
( 9 ||| ( 9 ||| 0.6 0.2 0.2 0.6 0.2 0.2
( ISI ) Solo ||| ( ISI ) Solo ||| 0.714286 0.142857 0.142857 0.714286 0.142857 0.142857
( ISI ) ||| ( ISI ) ||| 0.714286 0.142857 0.142857 0.714286 0.142857 0.142857
( ISI ||| ( ISI ||| 0.714286 0.142857 0.142857 0.714286 0.142857 0.142857
( KKI ) 2018 ||| ( KKI ) 2018 ||| 0.714286 0.142857 0.142857 0.714286 0.142857 0.142857
( KKI ) ||| ( KKI ) ||| 0.714286 0.142857 0.142857 0.714286 0.142857 0.142857
( KKI ||| ( KKI ||| 0.714286 0.142857 0.142857 0.714286 0.142857 0.142857
( UNS ) . ||| ( UNS ) . ||| 0.6 0.2 0.2 0.6 0.2 0.2
( UNS ) ||| ( UNS ) ||| 0.866667 0.0666667 0.0666667 0.866667 0.0666667 0.0666667
( UNS ||| ( UNS ||| 0.866667 0.0666667 0.0666667 0.866667 0.0666667 0.0666667
( ||| ( ||| 0.988701 0.00564972 0.00564972 0.988701 0.00564972 0.00564972
) . ||| ) . ||| 0.972603 0.0136986 0.0136986 0.972603 0.0136986 0.0136986
) 2018 ||| ) 2018 ||| 0.714286 0.142857 0.142857 0.714286 0.142857 0.142857
) Solo , ||| ) Solo , ||| 0.818182 0.0909091 0.0909091 0.818182 0.0909091 0.0909091
) Solo ||| ) Solo ||| 0.904762 0.047619 0.047619 0.904762 0.047619 0.047619
) Universitas Sebelas Maret ( UNS ) ||| ) Universitas Sebelas Maret ( UNS ) ||| 0.714286 0.142857 0.142857 0.714286 0.142857 0.142857
) Universitas Sebelas Maret ( UNS ||| ) Universitas Sebelas Maret ( UNS ||| 0.714286 0.142857 0.142857 0.714286 0.142857 0.142857
) Universitas Sebelas Maret ( ||| ) Universitas Sebelas Maret ( ||| 0.714286 0.142857 0.142857 0.714286 0.142857 0.142857
) Universitas Sebelas Maret ||| ) Universitas Sebelas Maret ||| 0.714286 0.142857 0.142857 0.714286 0.142857 0.142857
) Universitas Sebelas ||| ) Universitas Sebelas ||| 0.714286 0.142857 0.142857 0.714286 0.142857 0.142857
) Universitas ||| ) Universitas ||| 0.714286 0.142857 0.142857 0.714286 0.142857 0.142857
) sing ||| ) yang ||| 0.6 0.2 0.2 0.6 0.2 0.2
) ||| ) ||| 0.988701 0.00564972 0.00564972 0.977401 0.00564972 0.0169492
, Jawa Timur ||| , Jawa Timur ||| 0.6 0.2 0.2 0.6 0.2 0.2
, Jawa ||| , Jawa ||| 0.6 0.2 0.2 0.6 0.2 0.2
, Kecamatan ||| , Kabupaten ||| 0.6 0.2 0.2 0.6 0.2 0.2
, Minggu ( 9 / 12 / ||| , Minggu ( 9 / 12 / ||| 0.6 0.2 0.2 0.6 0.2 0.2
, Minggu ( 9 / 12 ||| , Minggu ( 9 / 12 ||| 0.6 0.2 0.2 0.6 0.2 0.2
, Minggu ( 9 / ||| , Minggu ( 9 / ||| 0.6 0.2 0.2 0.6 0.2 0.2
, Minggu ( 9 ||| , Minggu ( 9 ||| 0.6 0.2 0.2 0.6 0.2 0.2
, Minggu ( ||| , Minggu ( ||| 0.6 0.2 0.2 0.6 0.2 0.2
, Minggu ||| , Minggu ||| 0.714286 0.142857 0.142857 0.714286 0.142857 0.142857
, Nanang ||| , Nanang ||| 0.6 0.2 0.2 0.6 0.2 0.2
, Rebo ( ||| , Rabu ( ||| 0.904762 0.047619 0.047619 0.904762 0.047619 0.047619
, Rebo . ||| , Rabu . ||| 0.6 0.2 0.2 0.6 0.2 0.2
, Rebo ||| , Rabu ||| 0.913043 0.0434783 0.0434783 0.913043 0.0434783 0.0434783
, Selasa ( ||| , Selasa ( ||| 0.866667 0.0666667 0.0666667 0.866667 0.0666667 0.0666667
, Selasa ( ||| , hari Selasa ( ||| 0.6 0.2 0.2 0.6 0.2 0.2
, Selasa ( ||| , selasa ( ||| 0.6 0.2 0.2 0.6 0.2 0.2
, Selasa ||| , Selasa ||| 0.894737 0.0526316 0.0526316 0.894737 0.0526316 0.0526316
, Selasa ||| , hari Selasa ||| 0.6 0.2 0.2 0.6 0.2 0.2
, Selasa ||| , selasa ||| 0.6 0.2 0.2 0.6 0.2 0.2
, Senen ( ||| , Senin ( ||| 0.714286 0.142857 0.142857 0.714286 0.142857 0.142857
, Senen ||| , Senin ||| 0.714286 0.142857 0.142857 0.714286 0.142857 0.142857
, agama ||| , agama ||| 0.6 0.2 0.2 0.6 0.2 0.2
, akeh ||| , banyak ||| 0.882353 0.0588235 0.0588235 0.882353 0.0588235 0.0588235
, akeh ||| banyak ||| 0.777778 0.111111 0.111111 0.777778 0.111111 0.111111
, aku ||| , aku ||| 0.555556 0.111111 0.333333 0.777778 0.111111 0.111111
, aku ||| , saya ||| 0.6 0.2 0.2 0.6 0.2 0.2
, amarga ||| , karena ||| 0.777778 0.111111 0.111111 0.777778 0.111111 0.111111
, ana ||| , ada ||| 0.846154 0.0769231 0.0769231 0.846154 0.0769231 0.0769231
, ana ||| , ana ||| 0.6 0.2 0.2 0.6 0.2 0.2
, andhap asor ||| , rendah hati , ||| 0.6 0.2 0.2 0.6 0.2 0.2
, andhap asor ||| , rendah hati ||| 0.6 0.2 0.2 0.2 0.2 0.6
, andhap ||| , rendah ||| 0.6 0.2 0.2 0.6 0.2 0.2
, antara ||| , antara ||| 0.6 0.2 0.2 0.6 0.2 0.2
, apa ||| , apa ||| 0.714286 0.142857 0.142857 0.714286 0.142857 0.142857
, banjur ||| , kemudian ||| 0.714286 0.142857 0.142857 0.714286 0.142857 0.142857
, banjur ||| , lalu ||| 0.818182 0.0909091 0.0909091 0.818182 0.0909091 0.0909091
, bathik ||| , batik ||| 0.714286 0.142857 0.142857 0.714286 0.142857 0.142857
, bisa ||| , bisa ||| 0.6 0.2 0.2 0.6 0.2 0.2
, bocah ||| , anak ||| 0.6 0.2 0.2 0.6 0.2 0.2
, brambang ||| , bawang merah ||| 0.6 0.2 0.2 0.6 0.2 0.2
, bregedel ||| , perkedel ||| 0.6 0.2 0.2 0.6 0.2 0.2
, buktine ||| , buktinya ||| 0.6 0.2 0.2 0.6 0.2 0.2
, dadine ||| , sehingga ||| 0.6 0.2 0.2 0.6 0.2 0.2
, dele ireng , ||| , kedelai hitam , ||| 0.6 0.2 0.2 0.6 0.2 0.2
, dele ireng ||| , kedelai hitam ||| 0.6 0.2 0.2 0.6 0.2 0.2
, dele ||| , kedelai ||| 0.6 0.2 0.2 0.6 0.2 0.2
, dene ||| , sementara ||| 0.714286 0.142857 0.142857 0.714286 0.142857 0.142857
, dheweke kabiji duwe sipat-sipat lan ||| , dia termasuk mempunyai sifat-sifat dan ||| 0.6 0.2 0.2 0.6 0.2 0.2
, dheweke kabiji duwe sipat-sipat ||| , dia termasuk mempunyai sifat-sifat ||| 0.6 0.2 0.2 0.6 0.2 0.2
, dheweke kabiji duwe ||| , dia termasuk mempunyai ||| 0.6 0.2 0.2 0.6 0.2 0.2
, dheweke kabiji ||| , dia termasuk ||| 0.6 0.2 0.2 0.6 0.2 0.2
, dheweke ||| , Cak Diqin ||| 0.6 0.2 0.2 0.6 0.2 0.2
, dheweke ||| , Cak ||| 0.6 0.2 0.2 0.2 0.2 0.6
, dheweke ||| , dia ||| 0.894737 0.0526316 0.0526316 0.894737 0.0526316 0.0526316
, dheweke ||| , ia ||| 0.714286 0.142857 0.142857 0.714286 0.142857 0.142857
, dong bawang , ||| , daun bawang , ||| 0.6 0.2 0.2 0.6 0.2 0.2
, dong bawang ||| , daun bawang ||| 0.6 0.2 0.2 0.6 0.2 0.2
, dong ||| , daun ||| 0.6 0.2 0.2 0.6 0.2 0.2
, emping , ||| , emping ||| 0.6 0.2 0.2 0.6 0.2 0.2
, gereh pethek , ||| , ikan asin , tahu tempe , ||| 0.6 0.2 0.2 0.6 0.2 0.2
, gereh pethek ||| , ikan asin , tahu tempe ||| 0.6 0.2 0.2 0.6 0.2 0.2
, ijo , kuning ||| , kuning , hijau ||| 0.6 0.2 0.2 0.6 0.2 0.2
, ijo , ||| , kuning , ||| 0.6 0.2 0.2 0.6 0.2 0.2
, ijo ||| , kuning ||| 0.6 0.2 0.2 0.6 0.2 0.2
, ing ||| , di ||| 0.6 0.2 0.2 0.6 0.2 0.2
, ing ||| , pada ||| 0.6 0.2 0.2 0.6 0.2 0.2
, isih akeh ||| , masih ada banyak ||| 0.6 0.2 0.2 0.6 0.2 0.2
, isih ||| , masih ada ||| 0.6 0.2 0.2 0.6 0.2 0.2
, isih ||| , masih ||| 0.6 0.2 0.2 0.2 0.2 0.6
, kabeh ||| , segala ||| 0.6 0.2 0.2 0.6 0.2 0.2
, kabeh ||| , semua ||| 0.777778 0.111111 0.111111 0.777778 0.111111 0.111111
, kabeh ||| semua ||| 0.6 0.2 0.2 0.6 0.2 0.2
, karawitan , ||| , karawitan , ||| 0.6 0.2 0.2 0.6 0.2 0.2
, karawitan , ||| , karawitan ||| 0.6 0.2 0.2 0.6 0.2 0.2
, karawitan ||| , dan karawitan ||| 0.6 0.2 0.2 0.6 0.2 0.2
, karawitan ||| , karawitan ||| 0.714286 0.142857 0.142857 0.428571 0.142857 0.428571
, kepriye ||| , bagaimana ||| 0.6 0.2 0.2 0.6 0.2 0.2
, kethoprak , ||| , kethoprakk , ||| 0.6 0.2 0.2 0.6 0.2 0.2
, kethoprak ||| , kethoprakk ||| 0.6 0.2 0.2 0.6 0.2 0.2
, kita ||| , kita ||| 0.714286 0.142857 0.142857 0.714286 0.142857 0.142857
, kita ||| kita ||| 0.6 0.2 0.2 0.6 0.2 0.2
, kudu ||| , harus ||| 0.714286 0.142857 0.142857 0.714286 0.142857 0.142857
, kuning ||| , hijau ||| 0.6 0.2 0.2 0.6 0.2 0.2
, kuwi budayane wong Kulon ||| , itu budayanya orang barat . ||| 0.6 0.2 0.2 0.6 0.2 0.2
, kuwi budayane wong ||| , itu budayanya orang ||| 0.6 0.2 0.2 0.6 0.2 0.2
, kuwi budayane ||| , itu budayanya ||| 0.6 0.2 0.2 0.6 0.2 0.2
, kuwi ||| , itu ||| 0.6 0.2 0.2 0.6 0.2 0.2
, lan liya liyane . ||| , dan lain-lainnya . ||| 0.6 0.2 0.2 0.6 0.2 0.2
, lan liya liyane ||| , dan lain-lainnya ||| 0.6 0.2 0.2 0.6 0.2 0.2
, lan liya-liyane . ||| , dan lain-lainnya . ||| 0.777778 0.111111 0.111111 0.777778 0.111111 0.111111
, lan liya-liyane ||| , dan lain-lainnya ||| 0.777778 0.111111 0.111111 0.777778 0.111111 0.111111
, lan sakpiturute . ||| , dan sebagainya . ||| 0.866667 0.0666667 0.0666667 0.866667 0.0666667 0.0666667
, lan sakpiturute . ||| , dan sebaginya . ||| 0.6 0.2 0.2 0.6 0.2 0.2
, lan sakpiturute . ||| , dan sejenisnya . ||| 0.6 0.2 0.2 0.6 0.2 0.2
, lan sakpiturute . ||| dan sebaginya . ||| 0.6 0.2 0.2 0.6 0.2 0.2
, lan sakpiturute ||| , dan lainnya ||| 0.6 0.2 0.2 0.6 0.2 0.2
, lan sakpiturute ||| , dan sebagainya ||| 0.882353 0.0588235 0.0588235 0.882353 0.0588235 0.0588235
, lan sakpiturute ||| , dan sebaginya ||| 0.6 0.2 0.2 0.6 0.2 0.2
, lan sakpiturute ||| , dan sejenisnya ||| 0.6 0.2 0.2 0.6 0.2 0.2
, lan sakpiturute ||| dan sebaginya ||| 0.6 0.2 0.2 0.6 0.2 0.2
, lan ||| , dan Bahasa ||| 0.6 0.2 0.2 0.6 0.2 0.2
, lan ||| , dan ||| 0.983193 0.00840336 0.00840336 0.966387 0.00840336 0.0252101
, lan ||| dan ||| 0.846154 0.0769231 0.0769231 0.846154 0.0769231 0.0769231
, lombok ||| , cabai ||| 0.6 0.2 0.2 0.6 0.2 0.2
, malah ||| , bahkan ||| 0.714286 0.142857 0.142857 0.714286 0.142857 0.142857
, malahan ||| , bahkan ||| 0.6 0.2 0.2 0.6 0.2 0.2
, mawa ||| , dengan ||| 0.6 0.2 0.2 0.6 0.2 0.2
, mbah ||| , kakak ||| 0.6 0.2 0.2 0.6 0.2 0.2
, miturut ||| , menurut ||| 0.777778 0.111111 0.111111 0.777778 0.111111 0.111111
, mula ||| , sehingga ||| 0.6 0.2 0.2 0.6 0.2 0.2
, nalika ||| , ketika ||| 0.931034 0.0344828 0.0344828 0.931034 0.0344828 0.0344828
, nalika ||| , saat ||| 0.6 0.2 0.2 0.6 0.2 0.2
, nanging ||| , namun ||| 0.894737 0.0526316 0.0526316 0.894737 0.0526316 0.0526316
, nanging ||| , tapi ||| 0.6 0.2 0.2 0.6 0.2 0.2
, nanging ||| , tetapi ||| 0.866667 0.0666667 0.0666667 0.866667 0.0666667 0.0666667
, nganti ||| , hingga ||| 0.904762 0.047619 0.047619 0.904762 0.047619 0.047619
, ngombe susu ||| , minumlah susu ||| 0.6 0.2 0.2 0.6 0.2 0.2
, ngombe ||| , minumlah ||| 0.6 0.2 0.2 0.6 0.2 0.2
, nguri-uri ||| , melestarikan ||| 0.6 0.2 0.2 0.6 0.2 0.2
, njomplange ||| , ketidakseimbangan ||| 0.6 0.2 0.2 0.6 0.2 0.2
, nulis ||| , menulis ||| 0.6 0.2 0.2 0.6 0.2 0.2
, ora ||| , bukan ||| 0.6 0.2 0.2 0.6 0.2 0.2
, ora ||| , tak ||| 0.6 0.2 0.2 0.6 0.2 0.2
, ora ||| , tidak ||| 0.777778 0.111111 0.111111 0.777778 0.111111 0.111111
, pamarentah ||| , pemerintah ||| 0.714286 0.142857 0.142857 0.714286 0.142857 0.142857
, saengga ||| , sehingga ||| 0.6 0.2 0.2 0.6 0.2 0.2
, sanajan ||| , padahal itu ||| 0.6 0.2 0.2 0.6 0.2 0.2
, sega goreng , ||| , nasi goreng , ||| 0.6 0.2 0.2 0.6 0.2 0.2
, sega goreng ||| , nasi goreng ||| 0.6 0.2 0.2 0.6 0.2 0.2
, sega ||| , nasi ||| 0.6 0.2 0.2 0.6 0.2 0.2
, seni ||| , seni ||| 0.6 0.2 0.2 0.6 0.2 0.2
, seniman , ||| , seniman , ||| 0.6 0.2 0.2 0.6 0.2 0.2
, seniman ||| , seniman ||| 0.6 0.2 0.2 0.6 0.2 0.2
, sesuk ya tak gawane ||| , besok aku bawakan ||| 0.6 0.2 0.2 0.6 0.2 0.2
, sesuk ya tak ||| , besok aku ||| 0.6 0.2 0.2 0.6 0.2 0.2
, sesuk ya ||| , besok ||| 0.6 0.2 0.2 0.6 0.2 0.2
, sing ||| , yang ||| 0.777778 0.111111 0.111111 0.777778 0.111111 0.111111
, tari ||| , tari ||| 0.6 0.2 0.2 0.6 0.2 0.2
, tari ||| , tarian ||| 0.6 0.2 0.2 0.6 0.2 0.2
, uga ||| , juga ||| 0.882353 0.0588235 0.0588235 0.882353 0.0588235 0.0588235
, uga ||| , serta ||| 0.6 0.2 0.2 0.6 0.2 0.2
, urip ||| , hidup ||| 0.6 0.2 0.2 0.6 0.2 0.2
, utawa ||| , atau ||| 0.866667 0.0666667 0.0666667 0.866667 0.0666667 0.0666667
, wayang , ||| , wayang , ||| 0.6 0.2 0.2 0.6 0.2 0.2
, wayang ||| , wayang ||| 0.714286 0.142857 0.142857 0.714286 0.142857 0.142857
, wong ||| , orang ||| 0.6 0.2 0.2 0.6 0.2 0.2
, wong-wong ||| , orang-orang ||| 0.6 0.2 0.2 0.6 0.2 0.2
, ya aja njiwit ||| , maka jangan mencubit ||| 0.6 0.2 0.2 0.6 0.2 0.2
, ya aja ||| , maka jangan ||| 0.6 0.2 0.2 0.6 0.2 0.2
, ya ||| , juga ||| 0.6 0.2 0.2 0.6 0.2 0.2
, ya ||| , maka ||| 0.714286 0.142857 0.142857 0.714286 0.142857 0.142857
, ya ||| , ya ||| 0.6 0.2 0.2 0.6 0.2 0.2
, yaiku barengan ||| , yaitu setara ||| 0.6 0.2 0.2 0.6 0.2 0.2
, yaiku ||| , yaitu ||| 0.846154 0.0769231 0.0769231 0.846154 0.0769231 0.0769231
, yen wis ||| , kalau sudah ||| 0.6 0.2 0.2 0.6 0.2 0.2
, yen ||| , jika ||| 0.714286 0.142857 0.142857 0.714286 0.142857 0.142857
, yen ||| , kalau ||| 0.6 0.2 0.2 0.6 0.2 0.2
, yen ||| , sedangkan ||| 0.6 0.2 0.2 0.6 0.2 0.2
, ||| , ||| 0.989577 0.000651466 0.00977199 0.990879 0.0019544 0.00716612
, ||| dan ||| 0.6 0.2 0.2 0.6 0.2 0.2
, ||| itu , ||| 0.6 0.2 0.2 0.6 0.2 0.2
, ” kandhane . ||| , “ katanya . ||| 0.894737 0.0526316 0.0526316 0.894737 0.0526316 0.0526316
, ” kandhane . ||| , ” katanya . ||| 0.854545 0.0181818 0.127273 0.963636 0.0181818 0.0181818
, ” kandhane . ||| ” katanya . ||| 0.6 0.2 0.2 0.6 0.2 0.2
, ” kandhane ||| , “ kata ||| 0.714286 0.142857 0.142857 0.714286 0.142857 0.142857
, ” kandhane ||| , “ katanya ||| 0.904762 0.047619 0.047619 0.904762 0.047619 0.047619
, ” kandhane ||| , ” Kata ||| 0.6 0.2 0.2 0.6 0.2 0.2
, ” kandhane ||| , ” kata ||| 0.904762 0.047619 0.047619 0.904762 0.047619 0.047619
, ” kandhane ||| , ” katanya ||| 0.873016 0.015873 0.111111 0.936508 0.015873 0.047619
, ” kandhane ||| “ kata ||| 0.6 0.2 0.2 0.6 0.2 0.2
, ” kandhane ||| ” katanya ||| 0.6 0.2 0.2 0.6 0.2 0.2
, ” tuture ||| , “ kata ||| 0.6 0.2 0.2 0.6 0.2 0.2
, ” tuture ||| , ” kata ||| 0.714286 0.142857 0.142857 0.714286 0.142857 0.142857
, ” ujare ||| , ” kata ||| 0.6 0.2 0.2 0.6 0.2 0.2
, ” ||| , “ ||| 0.931034 0.0344828 0.0344828 0.931034 0.0344828 0.0344828
, ” ||| , ” ||| 0.912088 0.010989 0.0769231 0.978022 0.010989 0.010989
, ” ||| “ ||| 0.6 0.2 0.2 0.6 0.2 0.2
, ” ||| ” ||| 0.6 0.2 0.2 0.6 0.2 0.2
. ||| . ||| 0.972191 0.000375799 0.0274333 0.999248 0.000375799 0.000375799
. ||| sendiri . ||| 0.6 0.2 0.2 0.6 0.2 0.2
/ 12 / 2018 ) . ||| / 12 / 2018 ) . ||| 0.6 0.2 0.2 0.6 0.2 0.2
/ 12 / 2018 ) ||| / 12 / 2018 ) ||| 0.818182 0.0909091 0.0909091 0.818182 0.0909091 0.0909091
/ 12 / 2018 ||| / 12 / 2018 ||| 0.818182 0.0909091 0.0909091 0.818182 0.0909091 0.0909091
/ 12 / ||| / 12 / ||| 0.818182 0.0909091 0.0909091 0.818182 0.0909091 0.0909091
/ 12 ||| / 12 ||| 0.818182 0.0909091 0.0909091 0.818182 0.0909091 0.0909091
/ 2018 ) . ||| / 2018 ) . ||| 0.714286 0.142857 0.142857 0.714286 0.142857 0.142857
/ 2018 ) ||| / 2018 ) ||| 0.846154 0.0769231 0.0769231 0.846154 0.0769231 0.0769231
/ 2018 ||| / 2018 ||| 0.846154 0.0769231 0.0769231 0.846154 0.0769231 0.0769231
/ ||| / ||| 0.982906 0.00854701 0.00854701 0.982906 0.00854701 0.00854701
10 ||| 10 ||| 0.714286 0.142857 0.142857 0.714286 0.142857 0.142857
11 ||| 11 ||| 0.818182 0.0909091 0.0909091 0.818182 0.0909091 0.0909091
12 / 2018 ) . ||| 12 / 2018 ) . ||| 0.6 0.2 0.2 0.6 0.2 0.2
12 / 2018 ) ||| 12 / 2018 ) ||| 0.818182 0.0909091 0.0909091 0.818182 0.0909091 0.0909091
12 / 2018 ||| 12 / 2018 ||| 0.818182 0.0909091 0.0909091 0.818182 0.0909091 0.0909091
12 / ||| 12 / ||| 0.818182 0.0909091 0.0909091 0.818182 0.0909091 0.0909091
12 ||| 12 ||| 0.818182 0.0909091 0.0909091 0.818182 0.0909091 0.0909091
17 ||| 17 ||| 0.777778 0.111111 0.111111 0.777778 0.111111 0.111111
19 ||| 19 ||| 0.945946 0.027027 0.027027 0.945946 0.027027 0.027027
1980-an . ||| pada 1980-an . ||| 0.6 0.2 0.2 0.6 0.2 0.2
1980-an ||| pada 1980-an ||| 0.6 0.2 0.2 0.6 0.2 0.2
2 ||| 2 ||| 0.92 0.04 0.04 0.92 0.04 0.04
2011 ||| 2011 ||| 0.6 0.2 0.2 0.6 0.2 0.2
2018 ) . ||| 2018 ) . ||| 0.714286 0.142857 0.142857 0.714286 0.142857 0.142857
2018 ) ||| 2018 ) ||| 0.846154 0.0769231 0.0769231 0.846154 0.0769231 0.0769231
2018 . ||| 2018 . ||| 0.714286 0.142857 0.142857 0.714286 0.142857 0.142857
2018 ||| 2018 ||| 0.851852 0.037037 0.111111 0.925926 0.037037 0.037037
2018 ||| dari 2018 ||| 0.6 0.2 0.2 0.6 0.2 0.2
26 ||| 26 ||| 0.714286 0.142857 0.142857 0.714286 0.142857 0.142857
29 / ||| 29 / ||| 0.714286 0.142857 0.142857 0.714286 0.142857 0.142857
29 ||| 29 ||| 0.714286 0.142857 0.142857 0.714286 0.142857 0.142857
3 / ||| 3 / ||| 0.6 0.2 0.2 0.6 0.2 0.2
3 ||| 3 ||| 0.6 0.2 0.2 0.6 0.2 0.2
4 / ||| 4 / ||| 0.714286 0.142857 0.142857 0.714286 0.142857 0.142857
4 ||| 4 ||| 0.714286 0.142857 0.142857 0.714286 0.142857 0.142857
9 / 12 / 2018 ) . ||| 9 / 12 / 2018 ) . ||| 0.6 0.2 0.2 0.6 0.2 0.2
9 / 12 / 2018 ) ||| 9 / 12 / 2018 ) ||| 0.6 0.2 0.2 0.6 0.2 0.2
9 / 12 / 2018 ||| 9 / 12 / 2018 ||| 0.6 0.2 0.2 0.6 0.2 0.2
9 / 12 / ||| 9 / 12 / ||| 0.6 0.2 0.2 0.6 0.2 0.2
9 / 12 ||| 9 / 12 ||| 0.6 0.2 0.2 0.6 0.2 0.2
9 / ||| 9 / ||| 0.6 0.2 0.2 0.6 0.2 0.2
9 ||| 9 ||| 0.6 0.2 0.2 0.6 0.2 0.2
: ||| : ||| 0.818182 0.0909091 0.0909091 0.818182 0.0909091 0.0909091
? . ||| ? . ||| 0.846154 0.0769231 0.0769231 0.846154 0.0769231 0.0769231
? ||| ? ||| 0.846154 0.0769231 0.0769231 0.846154 0.0769231 0.0769231
Aku ||| Saya ||| 0.777778 0.111111 0.111111 0.777778 0.111111 0.111111
Aku ||| saya ||| 0.6 0.2 0.2 0.6 0.2 0.2
Amarga ||| Karena ||| 0.6 0.2 0.2 0.6 0.2 0.2
Amerika . ||| Amerika . ||| 0.6 0.2 0.2 0.6 0.2 0.2
Amerika ||| Amerika ||| 0.6 0.2 0.2 0.6 0.2 0.2
Anadyan ||| Terlepas ||| 0.6 0.2 0.2 0.6 0.2 0.2
Anakmu tak seneni ||| Anakmu aku marahi ||| 0.6 0.2 0.2 0.6 0.2 0.2
Anakmu tak ||| Anakmu aku ||| 0.6 0.2 0.2 0.6 0.2 0.2
Anakmu ||| Anakmu ||| 0.6 0.2 0.2 0.6 0.2 0.2
Anugerah ||| Anugerah ||| 0.6 0.2 0.2 0.6 0.2 0.2
Asia ||| Asia ||| 0.714286 0.142857 0.142857 0.714286 0.142857 0.142857
Australia ||| Australia ||| 0.6 0.2 0.2 0.6 0.2 0.2
Balai ||| Balai ||| 0.777778 0.111111 0.111111 0.777778 0.111111 0.111111
Banyuwangi , Jawa Timur ||| Banyuwangi , Jawa Timur ||| 0.6 0.2 0.2 0.6 0.2 0.2
Banyuwangi , Jawa ||| Banyuwangi , Jawa ||| 0.6 0.2 0.2 0.6 0.2 0.2
Banyuwangi , ||| Banyuwangi , ||| 0.6 0.2 0.2 0.6 0.2 0.2
Banyuwangi ||| Banyuwangi ||| 0.6 0.2 0.2 0.6 0.2 0.2
Basa Jawa ||| Bahasa Jawa ||| 0.939394 0.030303 0.030303 0.939394 0.030303 0.030303
Basa Jawa ||| bahasa Jawa ||| 0.6 0.2 0.2 0.6 0.2 0.2
Basa ||| Bahasa ||| 0.953488 0.0232558 0.0232558 0.953488 0.0232558 0.0232558
Basa ||| bahasa ||| 0.6 0.2 0.2 0.6 0.2 0.2
Batik ||| Batik ||| 0.714286 0.142857 0.142857 0.714286 0.142857 0.142857
Batik ||| batik ||| 0.714286 0.142857 0.142857 0.714286 0.142857 0.142857
Besar Institut Seni Indonesia ( ISI ) ||| Besar Institut Seni Indonesia ( ISI ) ||| 0.6 0.2 0.2 0.6 0.2 0.2
Besar Institut Seni Indonesia ( ISI ||| Besar Institut Seni Indonesia ( ISI ||| 0.6 0.2 0.2 0.6 0.2 0.2
Besar Institut Seni Indonesia ( ||| Besar Institut Seni Indonesia ( ||| 0.6 0.2 0.2 0.6 0.2 0.2
Besar Institut Seni Indonesia ||| Besar Institut Seni Indonesia ||| 0.6 0.2 0.2 0.6 0.2 0.2
Besar Institut Seni ||| Besar Institut Seni ||| 0.6 0.2 0.2 0.6 0.2 0.2
Besar Institut ||| Besar Institut ||| 0.6 0.2 0.2 0.6 0.2 0.2
Besar ||| Besar ||| 0.6 0.2 0.2 0.6 0.2 0.2
Borobudur ||| Borobudur ||| 0.6 0.2 0.2 0.6 0.2 0.2
Bu ||| Ibu ||| 0.6 0.2 0.2 0.6 0.2 0.2
Budaya ||| Budaya ||| 0.818182 0.0909091 0.0909091 0.818182 0.0909091 0.0909091
Budaya ||| budaya ||| 0.6 0.2 0.2 0.6 0.2 0.2
Budi ||| Budi ||| 0.6 0.2 0.2 0.6 0.2 0.2
Candi ||| Candi ||| 0.6 0.2 0.2 0.6 0.2 0.2
Cara ||| Cara ||| 0.6 0.2 0.2 0.6 0.2 0.2
Cirebon ||| Cirebon ||| 0.6 0.2 0.2 0.6 0.2 0.2
Dadi ||| Jadi ||| 0.714286 0.142857 0.142857 0.714286 0.142857 0.142857
Daerah ||| Daerah ||| 0.777778 0.111111 0.111111 0.777778 0.111111 0.111111
Daerah ||| daerah ||| 0.6 0.2 0.2 0.6 0.2 0.2
Dekne kabeh ||| semua orang ||| 0.6 0.2 0.2 0.6 0.2 0.2
Dinas Kebudayaan Solo ||| Departemen Kebudayaan Solo ||| 0.6 0.2 0.2 0.6 0.2 0.2
Dinas Kebudayaan ||| Departemen Kebudayaan ||| 0.6 0.2 0.2 0.6 0.2 0.2
Dinas ||| Departemen ||| 0.6 0.2 0.2 0.6 0.2 0.2
Dinas ||| Dinas ||| 0.6 0.2 0.2 0.6 0.2 0.2
Dwi ||| Dwi ||| 0.882353 0.0588235 0.0588235 0.882353 0.0588235 0.0588235
Ewandene , ||| tentu saja , ||| 0.6 0.2 0.2 0.6 0.2 0.2
Ewandene ||| tentu saja ||| 0.6 0.2 0.2 0.6 0.2 0.2
Fakultas ||| Fakultas ||| 0.818182 0.0909091 0.0909091 0.818182 0.0909091 0.0909091
Februari ||| Februari ||| 0.6 0.2 0.2 0.6 0.2 0.2
Gadjah Mada ||| Gadjah Mada ||| 0.6 0.2 0.2 0.6 0.2 0.2
Gadjah ||| Gadjah ||| 0.6 0.2 0.2 0.6 0.2 0.2
Garapan ||| garapan ||| 0.6 0.2 0.2 0.6 0.2 0.2
Garuda ||| Garuda ||| 0.6 0.2 0.2 0.6 0.2 0.2
Godhong ||| daun ||| 0.777778 0.111111 0.111111 0.777778 0.111111 0.111111
Gubernur Jawa Tengah ||| Gubernur Jawa Tengah ||| 0.714286 0.142857 0.142857 0.714286 0.142857 0.142857
Gubernur Jawa ||| Gubernur Jawa ||| 0.714286 0.142857 0.142857 0.714286 0.142857 0.142857
Gubernur ||| Gubernur ||| 0.714286 0.142857 0.142857 0.714286 0.142857 0.142857
Gunung ||| Gunung ||| 0.6 0.2 0.2 0.6 0.2 0.2
Gunung ||| gunung ||| 0.777778 0.111111 0.111111 0.777778 0.111111 0.111111
HP ||| HP ||| 0.777778 0.111111 0.111111 0.777778 0.111111 0.111111
HPne . ||| hpnya . ||| 0.6 0.2 0.2 0.6 0.2 0.2
HPne ||| hp nya ||| 0.6 0.2 0.2 0.6 0.2 0.2
HPne ||| hpnya ||| 0.6 0.2 0.2 0.6 0.2 0.2
Heritage ||| Heritage ||| 0.6 0.2 0.2 0.6 0.2 0.2
Hindu ||| Hindu ||| 0.6 0.2 0.2 0.6 0.2 0.2
Hotel ||| Hotel ||| 0.6 0.2 0.2 0.6 0.2 0.2
ISI ) Solo ||| ISI ) Solo ||| 0.714286 0.142857 0.142857 0.714286 0.142857 0.142857
ISI ) ||| ISI ) ||| 0.714286 0.142857 0.142857 0.714286 0.142857 0.142857
ISI ||| ISI ||| 0.777778 0.111111 0.111111 0.777778 0.111111 0.111111
Iki ||| Ini ||| 0.714286 0.142857 0.142857 0.714286 0.142857 0.142857
Indonesia ( ISI ) Solo ||| Indonesia ( ISI ) Solo ||| 0.714286 0.142857 0.142857 0.714286 0.142857 0.142857
Indonesia ( ISI ) ||| Indonesia ( ISI ) ||| 0.714286 0.142857 0.142857 0.714286 0.142857 0.142857
Indonesia ( ISI ||| Indonesia ( ISI ||| 0.714286 0.142857 0.142857 0.714286 0.142857 0.142857
Indonesia ( KKI ) 2018 ||| Indonesia ( KKI ) 2018 ||| 0.714286 0.142857 0.142857 0.714286 0.142857 0.142857
Indonesia ( KKI ) ||| Indonesia ( KKI ) ||| 0.714286 0.142857 0.142857 0.714286 0.142857 0.142857
Indonesia ( KKI ||| Indonesia ( KKI ||| 0.714286 0.142857 0.142857 0.714286 0.142857 0.142857
Indonesia ( ||| Indonesia ( ||| 0.894737 0.0526316 0.0526316 0.894737 0.0526316 0.0526316
Indonesia . ||| Indonesia . ||| 0.92 0.04 0.04 0.92 0.04 0.04
Indonesia ing ||| Indonesia di ||| 0.714286 0.142857 0.142857 0.714286 0.142857 0.142857
Indonesia lan Jawa ||| Indonesia dan Jawa ||| 0.714286 0.142857 0.142857 0.714286 0.142857 0.142857
Indonesia lan ||| Indonesia dan ||| 0.714286 0.142857 0.142857 0.714286 0.142857 0.142857
Indonesia pancen wis ||| Indonesia memang sudah ||| 0.6 0.2 0.2 0.6 0.2 0.2
Indonesia pancen ||| Indonesia memang ||| 0.6 0.2 0.2 0.6 0.2 0.2
Indonesia sing ||| Indonesia yang ||| 0.777778 0.111111 0.111111 0.555556 0.111111 0.333333
Indonesia ||| Indonesia ||| 0.975904 0.0120482 0.0120482 0.975904 0.0120482 0.0120482
Indonesia ||| indonesia ||| 0.6 0.2 0.2 0.6 0.2 0.2
Ing ||| Di ||| 0.714286 0.142857 0.142857 0.714286 0.142857 0.142857
Inggris , ||| Inggris , ||| 0.714286 0.142857 0.142857 0.714286 0.142857 0.142857
Inggris ||| Inggris ||| 0.846154 0.0769231 0.0769231 0.846154 0.0769231 0.0769231
Institut Seni Indonesia ( ISI ) Solo ||| Institut Seni Indonesia ( ISI ) Solo ||| 0.714286 0.142857 0.142857 0.714286 0.142857 0.142857
Institut Seni Indonesia ( ISI ) ||| Institut Seni Indonesia ( ISI ) ||| 0.714286 0.142857 0.142857 0.714286 0.142857 0.142857
Institut Seni Indonesia ( ISI ||| Institut Seni Indonesia ( ISI ||| 0.714286 0.142857 0.142857 0.714286 0.142857 0.142857
Institut Seni Indonesia ( ||| Institut Seni Indonesia ( ||| 0.714286 0.142857 0.142857 0.714286 0.142857 0.142857
Institut Seni Indonesia ||| Institut Seni Indonesia ||| 0.714286 0.142857 0.142857 0.714286 0.142857 0.142857
Institut Seni ||| Institut Seni ||| 0.714286 0.142857 0.142857 0.714286 0.142857 0.142857
Institut ||| Institut ||| 0.777778 0.111111 0.111111 0.777778 0.111111 0.111111
Institute . ||| Institute . ||| 0.6 0.2 0.2 0.6 0.2 0.2
Institute ||| Institute ||| 0.714286 0.142857 0.142857 0.714286 0.142857 0.142857
Institute ||| Sraddha ||| 0.6 0.2 0.2 0.6 0.2 0.2
Islam ||| Islam ||| 0.714286 0.142857 0.142857 0.714286 0.142857 0.142857
Istana ||| Istana ||| 0.846154 0.0769231 0.0769231 0.846154 0.0769231 0.0769231
Iya , sesuk ya tak gawane ||| Iya , besok aku bawakan ||| 0.6 0.2 0.2 0.6 0.2 0.2
Iya , sesuk ya tak ||| Iya , besok aku ||| 0.6 0.2 0.2 0.6 0.2 0.2
Iya , sesuk ya ||| Iya , besok ||| 0.6 0.2 0.2 0.6 0.2 0.2
Iya , ||| Iya , ||| 0.6 0.2 0.2 0.6 0.2 0.2
Iya ||| Iya ||| 0.6 0.2 0.2 0.6 0.2 0.2
Jakarta , ||| Jakarta , ||| 0.6 0.2 0.2 0.6 0.2 0.2
Jakarta . ||| Jakarta . ||| 0.714286 0.142857 0.142857 0.714286 0.142857 0.142857
Jakarta ||| Jakarta ||| 0.818182 0.0909091 0.0909091 0.818182 0.0909091 0.0909091
Jawa , kuwi budayane wong Kulon ||| Jawa , itu budayanya orang barat . ||| 0.6 0.2 0.2 0.6 0.2 0.2
Jawa , kuwi budayane wong ||| Jawa , itu budayanya orang ||| 0.6 0.2 0.2 0.6 0.2 0.2
Jawa , kuwi budayane ||| Jawa , itu budayanya ||| 0.6 0.2 0.2 0.6 0.2 0.2
Jawa , kuwi ||| Jawa , itu ||| 0.6 0.2 0.2 0.6 0.2 0.2
Jawa , ||| Jawa , ||| 0.948718 0.025641 0.025641 0.948718 0.025641 0.025641
Jawa . ||| Jawa . ||| 0.964912 0.0175439 0.0175439 0.964912 0.0175439 0.0175439
Jawa Tengah , ||| Jawa Tengah , ||| 0.6 0.2 0.2 0.6 0.2 0.2
Jawa Tengah lan Jawa ||| Jawa Tengah dan Jawa ||| 0.6 0.2 0.2 0.6 0.2 0.2
Jawa Tengah lan ||| Jawa Tengah dan ||| 0.6 0.2 0.2 0.6 0.2 0.2
Jawa Tengah ||| Jawa Tengah ||| 0.913043 0.0434783 0.0434783 0.913043 0.0434783 0.0434783
Jawa Timur ||| Jawa Timur ||| 0.6 0.2 0.2 0.6 0.2 0.2
Jawa Universitas Gadjah Mada ||| Jawa Universitas Gadjah Mada ||| 0.6 0.2 0.2 0.6 0.2 0.2
Jawa Universitas Gadjah ||| Jawa Universitas Gadjah ||| 0.6 0.2 0.2 0.6 0.2 0.2
Jawa Universitas ||| Jawa Universitas ||| 0.6 0.2 0.2 0.6 0.2 0.2
Jawa duwe ||| Jawa telah memiliki ||| 0.6 0.2 0.2 0.6 0.2 0.2
Jawa kang ||| Jawa yang ||| 0.6 0.2 0.2 0.6 0.2 0.2
Jawa kayata ||| Jawa seperti ||| 0.6 0.2 0.2 0.6 0.2 0.2
Jawa lan ||| Jawa dan ||| 0.904762 0.047619 0.047619 0.904762 0.047619 0.047619
Jawa nalika ||| jawa ketika ||| 0.6 0.2 0.2 0.6 0.2 0.2
Jawa ora ||| Jawa tidak ||| 0.6 0.2 0.2 0.6 0.2 0.2
Jawa sing ||| Jawa yang ||| 0.846154 0.0769231 0.0769231 0.846154 0.0769231 0.0769231
Jawa sing ||| jawa yang ||| 0.6 0.2 0.2 0.6 0.2 0.2
Jawa ||| Jawa , ||| 0.714286 0.142857 0.142857 0.714286 0.142857 0.142857
Jawa ||| Jawa telah ||| 0.6 0.2 0.2 0.6 0.2 0.2
Jawa ||| Jawa ||| 0.98419 0.00395257 0.0118577 0.968379 0.00395257 0.027668
Jawa ||| jawa ||| 0.882353 0.0588235 0.0588235 0.882353 0.0588235 0.0588235
Jawane . ||| Jawanya . ||| 0.6 0.2 0.2 0.6 0.2 0.2
Jawane amarga njupuk kabudayan liya ||| Jawanya karena mempelajari kebudayaan lain ||| 0.6 0.2 0.2 0.6 0.2 0.2
Jawane amarga njupuk kabudayan ||| Jawanya karena mempelajari kebudayaan ||| 0.6 0.2 0.2 0.6 0.2 0.2
Jawane amarga njupuk ||| Jawanya karena mempelajari ||| 0.6 0.2 0.2 0.6 0.2 0.2
Jawane amarga ||| Jawanya karena ||| 0.6 0.2 0.2 0.6 0.2 0.2
Jawane ||| Jawanya ||| 0.714286 0.142857 0.142857 0.714286 0.142857 0.142857
Jemuah ||| Jumat ||| 0.714286 0.142857 0.142857 0.714286 0.142857 0.142857
Jemuwah ||| jumat ||| 0.6 0.2 0.2 0.6 0.2 0.2
Jenderal ||| Jenderal ||| 0.6 0.2 0.2 0.6 0.2 0.2
Jokowi ||| Jokowi ||| 0.714286 0.142857 0.142857 0.714286 0.142857 0.142857
Jurusan ||| Jurusan ||| 0.6 0.2 0.2 0.6 0.2 0.2
KKI ) 2018 ||| KKI ) 2018 ||| 0.714286 0.142857 0.142857 0.714286 0.142857 0.142857
KKI ) ||| KKI ) ||| 0.714286 0.142857 0.142857 0.714286 0.142857 0.142857
KKI 2018 ||| KKI 2018 ||| 0.714286 0.142857 0.142857 0.714286 0.142857 0.142857
KKI ||| KKI ||| 0.866667 0.0666667 0.0666667 0.866667 0.0666667 0.0666667
KM ||| KM ||| 0.714286 0.142857 0.142857 0.714286 0.142857 0.142857
Kabupaten ||| Kabupaten ||| 0.6 0.2 0.2 0.6 0.2 0.2
Kalimantan ||| Kalimantan ||| 0.6 0.2 0.2 0.6 0.2 0.2
Kamangka tiket ||| walaupun tiket ||| 0.6 0.2 0.2 0.6 0.2 0.2
Kamangka ||| Padahal ||| 0.846154 0.0769231 0.0769231 0.846154 0.0769231 0.0769231
Kamangka ||| namun ||| 0.6 0.2 0.2 0.6 0.2 0.2
Kamangka ||| termasuk ||| 0.6 0.2 0.2 0.6 0.2 0.2
Kamangka ||| walaupun ||| 0.6 0.2 0.2 0.6 0.2 0.2
Kebudayaan , ||| Kebudayaan , ||| 0.6 0.2 0.2 0.6 0.2 0.2
Kebudayaan Indonesia ( KKI ) 2018 ||| Kebudayaan Indonesia ( KKI ) 2018 ||| 0.714286 0.142857 0.142857 0.714286 0.142857 0.142857
Kebudayaan Indonesia ( KKI ) ||| Kebudayaan Indonesia ( KKI ) ||| 0.714286 0.142857 0.142857 0.714286 0.142857 0.142857
Kebudayaan Indonesia ( KKI ||| Kebudayaan Indonesia ( KKI ||| 0.714286 0.142857 0.142857 0.714286 0.142857 0.142857
Kebudayaan Indonesia ( ||| Kebudayaan Indonesia ( ||| 0.714286 0.142857 0.142857 0.714286 0.142857 0.142857
Kebudayaan Indonesia ||| Kebudayaan Indonesia ||| 0.777778 0.111111 0.111111 0.777778 0.111111 0.111111
Kebudayaan Solo ||| Kebudayaan Solo ||| 0.6 0.2 0.2 0.6 0.2 0.2
Kebudayaan ||| Budaya ||| 0.6 0.2 0.2 0.6 0.2 0.2
Kebudayaan ||| Kebudayaan , ||| 0.6 0.2 0.2 0.6 0.2 0.2
Kebudayaan ||| Kebudayaan ||| 0.882353 0.0588235 0.0588235 0.764706 0.0588235 0.176471
Kecamatan ||| Kabupaten ||| 0.6 0.2 0.2 0.6 0.2 0.2
Kecamatan ||| Kecamatan ||| 0.6 0.2 0.2 0.6 0.2 0.2
Kegiatan ||| Kegiatan ||| 0.714286 0.142857 0.142857 0.714286 0.142857 0.142857
Kementerian Pendidikan dan Kebudayaan Indonesia ||| Departemen Pendidikan dan Kebudayaan Indonesia ||| 0.6 0.2 0.2 0.6 0.2 0.2
Kementerian Pendidikan dan Kebudayaan ||| Departemen Pendidikan dan Kebudayaan , ||| 0.6 0.2 0.2 0.6 0.2 0.2
Kementerian Pendidikan dan Kebudayaan ||| Departemen Pendidikan dan Kebudayaan ||| 0.714286 0.142857 0.142857 0.428571 0.142857 0.428571
Kementerian Pendidikan dan ||| Departemen Pendidikan dan ||| 0.714286 0.142857 0.142857 0.714286 0.142857 0.142857
Kementerian Pendidikan ||| Departemen Pendidikan ||| 0.714286 0.142857 0.142857 0.714286 0.142857 0.142857
Kementerian ||| Departemen ||| 0.714286 0.142857 0.142857 0.714286 0.142857 0.142857
Kerja ||| Kerja ||| 0.6 0.2 0.2 0.6 0.2 0.2
Kesenian ||| Kesenian ||| 0.6 0.2 0.2 0.6 0.2 0.2
Ket kuwi , ||| sejak saat itu , ||| 0.6 0.2 0.2 0.6 0.2 0.2
Ket kuwi ||| sejak saat itu ||| 0.6 0.2 0.2 0.6 0.2 0.2
Ket ||| sejak saat ||| 0.6 0.2 0.2 0.6 0.2 0.2
Ki ||| Ki ||| 0.6 0.2 0.2 0.6 0.2 0.2
Kongres Kebudayaan Indonesia ( KKI ) 2018 ||| Kongres Kebudayaan Indonesia ( KKI ) 2018 ||| 0.6 0.2 0.2 0.6 0.2 0.2
Kongres Kebudayaan Indonesia ( KKI ) ||| Kongres Kebudayaan Indonesia ( KKI ) ||| 0.6 0.2 0.2 0.6 0.2 0.2
Kongres Kebudayaan Indonesia ( KKI ||| Kongres Kebudayaan Indonesia ( KKI ||| 0.6 0.2 0.2 0.6 0.2 0.2
Kongres Kebudayaan Indonesia ( ||| Kongres Kebudayaan Indonesia ( ||| 0.6 0.2 0.2 0.6 0.2 0.2
Kongres Kebudayaan Indonesia ||| Kongres Kebudayaan Indonesia ||| 0.6 0.2 0.2 0.6 0.2 0.2
Kongres Kebudayaan ||| Kongres Kebudayaan ||| 0.6 0.2 0.2 0.6 0.2 0.2
Kongres ||| Kongres ||| 0.6 0.2 0.2 0.6 0.2 0.2
Kudu ||| Harus ||| 0.6 0.2 0.2 0.6 0.2 0.2
Kulon . ||| Barat . ||| 0.6 0.2 0.2 0.6 0.2 0.2
Kulon ||| Barat ||| 0.714286 0.142857 0.142857 0.714286 0.142857 0.142857
Kulon ||| barat . ||| 0.6 0.2 0.2 0.6 0.2 0.2
Kusumo ||| Kusumo ||| 0.818182 0.0909091 0.0909091 0.818182 0.0909091 0.0909091
Kuta ||| Kuta ||| 0.777778 0.111111 0.111111 0.777778 0.111111 0.111111
Kuta ||| kuta ||| 0.6 0.2 0.2 0.6 0.2 0.2
Kutha ||| Kota ||| 0.913043 0.0434783 0.0434783 0.913043 0.0434783 0.0434783
Kutha ||| kota ||| 0.714286 0.142857 0.142857 0.714286 0.142857 0.142857
La ||| La ||| 0.6 0.2 0.2 0.6 0.2 0.2
Langit wengi ||| Langit malam ||| 0.6 0.2 0.2 0.6 0.2 0.2
Langit ||| Langit ||| 0.6 0.2 0.2 0.6 0.2 0.2
Lasem , ||| Lasem , ||| 0.6 0.2 0.2 0.6 0.2 0.2
Lasem ||| Lasem ||| 0.894737 0.0526316 0.0526316 0.894737 0.0526316 0.0526316
Lembu ||| Lembu ||| 0.6 0.2 0.2 0.6 0.2 0.2
Mada ||| Mada ||| 0.6 0.2 0.2 0.6 0.2 0.2
Majapahit ||| Majapahit ||| 0.6 0.2 0.2 0.6 0.2 0.2
Makam ||| Makam ||| 0.846154 0.0769231 0.0769231 0.846154 0.0769231 0.0769231
Makam ||| makam ||| 0.6 0.2 0.2 0.6 0.2 0.2
Malaysia ||| Malaysia ||| 0.714286 0.142857 0.142857 0.714286 0.142857 0.142857
Mangkunegaran ||| Mangkunegaran ||| 0.882353 0.0588235 0.0588235 0.882353 0.0588235 0.0588235
Mangsakan sing cepet cawis kaya ||| masakan yang cepat tersedia seperti ||| 0.6 0.2 0.2 0.6 0.2 0.2
Mangsakan sing cepet cawis ||| masakan yang cepat tersedia ||| 0.6 0.2 0.2 0.6 0.2 0.2
Mangsakan sing cepet ||| masakan yang cepat ||| 0.6 0.2 0.2 0.6 0.2 0.2
Mangsakan sing ||| masakan yang ||| 0.6 0.2 0.2 0.6 0.2 0.2
Mangsakan ||| masakan ||| 0.714286 0.142857 0.142857 0.714286 0.142857 0.142857
Maret ( UNS ) . ||| Maret ( UNS ) . ||| 0.6 0.2 0.2 0.6 0.2 0.2
Maret ( UNS ) ||| Eleven ( UNS ) ||| 0.2 0.2 0.6 0.6 0.2 0.2
Maret ( UNS ) ||| Maret ( UNS ) ||| 0.846154 0.0769231 0.0769231 0.846154 0.0769231 0.0769231
Maret ( UNS ||| Eleven ( UNS ||| 0.2 0.2 0.6 0.6 0.2 0.2
Maret ( UNS ||| Maret ( UNS ||| 0.846154 0.0769231 0.0769231 0.846154 0.0769231 0.0769231
Maret ( ||| Eleven ( ||| 0.2 0.2 0.6 0.6 0.2 0.2
Maret ( ||| Maret ( ||| 0.846154 0.0769231 0.0769231 0.846154 0.0769231 0.0769231
Maret ||| Eleven ||| 0.2 0.2 0.6 0.6 0.2 0.2
Maret ||| Maret ||| 0.866667 0.0666667 0.0666667 0.866667 0.0666667 0.0666667
Maret ||| maret ||| 0.6 0.2 0.2 0.6 0.2 0.2
Masyarakat ||| Majelis ||| 0.6 0.2 0.2 0.6 0.2 0.2
Menengah ||| Menengah ||| 0.777778 0.111111 0.111111 0.777778 0.111111 0.111111
Merapi ||| Merapi merasa ||| 0.6 0.2 0.2 0.6 0.2 0.2
Merapi ||| Merapi ||| 0.6 0.2 0.2 0.6 0.2 0.2
Merapi ||| merapi ||| 0.6 0.2 0.2 0.6 0.2 0.2
Minangka ||| Sebagai ||| 0.6 0.2 0.2 0.6 0.2 0.2
Minggu ( 9 / 12 / 2018 ||| Minggu ( 9 / 12 / 2018 ||| 0.6 0.2 0.2 0.6 0.2 0.2
Minggu ( 9 / 12 / ||| Minggu ( 9 / 12 / ||| 0.6 0.2 0.2 0.6 0.2 0.2
Minggu ( 9 / 12 ||| Minggu ( 9 / 12 ||| 0.6 0.2 0.2 0.6 0.2 0.2
Minggu ( 9 / ||| Minggu ( 9 / ||| 0.6 0.2 0.2 0.6 0.2 0.2
Minggu ( 9 ||| Minggu ( 9 ||| 0.6 0.2 0.2 0.6 0.2 0.2
Minggu ( ||| Minggu ( ||| 0.777778 0.111111 0.111111 0.777778 0.111111 0.111111
Minggu ||| Minggu ||| 0.818182 0.0909091 0.0909091 0.818182 0.0909091 0.0909091
Modhel ||| Model ||| 0.6 0.2 0.2 0.6 0.2 0.2
Mulane , ||| Sebab itu , ||| 0.6 0.2 0.2 0.6 0.2 0.2
Mulane ||| Sebab itu ||| 0.6 0.2 0.2 0.6 0.2 0.2
Musik ||| Musik ||| 0.714286 0.142857 0.142857 0.714286 0.142857 0.142857
Nah ||| Nah ||| 0.6 0.2 0.2 0.6 0.2 0.2
Nanang ||| Nanang ||| 0.714286 0.142857 0.142857 0.714286 0.142857 0.142857
Negeri ||| Negri ||| 0.6 0.2 0.2 0.6 0.2 0.2
New ||| New ||| 0.6 0.2 0.2 0.6 0.2 0.2
Ngayogyakarta ||| Yogyakarta ||| 0.6 0.2 0.2 0.6 0.2 0.2
Ngliyakne ||| melainkan ||| 0.6 0.2 0.2 0.6 0.2 0.2
Nimpuna ||| seseorang ||| 0.6 0.2 0.2 0.6 0.2 0.2
Nuswantara . ||| Nusantaran . ||| 0.6 0.2 0.2 0.6 0.2 0.2
Nuswantara . ||| nusantara . ||| 0.6 0.2 0.2 0.6 0.2 0.2
Nuswantara sing ||| Nusantara yang ||| 0.6 0.2 0.2 0.6 0.2 0.2
Nuswantara ||| Nusantara ||| 0.714286 0.142857 0.142857 0.714286 0.142857 0.142857
Nuswantara ||| Nusantaran ||| 0.6 0.2 0.2 0.6 0.2 0.2
Nuswantara ||| Nuswantara ||| 0.714286 0.142857 0.142857 0.714286 0.142857 0.142857
Nuswantara ||| nusantara ||| 0.6 0.2 0.2 0.6 0.2 0.2
Oktober ||| Oktober ||| 0.6 0.2 0.2 0.6 0.2 0.2
Oktober ||| oktober ||| 0.6 0.2 0.2 0.6 0.2 0.2
Ombe banyu putih ||| minum air putih ||| 0.6 0.2 0.2 0.6 0.2 0.2
Ombe banyu ||| minum air ||| 0.6 0.2 0.2 0.6 0.2 0.2
Ombe ||| minum ||| 0.6 0.2 0.2 0.6 0.2 0.2
Pak ||| Pak ||| 0.948718 0.025641 0.025641 0.948718 0.025641 0.025641
Pak ||| pak ||| 0.714286 0.142857 0.142857 0.714286 0.142857 0.142857
Pamarintah ||| Pemerintah ||| 0.6 0.2 0.2 0.6 0.2 0.2
Pamerti budaya ||| Pemerhati budaya ||| 0.6 0.2 0.2 0.6 0.2 0.2
Pamerti budaya ||| pengamat budaya ||| 0.6 0.2 0.2 0.6 0.2 0.2
Pamerti ||| Pemerhati ||| 0.6 0.2 0.2 0.6 0.2 0.2
Pamerti ||| pengamat ||| 0.6 0.2 0.2 0.6 0.2 0.2
Patrape ||| Sikapnya ||| 0.6 0.2 0.2 0.6 0.2 0.2
Pemajuan Kebudayaan ||| Pengembangan Budaya ||| 0.6 0.2 0.2 0.6 0.2 0.2
Pemajuan ||| Pengembangan ||| 0.6 0.2 0.2 0.6 0.2 0.2
Pendidikan dan Kebudayaan Indonesia ||| Pendidikan dan Kebudayaan Indonesia ||| 0.6 0.2 0.2 0.6 0.2 0.2
Pendidikan dan Kebudayaan ||| Pendidikan dan Kebudayaan , ||| 0.6 0.2 0.2 0.6 0.2 0.2
Pendidikan dan Kebudayaan ||| Pendidikan dan Kebudayaan ||| 0.777778 0.111111 0.111111 0.555556 0.111111 0.333333
Pendidikan dan ||| Pendidikan dan ||| 0.777778 0.111111 0.111111 0.777778 0.111111 0.111111
Pendidikan ||| Pendidikan ||| 0.846154 0.0769231 0.0769231 0.846154 0.0769231 0.0769231
Pisan-tama tumis brambang lan ||| Pertama-tama tumis bawang merah dan ||| 0.6 0.2 0.2 0.6 0.2 0.2
Pisan-tama tumis brambang ||| Pertama-tama tumis bawang merah ||| 0.6 0.2 0.2 0.6 0.2 0.2
Pisan-tama tumis ||| Pertama-tama tumis ||| 0.6 0.2 0.2 0.6 0.2 0.2
Pisan-tama ||| Pertama-tama ||| 0.6 0.2 0.2 0.6 0.2 0.2
Prambanan ||| prambanan ||| 0.6 0.2 0.2 0.6 0.2 0.2
Presiden Jokowi ||| Presiden Jokowi ||| 0.6 0.2 0.2 0.6 0.2 0.2
Presiden ing ||| Presiden di ||| 0.6 0.2 0.2 0.6 0.2 0.2
Presiden ||| Presiden ||| 0.904762 0.047619 0.047619 0.904762 0.047619 0.047619
Program Studi ||| Program Studi ||| 0.6 0.2 0.2 0.6 0.2 0.2
Program ||| Program ||| 0.777778 0.111111 0.111111 0.777778 0.111111 0.111111
Rebo ( ||| Rabu ( ||| 0.904762 0.047619 0.047619 0.904762 0.047619 0.047619
Rebo . ||| Rabu . ||| 0.6 0.2 0.2 0.6 0.2 0.2
Rebo ||| Rabu ||| 0.913043 0.0434783 0.0434783 0.913043 0.0434783 0.0434783
Republik ||| Republik ||| 0.6 0.2 0.2 0.6 0.2 0.2
SMA ||| SMA ||| 0.882353 0.0588235 0.0588235 0.882353 0.0588235 0.0588235
ST Wiyono ||| ST Wiyono ||| 0.6 0.2 0.2 0.6 0.2 0.2
ST ||| ST ||| 0.714286 0.142857 0.142857 0.714286 0.142857 0.142857
Saking akehe ||| Terlalu banyaknya ||| 0.6 0.2 0.2 0.6 0.2 0.2
Saking ||| Terlalu ||| 0.6 0.2 0.2 0.6 0.2 0.2
Saking ||| karena ||| 0.6 0.2 0.2 0.6 0.2 0.2
Saking ||| sangat ||| 0.6 0.2 0.2 0.6 0.2 0.2
Sakliyane iku ||| Selain itu ||| 0.866667 0.0666667 0.0666667 0.866667 0.0666667 0.0666667
Sakliyane ||| Selain ||| 0.894737 0.0526316 0.0526316 0.894737 0.0526316 0.0526316
Sastra Daerah ||| Sastra Daerah ||| 0.428571 0.142857 0.428571 0.714286 0.142857 0.142857
Sastra Jawa Universitas Gadjah Mada ||| Sastra Jawa Universitas Gadjah Mada ||| 0.6 0.2 0.2 0.6 0.2 0.2
Sastra Jawa Universitas Gadjah ||| Sastra Jawa Universitas Gadjah ||| 0.6 0.2 0.2 0.6 0.2 0.2
Sastra Jawa Universitas ||| Sastra Jawa Universitas ||| 0.6 0.2 0.2 0.6 0.2 0.2
Sastra Jawa ||| Sastra Jawa ||| 0.6 0.2 0.2 0.6 0.2 0.2
Sastra Jawa ||| sastra Jawa ||| 0.6 0.2 0.2 0.6 0.2 0.2
Sastra ||| Sastra ||| 0.555556 0.111111 0.333333 0.777778 0.111111 0.111111
Sastra ||| sastra ||| 0.6 0.2 0.2 0.6 0.2 0.2
Sebelas Maret ( UNS ) . ||| Sebelas Maret ( UNS ) . ||| 0.6 0.2 0.2 0.6 0.2 0.2
Sebelas Maret ( UNS ) ||| Sebelas Maret ( UNS ) ||| 0.846154 0.0769231 0.0769231 0.846154 0.0769231 0.0769231
Sebelas Maret ( UNS ||| Sebelas Maret ( UNS ||| 0.846154 0.0769231 0.0769231 0.846154 0.0769231 0.0769231
Sebelas Maret ( ||| Sebelas Maret ( ||| 0.846154 0.0769231 0.0769231 0.846154 0.0769231 0.0769231
Sebelas Maret ||| Sebelas Maret ||| 0.846154 0.0769231 0.0769231 0.846154 0.0769231 0.0769231
Sebelas ||| Sebelas ||| 0.846154 0.0769231 0.0769231 0.846154 0.0769231 0.0769231
Sebelas ||| University ||| 0.6 0.2 0.2 0.2 0.6 0.2
Selasa ( ||| Selasa ( ||| 0.866667 0.0666667 0.0666667 0.866667 0.0666667 0.0666667
Selasa ( ||| hari Selasa ( ||| 0.6 0.2 0.2 0.6 0.2 0.2
Selasa ( ||| selasa ( ||| 0.6 0.2 0.2 0.6 0.2 0.2
Selasa ||| Selasa ||| 0.935484 0.0322581 0.0322581 0.935484 0.0322581 0.0322581
Selasa ||| hari Selasa ||| 0.6 0.2 0.2 0.6 0.2 0.2
Selasa ||| selasa ||| 0.6 0.2 0.2 0.6 0.2 0.2
Senen ( ||| Senin ( ||| 0.714286 0.142857 0.142857 0.714286 0.142857 0.142857
Senen ||| Senin ||| 0.714286 0.142857 0.142857 0.714286 0.142857 0.142857
Seni Indonesia ( ISI ) Solo ||| Seni Indonesia ( ISI ) Solo ||| 0.714286 0.142857 0.142857 0.714286 0.142857 0.142857
Seni Indonesia ( ISI ) ||| Seni Indonesia ( ISI ) ||| 0.714286 0.142857 0.142857 0.714286 0.142857 0.142857
Seni Indonesia ( ISI ||| Seni Indonesia ( ISI ||| 0.714286 0.142857 0.142857 0.714286 0.142857 0.142857
Seni Indonesia ( ||| Seni Indonesia ( ||| 0.714286 0.142857 0.142857 0.714286 0.142857 0.142857
Seni Indonesia ||| Seni Indonesia ||| 0.714286 0.142857 0.142857 0.714286 0.142857 0.142857
Seni ||| Seni ||| 0.846154 0.0769231 0.0769231 0.846154 0.0769231 0.0769231
Singapura . ||| Singapore . ||| 0.6 0.2 0.2 0.6 0.2 0.2
Singapura ||| Singapore ||| 0.6 0.2 0.2 0.6 0.2 0.2
Siti . ||| Siti . ||| 0.6 0.2 0.2 0.6 0.2 0.2
Siti ||| Siti ||| 0.866667 0.0666667 0.0666667 0.866667 0.0666667 0.0666667
Slamet ||| Slamet banyak ||| 0.6 0.2 0.2 0.6 0.2 0.2
Slamet ||| Slamet ||| 0.6 0.2 0.2 0.6 0.2 0.2
Solo , ||| Solo , ||| 0.95122 0.0243902 0.0243902 0.95122 0.0243902 0.0243902
Solo , ||| Solo ||| 0.6 0.2 0.2 0.6 0.2 0.2
Solo , ||| solo , ||| 0.6 0.2 0.2 0.6 0.2 0.2
Solo . ||| Solo . ||| 0.891892 0.027027 0.0810811 0.945946 0.027027 0.027027
Solo lan ||| Solo dan ||| 0.6 0.2 0.2 0.6 0.2 0.2
Solo sing ||| Solo yang ||| 0.777778 0.111111 0.111111 0.777778 0.111111 0.111111
Solo ||| Solo ||| 0.959732 0.00671141 0.033557 0.946309 0.0201342 0.033557
Solo ||| solo ||| 0.714286 0.142857 0.142857 0.714286 0.142857 0.142857
Sri ||| Sri ||| 0.818182 0.0909091 0.0909091 0.818182 0.0909091 0.0909091
Stroberi ||| Strawberry ||| 0.714286 0.142857 0.142857 0.714286 0.142857 0.142857
Studi ||| Studi ||| 0.6 0.2 0.2 0.6 0.2 0.2
Suluk ||| Sulphur ||| 0.6 0.2 0.2 0.6 0.2 0.2
Suluk ||| Suluk ||| 0.846154 0.0769231 0.0769231 0.846154 0.0769231 0.0769231
Sura ||| Sura ||| 0.6 0.2 0.2 0.6 0.2 0.2
Teater Besar Institut Seni Indonesia ( ISI ||| Teater Besar Institut Seni Indonesia ( ISI ||| 0.6 0.2 0.2 0.6 0.2 0.2
Teater Besar Institut Seni Indonesia ( ||| Teater Besar Institut Seni Indonesia ( ||| 0.6 0.2 0.2 0.6 0.2 0.2
Teater Besar Institut Seni Indonesia ||| Teater Besar Institut Seni Indonesia ||| 0.6 0.2 0.2 0.6 0.2 0.2
Teater Besar Institut Seni ||| Teater Besar Institut Seni ||| 0.6 0.2 0.2 0.6 0.2 0.2
Teater Besar Institut ||| Teater Besar Institut ||| 0.6 0.2 0.2 0.6 0.2 0.2
Teater Besar ||| Teater Besar ||| 0.6 0.2 0.2 0.6 0.2 0.2
Teater ||| Teater ||| 0.714286 0.142857 0.142857 0.714286 0.142857 0.142857
Tengah , ||| Tengah , ||| 0.6 0.2 0.2 0.6 0.2 0.2
Tengah lan Jawa ||| Tengah dan Jawa ||| 0.6 0.2 0.2 0.6 0.2 0.2
Tengah lan ||| Tengah dan ||| 0.6 0.2 0.2 0.6 0.2 0.2
Tengah ||| Tengah ||| 0.913043 0.0434783 0.0434783 0.913043 0.0434783 0.0434783
The ||| The ||| 0.6 0.2 0.2 0.6 0.2 0.2
Timun , lan ||| Mentimun , dan ||| 0.6 0.2 0.2 0.6 0.2 0.2
Timun , ||| Mentimun , ||| 0.714286 0.142857 0.142857 0.714286 0.142857 0.142857
Timun ||| Mentimun ||| 0.714286 0.142857 0.142857 0.714286 0.142857 0.142857
Timun ||| Timun ||| 0.714286 0.142857 0.142857 0.714286 0.142857 0.142857
Timur ||| Timur ||| 0.6 0.2 0.2 0.6 0.2 0.2
Tradisi ||| Tradisi ||| 0.6 0.2 0.2 0.6 0.2 0.2
Tradisi ||| Tradisional ||| 0.6 0.2 0.2 0.6 0.2 0.2
Twitter . ||| Twitter . ||| 0.6 0.2 0.2 0.6 0.2 0.2
Twitter ||| Twitter ||| 0.714286 0.142857 0.142857 0.714286 0.142857 0.142857
UNS ) . ||| UNS ) . ||| 0.6 0.2 0.2 0.6 0.2 0.2
UNS ) ||| UNS ) ||| 0.866667 0.0666667 0.0666667 0.866667 0.0666667 0.0666667
UNS ||| UNS ||| 0.904762 0.047619 0.047619 0.904762 0.047619 0.047619
Universitas Gadjah Mada ||| Universitas Gadjah Mada ||| 0.6 0.2 0.2 0.6 0.2 0.2
Universitas Gadjah ||| Universitas Gadjah ||| 0.6 0.2 0.2 0.6 0.2 0.2
Universitas Sebelas Maret ( UNS ) . ||| Universitas Sebelas Maret ( UNS ) . ||| 0.6 0.2 0.2 0.6 0.2 0.2
Universitas Sebelas Maret ( UNS ) ||| Universitas Sebelas Maret ( UNS ) ||| 0.636364 0.0909091 0.272727 0.818182 0.0909091 0.0909091
Universitas Sebelas Maret ( UNS ) ||| of Sebelas Maret ( UNS ) ||| 0.6 0.2 0.2 0.6 0.2 0.2
Universitas Sebelas Maret ( UNS ||| Universitas Sebelas Maret ( UNS ||| 0.636364 0.0909091 0.272727 0.818182 0.0909091 0.0909091
Universitas Sebelas Maret ( UNS ||| of Sebelas Maret ( UNS ||| 0.6 0.2 0.2 0.6 0.2 0.2
Universitas Sebelas Maret ( ||| Universitas Sebelas Maret ( ||| 0.636364 0.0909091 0.272727 0.818182 0.0909091 0.0909091
Universitas Sebelas Maret ( ||| of Sebelas Maret ( ||| 0.6 0.2 0.2 0.6 0.2 0.2
Universitas Sebelas Maret ||| Universitas Sebelas Maret ||| 0.636364 0.0909091 0.272727 0.818182 0.0909091 0.0909091
Universitas Sebelas Maret ||| of Sebelas Maret ||| 0.6 0.2 0.2 0.6 0.2 0.2
Universitas Sebelas ||| Universitas Sebelas ||| 0.636364 0.0909091 0.272727 0.818182 0.0909091 0.0909091
Universitas Sebelas ||| di University of ||| 0.6 0.2 0.2 0.2 0.6 0.2
Universitas Sebelas ||| of Sebelas ||| 0.6 0.2 0.2 0.6 0.2 0.2
Universitas ||| Universitas ||| 0.809524 0.047619 0.142857 0.904762 0.047619 0.047619
Universitas ||| of ||| 0.6 0.2 0.2 0.6 0.2 0.2
Wiyono ||| Wiyono ||| 0.777778 0.111111 0.111111 0.777778 0.111111 0.111111
Wondene motife beda-beda ||| sedangkan motifnya berbeda-beda ||| 0.6 0.2 0.2 0.6 0.2 0.2
Wondene motife ||| sedangkan motifnya ||| 0.6 0.2 0.2 0.6 0.2 0.2
Wondene ||| sedangkan ||| 0.6 0.2 0.2 0.6 0.2 0.2
Wonogiri , ||| Wonogiri , ||| 0.6 0.2 0.2 0.6 0.2 0.2
Wonogiri ||| Wonogiri ||| 0.6 0.2 0.2 0.6 0.2 0.2
Ya ||| Ya , ||| 0.6 0.2 0.2 0.6 0.2 0.2
Ya ||| Ya ||| 0.882353 0.0588235 0.0588235 0.764706 0.0588235 0.176471
Yuli ||| Yuli ||| 0.6 0.2 0.2 0.6 0.2 0.2
abad ||| abad ||| 0.6 0.2 0.2 0.6 0.2 0.2
abang , dele ireng , ||| merah , kedelai hitam , ||| 0.6 0.2 0.2 0.6 0.2 0.2
abang , dele ireng ||| merah , kedelai hitam ||| 0.6 0.2 0.2 0.6 0.2 0.2
abang , dele ||| merah , kedelai ||| 0.6 0.2 0.2 0.6 0.2 0.2
abang , ijo , kuning ||| merah , kuning , hijau ||| 0.6 0.2 0.2 0.6 0.2 0.2
abang , ijo , ||| merah , kuning , ||| 0.6 0.2 0.2 0.6 0.2 0.2
abang , ijo ||| merah , kuning ||| 0.6 0.2 0.2 0.6 0.2 0.2
abang , ||| merah , ||| 0.714286 0.142857 0.142857 0.714286 0.142857 0.142857
abang ||| merah ||| 0.714286 0.142857 0.142857 0.714286 0.142857 0.142857
acara ||| acara upacra ||| 0.6 0.2 0.2 0.6 0.2 0.2
acara ||| acara ||| 0.846154 0.0769231 0.0769231 0.846154 0.0769231 0.0769231
adat ||| adat ||| 0.714286 0.142857 0.142857 0.714286 0.142857 0.142857
adhedhasar saka ||| berdasarkan dari ||| 0.6 0.2 0.2 0.6 0.2 0.2
adhedhasar ||| berdasarkan ||| 0.777778 0.111111 0.111111 0.777778 0.111111 0.111111
adhedhasar ||| didasarkan ||| 0.6 0.2 0.2 0.6 0.2 0.2
adhem . ||| sejuk . ||| 0.714286 0.142857 0.142857 0.714286 0.142857 0.142857
adhem ||| sejuk ||| 0.714286 0.142857 0.142857 0.714286 0.142857 0.142857
adhep ||| terhadap ||| 0.6 0.2 0.2 0.6 0.2 0.2
adi luhung ||| luar biasa ||| 0.6 0.2 0.2 0.6 0.2 0.2
adi ||| luar ||| 0.6 0.2 0.2 0.6 0.2 0.2
adicara kasebut , ||| acara tersebut , ||| 0.6 0.2 0.2 0.6 0.2 0.2
adicara kasebut ||| acara tersebut ||| 0.6 0.2 0.2 0.6 0.2 0.2
adicara ||| acara ||| 0.966102 0.0169492 0.0169492 0.898305 0.0508475 0.0508475
adicara ||| upacara ||| 0.6 0.2 0.2 0.6 0.2 0.2
adiluhung wus kawentar nganti tekan ||| berkualitas yang sudah terkenal sampai ke ||| 0.6 0.2 0.2 0.6 0.2 0.2
adiluhung wus kawentar nganti ||| berkualitas yang sudah terkenal sampai ||| 0.6 0.2 0.2 0.6 0.2 0.2
adiluhung wus kawentar ||| berkualitas yang sudah terkenal ||| 0.6 0.2 0.2 0.6 0.2 0.2
adiluhung wus ||| berkualitas yang sudah ||| 0.6 0.2 0.2 0.6 0.2 0.2
adiluhung ||| berkualitas yang ||| 0.6 0.2 0.2 0.6 0.2 0.2
adoh ||| jauh ||| 0.555556 0.333333 0.111111 0.555556 0.111111 0.333333
adol wedhus ||| menjual kambingnya ||| 0.6 0.2 0.2 0.6 0.2 0.2
adol ||| menjual ||| 0.714286 0.142857 0.142857 0.714286 0.142857 0.142857
aeng ||| aneh ||| 0.6 0.2 0.2 0.6 0.2 0.2
agama ||| agama ||| 0.846154 0.0769231 0.0769231 0.846154 0.0769231 0.0769231
ageman ||| pakaian ||| 0.6 0.2 0.2 0.6 0.2 0.2
ageng sing ||| besar yang ||| 0.6 0.2 0.2 0.6 0.2 0.2
ageng ||| besan ||| 0.6 0.2 0.2 0.6 0.2 0.2
ageng ||| besar ||| 0.6 0.2 0.2 0.6 0.2 0.2
agung . ||| bersama . ||| 0.6 0.2 0.2 0.6 0.2 0.2
agung ||| bersama ||| 0.6 0.2 0.2 0.6 0.2 0.2
agung ||| besar ||| 0.6 0.2 0.2 0.6 0.2 0.2
aja disambi dolanan ||| jangan sambil main ||| 0.2 0.2 0.6 0.6 0.2 0.2
aja disambi ||| jangan sambil ||| 0.2 0.2 0.6 0.6 0.2 0.2
aja nganti ||| jangan sampai ||| 0.846154 0.0769231 0.0769231 0.846154 0.0769231 0.0769231
aja njiwit ||| jangan mencubit ||| 0.6 0.2 0.2 0.6 0.2 0.2
aja ||| jangan ||| 0.897436 0.025641 0.0769231 0.948718 0.025641 0.025641
akeh . ||| banyak . ||| 0.818182 0.0909091 0.0909091 0.818182 0.0909091 0.0909091
akeh kang ||| , banyak yang ||| 0.6 0.2 0.2 0.6 0.2 0.2
akeh kang ||| banyak yang ||| 0.2 0.2 0.6 0.6 0.2 0.2
akeh nom-noman ||| banyak anak muda ||| 0.846154 0.0769231 0.0769231 0.846154 0.0769231 0.0769231
akeh sing ||| , banyak yang ||| 0.6 0.2 0.2 0.6 0.2 0.2
akeh sing ||| banyak yang ||| 0.891892 0.027027 0.0810811 0.891892 0.027027 0.0810811
akeh warga ||| banyak warga ||| 0.714286 0.142857 0.142857 0.714286 0.142857 0.142857
akeh wong sing ||| banyak masyarakat yang ||| 0.6 0.2 0.2 0.6 0.2 0.2
akeh wong sing ||| banyak orang yang ||| 0.555556 0.111111 0.333333 0.777778 0.111111 0.111111
akeh wong ||| banyak masyarakat ||| 0.6 0.2 0.2 0.6 0.2 0.2
akeh wong ||| banyak orang ||| 0.764706 0.0588235 0.176471 0.882353 0.0588235 0.0588235
akeh ||| , banyak ||| 0.714286 0.142857 0.142857 0.714286 0.142857 0.142857
akeh ||| ada banyak ||| 0.6 0.2 0.2 0.6 0.2 0.2
akeh ||| banyak ||| 0.803468 0.0751445 0.121387 0.872832 0.0404624 0.0867052
akeh ||| banyaknya ||| 0.6 0.2 0.2 0.6 0.2 0.2
akehe ||| banyaknya orang ||| 0.6 0.2 0.2 0.6 0.2 0.2
akehe ||| banyaknya ||| 0.6 0.2 0.2 0.6 0.2 0.2
aksara ||| aksara ||| 0.846154 0.0769231 0.0769231 0.846154 0.0769231 0.0769231
aksara ||| aksarakan ||| 0.6 0.2 0.2 0.6 0.2 0.2
aksara ||| huruf ||| 0.960784 0.0196078 0.0196078 0.960784 0.0196078 0.0196078
aktif ||| aktif ||| 0.555556 0.111111 0.333333 0.777778 0.111111 0.111111
aku nyilih ||| aku pinjam ||| 0.6 0.2 0.2 0.6 0.2 0.2
aku precaya , ||| aku percaya , ||| 0.6 0.2 0.2 0.6 0.2 0.2
aku precaya ||| aku percaya ||| 0.6 0.2 0.2 0.6 0.2 0.2
aku seneng ||| saya senang ||| 0.6 0.2 0.2 0.6 0.2 0.2
aku ||| aku ||| 0.95122 0.0243902 0.0243902 0.902439 0.0243902 0.0731707
aku ||| saya ||| 0.92 0.04 0.04 0.92 0.04 0.04
alam . ||| alam . ||| 0.714286 0.142857 0.142857 0.714286 0.142857 0.142857
alam lan ||| alam dan ||| 0.6 0.2 0.2 0.6 0.2 0.2
alam padesan ||| alam pedesaan ||| 0.6 0.2 0.2 0.6 0.2 0.2
alam ||| alam ||| 0.913043 0.0434783 0.0434783 0.913043 0.0434783 0.0434783
alami ||| alami ||| 0.6 0.2 0.2 0.6 0.2 0.2
alas ||| hutan ||| 0.777778 0.111111 0.111111 0.777778 0.111111 0.111111
alus , ||| lembut , ||| 0.6 0.2 0.2 0.6 0.2 0.2
alus ||| halus ||| 0.6 0.2 0.2 0.6 0.2 0.2
alus ||| lembut ||| 0.6 0.2 0.2 0.6 0.2 0.2
alusan ||| halus ||| 0.6 0.2 0.2 0.6 0.2 0.2
amarga bisa dadi ||| karena bisa jadi ||| 0.6 0.2 0.2 0.6 0.2 0.2
amarga bisa ||| karena bisa ||| 0.714286 0.142857 0.142857 0.714286 0.142857 0.142857
amarga bisa ||| karena dapat ||| 0.6 0.2 0.2 0.6 0.2 0.2
amarga dheweke ||| karena dia ||| 0.818182 0.0909091 0.0909091 0.818182 0.0909091 0.0909091
amarga njupuk kabudayan liya ||| karena mempelajari kebudayaan lain ||| 0.6 0.2 0.2 0.6 0.2 0.2
amarga njupuk kabudayan ||| karena mempelajari kebudayaan ||| 0.6 0.2 0.2 0.6 0.2 0.2
amarga njupuk ||| karena mempelajari ||| 0.6 0.2 0.2 0.6 0.2 0.2
amarga ||| akibat ||| 0.6 0.2 0.2 0.6 0.2 0.2
amarga ||| dengan ||| 0.2 0.2 0.6 0.6 0.2 0.2
amarga ||| diakibatkan ||| 0.6 0.2 0.2 0.6 0.2 0.2
amarga ||| dikarenakan ||| 0.714286 0.142857 0.142857 0.714286 0.142857 0.142857
amarga ||| karena itu ||| 0.6 0.2 0.2 0.6 0.2 0.2
amarga ||| karena ||| 0.952941 0.0352941 0.0117647 0.929412 0.0117647 0.0588235
amargi ||| dikarenakan ||| 0.6 0.2 0.2 0.6 0.2 0.2
amargi ||| karena ||| 0.714286 0.142857 0.142857 0.714286 0.142857 0.142857
amba . ||| luas . ||| 0.6 0.2 0.2 0.6 0.2 0.2
amba ||| luas ||| 0.6 0.2 0.2 0.6 0.2 0.2
ambu cangkem . ||| bau mulut . ||| 0.6 0.2 0.2 0.6 0.2 0.2
ambu cangkem ||| bau mulut ||| 0.6 0.2 0.2 0.6 0.2 0.2
ambu ||| bau ||| 0.6 0.2 0.2 0.6 0.2 0.2
ana adicara ||| ada acara ||| 0.818182 0.0909091 0.0909091 0.818182 0.0909091 0.0909091
ana bab ||| ana bab ||| 0.6 0.2 0.2 0.6 0.2 0.2
ana gandheng cenenge karo ||| ada hubungannya dengan ||| 0.6 0.2 0.2 0.6 0.2 0.2
ana gandheng cenenge karo ||| ada kaitannya dengan ||| 0.6 0.2 0.2 0.6 0.2 0.2
ana gandheng cenenge ||| ada hubungannya ||| 0.6 0.2 0.2 0.6 0.2 0.2
ana gandheng cenenge ||| ada kaitannya ||| 0.6 0.2 0.2 0.6 0.2 0.2
ana gandheng rakete karo ||| ada erat kaitannya dengan ||| 0.6 0.2 0.2 0.6 0.2 0.2
ana gandheng rakete karo ||| ada hubungan eratnya dengan ||| 0.6 0.2 0.2 0.6 0.2 0.2
ana gandheng rakete karo ||| ada keterkaitan dengan ||| 0.6 0.2 0.2 0.6 0.2 0.2
ana gandheng rakete ||| ada erat kaitannya ||| 0.6 0.2 0.2 0.6 0.2 0.2
ana gandheng rakete ||| ada hubungan eratnya ||| 0.6 0.2 0.2 0.6 0.2 0.2
ana gandheng rakete ||| ada keterkaitan ||| 0.6 0.2 0.2 0.6 0.2 0.2
ana gandheng ||| ada erat ||| 0.6 0.2 0.2 0.6 0.2 0.2
ana gandheng ||| ada hubungan ||| 0.6 0.2 0.2 0.6 0.2 0.2
ana gunungan ||| ada gunung ||| 0.6 0.2 0.2 0.6 0.2 0.2
ana ing ||| ada di ||| 0.955556 0.0222222 0.0222222 0.955556 0.0222222 0.0222222
ana ing ||| ada pada ||| 0.714286 0.142857 0.142857 0.714286 0.142857 0.142857
ana ing ||| berada di ||| 0.6 0.2 0.2 0.6 0.2 0.2
ana ing ||| menempel pada ||| 0.6 0.2 0.2 0.6 0.2 0.2
ana kang ||| ada yang ||| 0.6 0.2 0.2 0.6 0.2 0.2
ana kang ||| yang ||| 0.6 0.2 0.2 0.6 0.2 0.2
ana pirang-pirang ||| ada beberapa ||| 0.6 0.2 0.2 0.6 0.2 0.2
ana sajrone tembok kraton . ||| berada di dalam tembok istana . ||| 0.6 0.2 0.2 0.6 0.2 0.2
ana sajrone tembok kraton ||| berada di dalam tembok istana ||| 0.6 0.2 0.2 0.6 0.2 0.2
ana sajrone tembok ||| berada di dalam tembok ||| 0.6 0.2 0.2 0.6 0.2 0.2
ana sajrone ||| berada di dalam ||| 0.6 0.2 0.2 0.6 0.2 0.2
ana sambung rapete karo ||| ada kaitannya dengan ||| 0.6 0.2 0.2 0.6 0.2 0.2
ana sambung rapete ||| ada kaitannya ||| 0.6 0.2 0.2 0.6 0.2 0.2
ana sing ||| ada yang ||| 0.931034 0.0344828 0.0344828 0.862069 0.0344828 0.103448
ana sing ||| ada ||| 0.6 0.2 0.2 0.6 0.2 0.2
ana sing ||| ana yang ||| 0.6 0.2 0.2 0.6 0.2 0.2
ana tamu ||| ada tamu yang ||| 0.6 0.2 0.2 0.6 0.2 0.2
ana tamu ||| ada tamu ||| 0.6 0.2 0.2 0.2 0.2 0.6
ana tari ||| ada tarian ||| 0.714286 0.142857 0.142857 0.714286 0.142857 0.142857
ana tradhisi ||| ada tradisi ||| 0.6 0.2 0.2 0.6 0.2 0.2
ana wewaler ||| ada peringatan ||| 0.6 0.2 0.2 0.6 0.2 0.2
ana wiwit ||| ada sejak ||| 0.6 0.2 0.2 0.6 0.2 0.2
ana wong sing ||| ada orang yang ||| 0.6 0.2 0.2 0.6 0.2 0.2
ana wong ||| ada orang ||| 0.714286 0.142857 0.142857 0.714286 0.142857 0.142857
ana wong ||| ada seorang ||| 0.2 0.2 0.6 0.6 0.2 0.2
ana ||| , ||| 0.6 0.2 0.2 0.6 0.2 0.2
ana ||| ada ||| 0.967347 0.0122449 0.0204082 0.97551 0.0122449 0.0122449
ana ||| ana ||| 0.714286 0.142857 0.142857 0.714286 0.142857 0.142857
ana ||| berada ||| 0.714286 0.142857 0.142857 0.714286 0.142857 0.142857
ana ||| menempel ||| 0.6 0.2 0.2 0.6 0.2 0.2
ana ||| pembiasan ||| 0.6 0.2 0.2 0.6 0.2 0.2
ana ||| terjadi ||| 0.6 0.2 0.2 0.6 0.2 0.2
anak lanange ||| anak laki-lakinya ||| 0.6 0.2 0.2 0.6 0.2 0.2
anak ||| anak ||| 0.866667 0.0666667 0.0666667 0.866667 0.0666667 0.0666667
anane ||| adanya ||| 0.636364 0.0909091 0.272727 0.818182 0.0909091 0.0909091
anane ||| keberadaanya ||| 0.6 0.2 0.2 0.6 0.2 0.2
ancas ||| itu ||| 0.6 0.2 0.2 0.6 0.2 0.2
andhap asor lan sapiturute . ||| bersikap rendah hati dan sebagainya . ||| 0.6 0.2 0.2 0.6 0.2 0.2
andhap asor lan sapiturute ||| bersikap rendah hati dan sebagainya ||| 0.6 0.2 0.2 0.6 0.2 0.2
andhap asor lan ||| bersikap rendah hati dan ||| 0.6 0.2 0.2 0.6 0.2 0.2
andhap asor ||| bersikap rendah hati ||| 0.6 0.2 0.2 0.6 0.2 0.2
andhap asor ||| rendah hati , ||| 0.6 0.2 0.2 0.6 0.2 0.2
andhap asor ||| rendah hati ||| 0.6 0.2 0.2 0.2 0.2 0.6
andhap ||| bersikap rendah ||| 0.6 0.2 0.2 0.6 0.2 0.2
andhap ||| rendah ||| 0.6 0.2 0.2 0.6 0.2 0.2
angel , ||| sulit , ||| 0.6 0.2 0.2 0.6 0.2 0.2
angel ||| sulit ||| 0.6 0.333333 0.0666667 0.6 0.0666667 0.333333
anggaran ||| anggaran ||| 0.866667 0.0666667 0.0666667 0.866667 0.0666667 0.0666667
anggitane ||| anggota ||| 0.6 0.2 0.2 0.6 0.2 0.2
anggitane ||| karangan ||| 0.6 0.2 0.2 0.6 0.2 0.2
anggone ||| dalam ||| 0.913043 0.0434783 0.0434783 0.913043 0.0434783 0.0434783
anggone ||| sejak ia ||| 0.6 0.2 0.2 0.6 0.2 0.2
anggone ||| tempat ||| 0.6 0.2 0.2 0.6 0.2 0.2
anggone ||| tentang ||| 0.6 0.2 0.2 0.6 0.2 0.2
anggone ||| untuk ||| 0.6 0.2 0.2 0.6 0.2 0.2
angin ||| angin ||| 0.6 0.2 0.2 0.6 0.2 0.2
angin ||| angina ||| 0.6 0.2 0.2 0.6 0.2 0.2
angker ||| angker ||| 0.6 0.2 0.2 0.6 0.2 0.2
angslup ||| hilang ||| 0.714286 0.142857 0.142857 0.714286 0.142857 0.142857
antara ||| antara ||| 0.6 0.2 0.2 0.6 0.2 0.2
antarane yakuwi pakulinane ||| Diantaranya yaitu kebiasaan ||| 0.6 0.2 0.2 0.6 0.2 0.2
antarane yakuwi ||| Diantaranya yaitu ||| 0.6 0.2 0.2 0.6 0.2 0.2
antarane ||| Diantaranya ||| 0.6 0.2 0.2 0.6 0.2 0.2
antarane ||| antaranya ||| 0.777778 0.111111 0.111111 0.777778 0.111111 0.111111
anteng ||| tenang ||| 0.2 0.6 0.2 0.2 0.2 0.6
anyar . ||| baru . ||| 0.6 0.2 0.2 0.6 0.2 0.2
anyar ||| Baru ||| 0.777778 0.111111 0.111111 0.777778 0.111111 0.111111
anyar ||| baru ||| 0.904762 0.047619 0.047619 0.904762 0.047619 0.047619
apa ora ||| atau tidak ||| 0.6 0.2 0.2 0.6 0.2 0.2
apa sing lagi ||| apa yang sedang ||| 0.714286 0.142857 0.142857 0.714286 0.142857 0.142857
apa sing ||| apa saja yang ||| 0.6 0.2 0.2 0.6 0.2 0.2
apa sing ||| apa yang ||| 0.894737 0.0526316 0.0526316 0.894737 0.0526316 0.0526316
apa wae . ||| apa saja . ||| 0.714286 0.142857 0.142857 0.714286 0.142857 0.142857
apa wae ||| apa saja ||| 0.846154 0.0769231 0.0769231 0.846154 0.0769231 0.0769231
apa ||| apa saja ||| 0.6 0.2 0.2 0.6 0.2 0.2
apa ||| apa ||| 0.959184 0.0204082 0.0204082 0.959184 0.0204082 0.0204082
apa ||| apalagi ||| 0.6 0.2 0.2 0.6 0.2 0.2
apa ||| atau ||| 0.6 0.2 0.2 0.6 0.2 0.2
apa-apa ||| apa saja ||| 0.6 0.2 0.2 0.6 0.2 0.2
apa-apa ||| apa-apa ||| 0.6 0.2 0.2 0.6 0.2 0.2
apa-apa ||| apapun ||| 0.6 0.2 0.2 0.6 0.2 0.2
apel ||| apel ||| 0.6 0.2 0.2 0.6 0.2 0.2
apik kanggo ||| baik untuk ||| 0.777778 0.111111 0.111111 0.777778 0.111111 0.111111
apik ||| bagus ||| 0.466667 0.466667 0.0666667 0.466667 0.0666667 0.466667
apik ||| baik ||| 0.809524 0.142857 0.047619 0.809524 0.047619 0.142857
apik ||| indah ||| 0.6 0.2 0.2 0.6 0.2 0.2
areng ||| arang ||| 0.6 0.2 0.2 0.6 0.2 0.2
arep buyar ||| akan berhenti ||| 0.6 0.2 0.2 0.6 0.2 0.2
arep ngurangi noda turah panganan sing kari ||| akan mengurangi noda bekas makanan yang tertinggal ||| 0.6 0.2 0.2 0.6 0.2 0.2
arep ngurangi noda turah panganan sing ||| akan mengurangi noda bekas makanan yang ||| 0.6 0.2 0.2 0.6 0.2 0.2
arep ngurangi noda turah panganan ||| akan mengurangi noda bekas makanan ||| 0.6 0.2 0.2 0.6 0.2 0.2
arep ngurangi noda turah ||| akan mengurangi noda bekas ||| 0.6 0.2 0.2 0.6 0.2 0.2
arep ngurangi noda ||| akan mengurangi noda ||| 0.6 0.2 0.2 0.6 0.2 0.2
arep ngurangi ||| akan mengurangi ||| 0.6 0.2 0.2 0.6 0.2 0.2
arep ||| akan ||| 0.894737 0.0526316 0.0526316 0.894737 0.0526316 0.0526316
arep ||| mau ||| 0.6 0.2 0.2 0.6 0.2 0.2
ariwarti ||| artikel ||| 0.6 0.2 0.2 0.6 0.2 0.2
artikel ||| artikel ||| 0.6 0.2 0.2 0.6 0.2 0.2
artis ||| artis ||| 0.777778 0.111111 0.111111 0.777778 0.111111 0.111111
arupa ||| berupa ||| 0.6 0.2 0.2 0.6 0.2 0.2
asale saka ||| berasal dari ||| 0.6 0.2 0.2 0.6 0.2 0.2
asale ||| asalnya ||| 0.6 0.2 0.2 0.6 0.2 0.2
asale ||| berasal ||| 0.6 0.2 0.2 0.6 0.2 0.2
asat . ||| kering . ||| 0.714286 0.142857 0.142857 0.714286 0.142857 0.142857
asat ||| kering ||| 0.714286 0.142857 0.142857 0.714286 0.142857 0.142857
asil ||| asli ||| 0.6 0.2 0.2 0.6 0.2 0.2
asil ||| hasil ||| 0.714286 0.142857 0.142857 0.714286 0.142857 0.142857
asli Indonesia ||| asli Indonesia ||| 0.714286 0.142857 0.142857 0.714286 0.142857 0.142857
asli Indonesia ||| asli indonesia ||| 0.6 0.2 0.2 0.6 0.2 0.2
asli Jawa sing ||| asli Jawa yang ||| 0.6 0.2 0.2 0.6 0.2 0.2
asli Jawa ||| asli Jawa ||| 0.714286 0.142857 0.142857 0.714286 0.142857 0.142857
asli ||| asli ||| 0.84 0.12 0.04 0.84 0.04 0.12
asline ||| asalnya ||| 0.6 0.2 0.2 0.6 0.2 0.2
asline ||| aslinya ||| 0.777778 0.111111 0.111111 0.777778 0.111111 0.111111
asline ||| sebenarnya ||| 0.6 0.2 0.2 0.6 0.2 0.2
asor lan sapiturute . ||| hati dan sebagainya . ||| 0.6 0.2 0.2 0.6 0.2 0.2
asor lan sapiturute ||| hati dan sebagainya ||| 0.6 0.2 0.2 0.6 0.2 0.2
asor lan ||| hati dan ||| 0.6 0.2 0.2 0.6 0.2 0.2
asor ||| hati , ||| 0.6 0.2 0.2 0.6 0.2 0.2
asor ||| hati ||| 0.714286 0.142857 0.142857 0.428571 0.142857 0.428571
asring ||| sering ||| 0.764706 0.0588235 0.176471 0.764706 0.0588235 0.176471
asumber ||| bersumber ||| 0.6 0.2 0.2 0.6 0.2 0.2
aturan ||| aturan ||| 0.777778 0.111111 0.111111 0.777778 0.111111 0.111111
atusan taun kepungkur ||| ratusan tahun lalu ||| 0.6 0.2 0.2 0.6 0.2 0.2
atusan taun ||| ratusan tahun ||| 0.6 0.2 0.2 0.6 0.2 0.2
atusan ||| ratusan ||| 0.777778 0.111111 0.111111 0.777778 0.111111 0.111111
awak . ||| diri . ||| 0.6 0.2 0.2 0.6 0.2 0.2
awak . ||| tubuh . ||| 0.6 0.2 0.2 0.6 0.2 0.2
awak kemringet . ||| badan berkeringat . ||| 0.6 0.2 0.2 0.6 0.2 0.2
awak kemringet ||| badan berkeringat ||| 0.6 0.2 0.2 0.6 0.2 0.2
awak ||| badan ||| 0.714286 0.142857 0.142857 0.714286 0.142857 0.142857
awak ||| diri ||| 0.6 0.2 0.2 0.6 0.2 0.2
awak ||| tubuh ||| 0.714286 0.142857 0.142857 0.714286 0.142857 0.142857
awake dhewe kudu ||| kita harus ||| 0.714286 0.142857 0.142857 0.714286 0.142857 0.142857
awake dhewe ora ||| kita tidak ||| 0.6 0.2 0.2 0.6 0.2 0.2
awake dhewe ||| depan kita ||| 0.6 0.2 0.2 0.6 0.2 0.2
awake dhewe ||| kita ||| 0.882353 0.0588235 0.0588235 0.882353 0.0588235 0.0588235
awake ||| Badannya ||| 0.6 0.2 0.2 0.6 0.2 0.2
awake ||| depan ||| 0.6 0.2 0.2 0.6 0.2 0.2
awake ||| tubuh ||| 0.6 0.2 0.2 0.6 0.2 0.2
awakmu . ||| kamu . ||| 0.6 0.2 0.2 0.6 0.2 0.2
awakmu ||| kamu ||| 0.6 0.2 0.2 0.6 0.2 0.2
awisan ||| warisan ||| 0.6 0.2 0.2 0.6 0.2 0.2
awit saka iku ||| sejak saat itu , ||| 0.6 0.2 0.2 0.6 0.2 0.2
awit saka iku ||| sejak saat itu ||| 0.866667 0.0666667 0.0666667 0.733333 0.0666667 0.2
awit saka ||| sejak saat ||| 0.866667 0.0666667 0.0666667 0.866667 0.0666667 0.0666667
awit ||| karena ||| 0.6 0.2 0.2 0.6 0.2 0.2
awit ||| sejak ||| 0.882353 0.0588235 0.0588235 0.882353 0.0588235 0.0588235
bab sing wigati ||| hal penting ||| 0.6 0.2 0.2 0.6 0.2 0.2
bab sing wigati ||| hal yang penting ||| 0.6 0.2 0.2 0.6 0.2 0.2
bab sing ||| ISI yang ||| 0.6 0.2 0.2 0.6 0.2 0.2
bab sing ||| hal yang ||| 0.846154 0.0769231 0.0769231 0.692308 0.0769231 0.230769
bab wayang ||| tentang wayang ||| 0.6 0.2 0.2 0.6 0.2 0.2
bab ||| ISI ||| 0.6 0.2 0.2 0.6 0.2 0.2
bab ||| bab ||| 0.6 0.2 0.2 0.6 0.2 0.2
bab ||| bagian ||| 0.818182 0.0909091 0.0909091 0.818182 0.0909091 0.0909091
bab ||| hal ||| 0.904762 0.047619 0.047619 0.904762 0.047619 0.047619
bab ||| pelajaran ||| 0.6 0.2 0.2 0.6 0.2 0.2
bab ||| tentang ||| 0.967213 0.0163934 0.0163934 0.967213 0.0163934 0.0163934
babagan wayang ing ||| tentang wayang di ||| 0.6 0.2 0.2 0.6 0.2 0.2
babagan wayang ||| tentang wayang ||| 0.714286 0.142857 0.142857 0.714286 0.142857 0.142857
babagan ||| bagian ||| 0.6 0.2 0.2 0.6 0.2 0.2
babagan ||| bidang musik ||| 0.6 0.2 0.2 0.6 0.2 0.2
babagan ||| bidang ||| 0.6 0.2 0.2 0.2 0.2 0.6
babagan ||| hal ||| 0.6 0.2 0.2 0.6 0.2 0.2
babagan ||| karena ||| 0.6 0.2 0.2 0.6 0.2 0.2
babagan ||| tentang ||| 0.960784 0.0196078 0.0196078 0.960784 0.0196078 0.0196078
bahan ||| bahan ||| 0.777778 0.111111 0.111111 0.777778 0.111111 0.111111
bahan ||| berbahan ||| 0.6 0.2 0.2 0.6 0.2 0.2
bakal dadi ||| akan menjadi ||| 0.6 0.2 0.2 0.6 0.2 0.2
bakal ilang sanajan wong kuwi pindhah-pindhah panggonan ||| akan hilang bahkan jika mereka sedang berpergian ||| 0.6 0.2 0.2 0.6 0.2 0.2
bakal ilang sanajan wong kuwi pindhah-pindhah ||| akan hilang bahkan jika mereka sedang ||| 0.6 0.2 0.2 0.6 0.2 0.2
bakal ilang sanajan wong ||| akan hilang bahkan ||| 0.6 0.2 0.2 0.2 0.2 0.6
bakal ||| akan ||| 0.945946 0.027027 0.027027 0.945946 0.027027 0.027027
bakal ||| pangkal ||| 0.714286 0.142857 0.142857 0.714286 0.142857 0.142857
bakale ||| akan pergi ||| 0.6 0.2 0.2 0.6 0.2 0.2
baksone , sega goreng , ||| baksonya , nasi goreng , ||| 0.6 0.2 0.2 0.6 0.2 0.2
baksone , sega goreng ||| baksonya , nasi goreng ||| 0.6 0.2 0.2 0.6 0.2 0.2
baksone , sega ||| baksonya , nasi ||| 0.6 0.2 0.2 0.6 0.2 0.2
baksone , ||| baksonya , ||| 0.6 0.2 0.2 0.6 0.2 0.2
baksone ||| baksonya ||| 0.6 0.2 0.2 0.6 0.2 0.2
bala . ||| bencana . ||| 0.6 0.2 0.2 0.6 0.2 0.2
bala ||| bencana ||| 0.6 0.2 0.2 0.6 0.2 0.2
banget . ||| sekali . ||| 0.777778 0.111111 0.111111 0.777778 0.111111 0.111111
banget kanggo sarapan ||| sekali untuk sarapan ||| 0.6 0.2 0.2 0.6 0.2 0.2
banget kanggo ||| sekali untuk ||| 0.6 0.2 0.2 0.6 0.2 0.2
banget ||| sangat ||| 0.107914 0.00719424 0.884892 0.0359712 0.942446 0.0215827
banget ||| sekali ||| 0.818182 0.0909091 0.0909091 0.818182 0.0909091 0.0909091
bangsa Indonesia ||| bangsa Indonesia ||| 0.6 0.2 0.2 0.6 0.2 0.2
bangsa ||| bangsa ||| 0.714286 0.142857 0.142857 0.714286 0.142857 0.142857
banjur , ||| kemudian , ||| 0.6 0.2 0.2 0.6 0.2 0.2
banjur , ||| lalu , ||| 0.6 0.2 0.2 0.6 0.2 0.2
banjur digandhengake karo ||| lalu digabungkan dengan ||| 0.6 0.2 0.2 0.6 0.2 0.2
banjur digandhengake ||| lalu digabungkan ||| 0.6 0.2 0.2 0.6 0.2 0.2
banjur diterusake ||| lalu diteruskan ||| 0.6 0.2 0.2 0.6 0.2 0.2
banjur nggawe ||| lalu membuat ||| 0.6 0.2 0.2 0.6 0.2 0.2
banjur ||| Seiring ||| 0.6 0.2 0.2 0.6 0.2 0.2
banjur ||| kemudian ||| 0.957447 0.0212766 0.0212766 0.957447 0.0212766 0.0212766
banjur ||| lalu ||| 0.945946 0.027027 0.027027 0.945946 0.027027 0.027027
banjur ||| sehingga ||| 0.6 0.2 0.2 0.6 0.2 0.2
banjur ||| selanjutnya ||| 0.6 0.2 0.2 0.6 0.2 0.2
banyu . ||| air . ||| 0.6 0.2 0.2 0.6 0.2 0.2
banyu iku ||| air itu ||| 0.6 0.2 0.2 0.6 0.2 0.2
banyu putih ||| air putih ||| 0.6 0.2 0.2 0.6 0.2 0.2
banyu sing ||| air yang ||| 0.6 0.2 0.2 0.6 0.2 0.2
banyu ||| air ||| 0.92 0.04 0.04 0.92 0.04 0.04
bapak lan ibu ||| bapak dan ibu ||| 0.6 0.2 0.2 0.6 0.2 0.2
bapak lan ||| bapak dan ||| 0.6 0.2 0.2 0.6 0.2 0.2
bapak ||| Ayah ||| 0.777778 0.111111 0.111111 0.777778 0.111111 0.111111
bapak ||| bapak ||| 0.777778 0.111111 0.111111 0.777778 0.111111 0.111111
bareng konco-konco . ||| bersama teman-teman . ||| 0.6 0.2 0.2 0.6 0.2 0.2
bareng konco-konco ||| bersama teman-teman ||| 0.6 0.2 0.2 0.6 0.2 0.2
bareng ||| bareng ||| 0.6 0.2 0.2 0.6 0.2 0.2
bareng ||| bersama ||| 0.777778 0.111111 0.111111 0.777778 0.111111 0.111111
barengan ||| setara ||| 0.6 0.2 0.2 0.6 0.2 0.2
basa Indonesia ||| bahasa Indonesia ||| 0.714286 0.142857 0.142857 0.714286 0.142857 0.142857
basa ||| Bahasa ||| 0.714286 0.142857 0.142857 0.714286 0.142857 0.142857
basa ||| Basa ||| 0.6 0.2 0.2 0.6 0.2 0.2
basa ||| bahasa ||| 0.953488 0.0232558 0.0232558 0.953488 0.0232558 0.0232558
bathik . ||| batik . ||| 0.714286 0.142857 0.142857 0.714286 0.142857 0.142857
bathik ana sambung rapete karo ||| batik ada kaitannya dengan ||| 0.6 0.2 0.2 0.6 0.2 0.2
bathik ana sambung rapete ||| batik ada kaitannya ||| 0.6 0.2 0.2 0.6 0.2 0.2
bathik ana ||| batik ada ||| 0.6 0.2 0.2 0.6 0.2 0.2
bathik sing ||| batik yang ||| 0.714286 0.142857 0.142857 0.714286 0.142857 0.142857
bathik yaiku ||| batik yaitu ||| 0.6 0.2 0.2 0.6 0.2 0.2
bathik ||| batik ||| 0.931034 0.0344828 0.0344828 0.862069 0.0344828 0.103448
bawang , brambang ||| bawang , bawang merah ||| 0.6 0.2 0.2 0.6 0.2 0.2
bawang , ||| bawang , ||| 0.6 0.2 0.2 0.6 0.2 0.2
bawang putih ||| bawang putih ||| 0.6 0.2 0.2 0.6 0.2 0.2
bawang ||| bawang ||| 0.714286 0.142857 0.142857 0.714286 0.142857 0.142857
bebarengan . ||| bersama . ||| 0.6 0.2 0.2 0.6 0.2 0.2
bebarengan . ||| mendukung . ||| 0.6 0.2 0.2 0.6 0.2 0.2
bebarengan ||| berdampingan ||| 0.6 0.2 0.2 0.6 0.2 0.2
bebarengan ||| bersama ||| 0.714286 0.142857 0.142857 0.714286 0.142857 0.142857
bebarengan ||| bersamaan ||| 0.714286 0.142857 0.142857 0.714286 0.142857 0.142857
bebarengan ||| mendukung ||| 0.6 0.2 0.2 0.6 0.2 0.2
bebas gula ||| bebas gula ||| 0.6 0.2 0.2 0.6 0.2 0.2
bebas ||| bebas ||| 0.714286 0.142857 0.142857 0.714286 0.142857 0.142857
bebrayan agung . ||| kehidupan bersama . ||| 0.6 0.2 0.2 0.6 0.2 0.2
bebrayan agung ||| kehidupan bersama ||| 0.6 0.2 0.2 0.6 0.2 0.2
bebrayan ||| kehidupan ||| 0.6 0.2 0.2 0.6 0.2 0.2
bebrayan ||| menikah ||| 0.6 0.2 0.2 0.6 0.2 0.2
becik . ||| indah . ||| 0.6 0.2 0.2 0.6 0.2 0.2
becik . ||| kebaikan . ||| 0.6 0.2 0.2 0.6 0.2 0.2
becik ||| baik ||| 0.818182 0.0909091 0.0909091 0.636364 0.0909091 0.272727
becik ||| baiknya ||| 0.6 0.2 0.2 0.6 0.2 0.2
becik ||| indah ||| 0.6 0.2 0.2 0.6 0.2 0.2
becik ||| kebaikan ||| 0.6 0.2 0.2 0.6 0.2 0.2
beda ||| beebeda ||| 0.6 0.2 0.2 0.6 0.2 0.2
beda ||| berbeda ||| 0.953488 0.0232558 0.0232558 0.953488 0.0232558 0.0232558
beda ||| dari ||| 0.6 0.2 0.2 0.2 0.2 0.6
beda ||| perbedaan ||| 0.777778 0.111111 0.111111 0.777778 0.111111 0.111111
beda-beda gumantung ||| berbeda-beda tergantung ||| 0.6 0.2 0.2 0.6 0.2 0.2
beda-beda ||| berbeda ||| 0.6 0.2 0.2 0.6 0.2 0.2
beda-beda ||| berbeda-beda ||| 0.818182 0.0909091 0.0909091 0.818182 0.0909091 0.0909091
beda-beda ||| masing-masing ||| 0.2 0.2 0.6 0.6 0.2 0.2
beksan . ||| beksan . ||| 0.6 0.2 0.2 0.6 0.2 0.2
beksan ||| beksan ||| 0.6 0.2 0.2 0.6 0.2 0.2
beksan ||| tarian ||| 0.714286 0.142857 0.142857 0.714286 0.142857 0.142857
ben ||| agar ||| 0.714286 0.142857 0.142857 0.714286 0.142857 0.142857
ben ||| biar ||| 0.6 0.2 0.2 0.6 0.2 0.2
ben ||| supaya ||| 0.6 0.2 0.2 0.6 0.2 0.2
bencana ||| bencana ||| 0.6 0.2 0.2 0.6 0.2 0.2
bencana ||| terjadinya bencana ||| 0.6 0.2 0.2 0.6 0.2 0.2
bener . ||| benar . ||| 0.714286 0.142857 0.142857 0.714286 0.142857 0.142857
bener ||| benar ||| 0.818182 0.0909091 0.0909091 0.818182 0.0909091 0.0909091
biasane ||| biasanya ||| 0.913043 0.0434783 0.0434783 0.913043 0.0434783 0.0434783
biaya ||| biaya ||| 0.777778 0.111111 0.111111 0.777778 0.111111 0.111111
bioskop ||| bioskop ||| 0.714286 0.142857 0.142857 0.714286 0.142857 0.142857
bisa dadi pawitan ||| bisa jadi pengingat ||| 0.6 0.2 0.2 0.6 0.2 0.2
bisa dadi ||| bisa jadi ||| 0.777778 0.111111 0.111111 0.777778 0.111111 0.111111
bisa dadi ||| bisa menjadi ||| 0.777778 0.111111 0.111111 0.777778 0.111111 0.111111
bisa dadi ||| dapat menjadi ||| 0.6 0.2 0.2 0.6 0.2 0.2
bisa diayahi kanthi ||| bisa dilakukan dengan ||| 0.6 0.2 0.2 0.6 0.2 0.2
bisa diayahi ||| bisa dilakukan ||| 0.6 0.2 0.2 0.6 0.2 0.2
bisa diilangna karo ||| bisa dihilangkan dengan ||| 0.6 0.2 0.2 0.6 0.2 0.2
bisa diilangna nganggi banyu . ||| akan bisa dihilangkan dengan air . ||| 0.6 0.2 0.2 0.6 0.2 0.2
bisa diilangna nganggi banyu ||| akan bisa dihilangkan dengan air ||| 0.6 0.2 0.2 0.6 0.2 0.2
bisa diilangna nganggi ||| akan bisa dihilangkan dengan ||| 0.6 0.2 0.2 0.6 0.2 0.2
bisa diilangna ||| bisa dihilangkan ||| 0.6 0.2 0.2 0.6 0.2 0.2
bisa diselaki . ||| dapat dihindari . ||| 0.6 0.2 0.2 0.6 0.2 0.2
bisa diselaki ||| dapat dihindari ||| 0.6 0.2 0.2 0.6 0.2 0.2
bisa ditrepake ing ||| dapat diulang di ||| 0.6 0.2 0.2 0.6 0.2 0.2
bisa ditrepake ||| bisa diterapkan ||| 0.714286 0.142857 0.142857 0.714286 0.142857 0.142857
bisa ditrepake ||| dapat diterapkan ||| 0.6 0.2 0.2 0.6 0.2 0.2
bisa ditrepake ||| dapat diulang ||| 0.6 0.2 0.2 0.6 0.2 0.2
bisa diudhari ||| berhasil dilepas ||| 0.6 0.2 0.2 0.6 0.2 0.2
bisa gumantekne ||| dapat membunuh ||| 0.6 0.2 0.2 0.6 0.2 0.2
bisa kadulu ing jati dhirine ||| dapat terlacak di jati dirinya ||| 0.6 0.2 0.2 0.6 0.2 0.2
bisa kadulu ing jati ||| dapat terlacak di jati ||| 0.6 0.2 0.2 0.6 0.2 0.2
bisa kadulu ing ||| dapat terlacak di ||| 0.6 0.2 0.2 0.6 0.2 0.2
bisa kadulu ||| dapat terlacak ||| 0.6 0.2 0.2 0.6 0.2 0.2
bisa narik ||| bisa menarik ||| 0.714286 0.142857 0.142857 0.714286 0.142857 0.142857
bisa ngilangna rasa pedes sing diamergakne capsaicinoid ||| dapat menghilangkan rasa pedas yang dikarenakan capsaicinoid ||| 0.6 0.2 0.2 0.6 0.2 0.2
bisa ngilangna rasa pedes sing diamergakne ||| dapat menghilangkan rasa pedas yang dikarenakan ||| 0.6 0.2 0.2 0.6 0.2 0.2
bisa ngilangna rasa pedes sing ||| dapat menghilangkan rasa pedas yang ||| 0.6 0.2 0.2 0.6 0.2 0.2
bisa ngilangna rasa pedes ||| dapat menghilangkan rasa pedas ||| 0.6 0.2 0.2 0.6 0.2 0.2
bisa ngilangna rasa ||| dapat menghilangkan rasa ||| 0.6 0.2 0.2 0.6 0.2 0.2
bisa ngilangna ||| dapat menghilangkan ||| 0.6 0.2 0.2 0.6 0.2 0.2
bisa ningkatake ||| dapat meningkatkan ||| 0.6 0.2 0.2 0.6 0.2 0.2
bisa tuwuh ||| bisa tumbuh ||| 0.6 0.2 0.2 0.6 0.2 0.2
bisa wae ||| bisa saja ||| 0.6 0.2 0.2 0.6 0.2 0.2
bisa ||| berhasil ||| 0.6 0.2 0.2 0.6 0.2 0.2
bisa ||| bisa ||| 0.960396 0.029703 0.00990099 0.980198 0.00990099 0.00990099
bisa ||| boleh ||| 0.714286 0.142857 0.142857 0.714286 0.142857 0.142857
bisa ||| dapat ||| 0.940299 0.0149254 0.0447761 0.970149 0.0149254 0.0149254
biyasane ana ||| biasanya ada ||| 0.6 0.2 0.2 0.6 0.2 0.2
biyasane jlag-jlug wae liwat tanpa ngucap ||| biasanya hanya lewat saja tanpa mengatakan ||| 0.6 0.2 0.2 0.6 0.2 0.2
biyasane jlag-jlug wae liwat tanpa ||| biasanya hanya lewat saja tanpa ||| 0.6 0.2 0.2 0.6 0.2 0.2
biyasane jlag-jlug wae liwat ||| biasanya hanya lewat saja ||| 0.6 0.2 0.2 0.6 0.2 0.2
biyasane jlag-jlug ||| biasanya hanya ||| 0.6 0.2 0.2 0.2 0.2 0.6
biyasane ||| biasanya ||| 0.826087 0.0434783 0.130435 0.913043 0.0434783 0.0434783
biyen nalika ||| dulu ||| 0.6 0.2 0.2 0.6 0.2 0.2
biyen ||| dahulu , ||| 0.6 0.2 0.2 0.6 0.2 0.2
biyen ||| dahulu ||| 0.6 0.2 0.2 0.2 0.2 0.6
biyen ||| dulu ||| 0.636364 0.0909091 0.272727 0.818182 0.0909091 0.0909091
bocah ||| anak ||| 0.906977 0.0697674 0.0232558 0.953488 0.0232558 0.0232558
bocah ||| anak-anak ||| 0.777778 0.111111 0.111111 0.777778 0.111111 0.111111
bocah ||| kecil ||| 0.6 0.2 0.2 0.6 0.2 0.2
bodho . ||| bodoh . ||| 0.6 0.2 0.2 0.6 0.2 0.2
bodho ||| bodoh ||| 0.6 0.2 0.2 0.6 0.2 0.2
brambang lan ||| bawang merah dan ||| 0.714286 0.142857 0.142857 0.714286 0.142857 0.142857
brambang ngandung ||| bawang merah mengandung ||| 0.6 0.2 0.2 0.6 0.2 0.2
brambang ||| bawang merah ||| 0.714286 0.142857 0.142857 0.714286 0.142857 0.142857
bregedel ||| perkedel ||| 0.6 0.2 0.2 0.6 0.2 0.2
buah uga ||| buah juga ||| 0.714286 0.142857 0.142857 0.714286 0.142857 0.142857
buah ||| buah ||| 0.904762 0.047619 0.047619 0.904762 0.047619 0.047619
buah-buahan ||| buah-buahan ||| 0.6 0.2 0.2 0.6 0.2 0.2
bubrah ||| berantakan ||| 0.714286 0.142857 0.142857 0.714286 0.142857 0.142857
budaya , ||| budaya , ||| 0.777778 0.111111 0.111111 0.777778 0.111111 0.111111
budaya . ||| budaya . ||| 0.818182 0.0909091 0.0909091 0.818182 0.0909091 0.0909091
budaya Jawa , kuwi budayane wong ||| budaya Jawa , itu budayanya orang ||| 0.6 0.2 0.2 0.6 0.2 0.2
budaya Jawa , kuwi budayane ||| budaya Jawa , itu budayanya ||| 0.6 0.2 0.2 0.6 0.2 0.2
budaya Jawa , kuwi ||| budaya Jawa , itu ||| 0.6 0.2 0.2 0.6 0.2 0.2
budaya Jawa , ||| budaya Jawa , ||| 0.6 0.2 0.2 0.6 0.2 0.2
budaya Jawa . ||| budaya Jawa . ||| 0.777778 0.111111 0.111111 0.777778 0.111111 0.111111
budaya Jawa ||| Budaya Jawa , ||| 0.6 0.2 0.2 0.6 0.2 0.2
budaya Jawa ||| Budaya Jawa ||| 0.6 0.2 0.2 0.2 0.2 0.6
budaya Jawa ||| bahasa Jawa ||| 0.6 0.2 0.2 0.6 0.2 0.2
budaya Jawa ||| budaya Jawa ||| 0.866667 0.0666667 0.0666667 0.866667 0.0666667 0.0666667
budaya Nuswantara ||| budaya Nusantara ||| 0.6 0.2 0.2 0.6 0.2 0.2
budaya lan ||| budaya dan ||| 0.6 0.2 0.2 0.6 0.2 0.2
budaya sing ||| budaya yang ||| 0.777778 0.111111 0.111111 0.777778 0.111111 0.111111
budaya ||| Budaya ||| 0.6 0.2 0.2 0.6 0.2 0.2
budaya ||| bahasa ||| 0.6 0.2 0.2 0.6 0.2 0.2
budaya ||| budaya ||| 0.974684 0.0126582 0.0126582 0.949367 0.0126582 0.0379747
budayane wong Kulon ||| budayanya orang barat . ||| 0.6 0.2 0.2 0.6 0.2 0.2
budayane wong ||| budaya orang ||| 0.6 0.2 0.2 0.6 0.2 0.2
budayane wong ||| budayanya orang ||| 0.714286 0.142857 0.142857 0.714286 0.142857 0.142857
budayane ||| budaya ||| 0.6 0.2 0.2 0.6 0.2 0.2
budayane ||| budayanya ||| 0.714286 0.142857 0.142857 0.714286 0.142857 0.142857
budayawan ||| budayawan ||| 0.714286 0.142857 0.142857 0.714286 0.142857 0.142857
budheku ||| bibiku ||| 0.6 0.2 0.2 0.6 0.2 0.2
buktine ||| buktinya ||| 0.846154 0.0769231 0.0769231 0.846154 0.0769231 0.0769231
buku ||| buku ||| 0.846154 0.0769231 0.0769231 0.846154 0.0769231 0.0769231
bukune ||| bukunya ||| 0.6 0.2 0.2 0.6 0.2 0.2
bumi ||| bumi ||| 0.6 0.2 0.2 0.6 0.2 0.2
bumi ||| sebesar ||| 0.6 0.2 0.2 0.6 0.2 0.2
busana bathik ||| Fashion batik ||| 0.6 0.2 0.2 0.2 0.2 0.6
busana ||| Fashion ||| 0.6 0.2 0.2 0.6 0.2 0.2
busana ||| busana ||| 0.6 0.2 0.2 0.6 0.2 0.2
butuh ||| butuh ||| 0.6 0.2 0.2 0.6 0.2 0.2
butuh ||| membutuhkan ||| 0.6 0.2 0.2 0.6 0.2 0.2
buyar ||| berhenti ||| 0.6 0.2 0.2 0.6 0.2 0.2
cabe ||| cabai ||| 0.6 0.2 0.2 0.6 0.2 0.2
cacah ||| berjumlah ||| 0.6 0.2 0.2 0.6 0.2 0.2
cacah ||| bilangan ||| 0.6 0.2 0.2 0.6 0.2 0.2
cacah ||| jumlah ||| 0.714286 0.142857 0.142857 0.714286 0.142857 0.142857
cacah ||| jumlahnya ||| 0.6 0.2 0.2 0.6 0.2 0.2
cacahe ||| julahnya ||| 0.6 0.2 0.2 0.6 0.2 0.2
cacahe ||| jumlah ||| 0.6 0.2 0.2 0.6 0.2 0.2
cacahe ||| jumlahnya ||| 0.866667 0.0666667 0.0666667 0.733333 0.0666667 0.2
cairan ||| cair ||| 0.6 0.2 0.2 0.6 0.2 0.2
cakrik bathik ||| bentuk batik ||| 0.6 0.2 0.2 0.6 0.2 0.2
cakrik ||| bentuk ||| 0.6 0.2 0.2 0.6 0.2 0.2
candhi ||| Candhi ||| 0.6 0.2 0.2 0.6 0.2 0.2
candhi ||| candi ||| 0.6 0.2 0.2 0.6 0.2 0.2
canggih . ||| canggih . ||| 0.6 0.2 0.2 0.6 0.2 0.2
canggih kaya ||| canggih seperti ||| 0.6 0.2 0.2 0.6 0.2 0.2
canggih ||| canggih ||| 0.714286 0.142857 0.142857 0.714286 0.142857 0.142857
cangkem . ||| mulut . ||| 0.6 0.2 0.2 0.6 0.2 0.2
cangkem lan untu . ||| mulut dan gigi . ||| 0.6 0.2 0.2 0.6 0.2 0.2
cangkem lan untu ||| mulut dan gigi ||| 0.714286 0.142857 0.142857 0.428571 0.142857 0.428571
cangkem lan ||| mulut dan ||| 0.714286 0.142857 0.142857 0.714286 0.142857 0.142857
cangkem ||| mulut ||| 0.777778 0.111111 0.111111 0.777778 0.111111 0.111111
canthing kanggo nggambar ||| canting untuk menggambar ||| 0.6 0.2 0.2 0.6 0.2 0.2
canthing kanggo ||| canting untuk ||| 0.6 0.2 0.2 0.6 0.2 0.2
canthing ||| canting ||| 0.6 0.2 0.2 0.6 0.2 0.2
capsaicinoid . ||| capsaicinoid . ||| 0.6 0.2 0.2 0.6 0.2 0.2
capsaicinoid ||| capsaicinoid ||| 0.6 0.2 0.2 0.6 0.2 0.2
cara dhewe-dhewe ||| cara masing-masing ||| 0.6 0.2 0.2 0.6 0.2 0.2
cara gawene ||| cara membuatnya ||| 0.6 0.2 0.2 0.2 0.2 0.6
cara kanggo ||| cara untuk ||| 0.714286 0.142857 0.142857 0.714286 0.142857 0.142857
cara modheren . ||| cara modern . ||| 0.6 0.2 0.2 0.6 0.2 0.2
cara modheren ||| cara modern ||| 0.6 0.2 0.2 0.6 0.2 0.2
cara nggawene ||| cara membuatnya ||| 0.6 0.2 0.2 0.2 0.2 0.6
cara sing beda ||| cara yang berbeda ||| 0.714286 0.142857 0.142857 0.714286 0.142857 0.142857
cara sing ||| cara adat ||| 0.6 0.2 0.2 0.6 0.2 0.2
cara sing ||| cara yang ||| 0.904762 0.047619 0.047619 0.904762 0.047619 0.047619
cara sing ||| cara ||| 0.6 0.2 0.2 0.6 0.2 0.2
cara supaya ||| cara supaya ||| 0.6 0.2 0.2 0.6 0.2 0.2
cara ||| cara ||| 0.971831 0.0140845 0.0140845 0.943662 0.0140845 0.0422535
carane yaiku ||| caranya adalah ||| 0.6 0.2 0.2 0.6 0.2 0.2
carane yaiku ||| caranya yaitu ||| 0.714286 0.142857 0.142857 0.714286 0.142857 0.142857
carane ||| cara ||| 0.714286 0.142857 0.142857 0.714286 0.142857 0.142857
carane ||| caranya ||| 0.846154 0.0769231 0.0769231 0.846154 0.0769231 0.0769231
carita ||| cerita yang berasal ||| 0.6 0.2 0.2 0.6 0.2 0.2
carita ||| cerita yang ||| 0.6 0.2 0.2 0.2 0.2 0.6
carita ||| cerita ||| 0.866667 0.0666667 0.0666667 0.733333 0.0666667 0.2
carita ||| dongeng ||| 0.6 0.2 0.2 0.6 0.2 0.2
carita ||| kisah ||| 0.6 0.2 0.2 0.6 0.2 0.2
cathetan sujarah ||| catatan sejarah ||| 0.6 0.2 0.2 0.6 0.2 0.2
cathetan ||| catatan ||| 0.6 0.2 0.2 0.6 0.2 0.2
cawis kaya ||| tersedia seperti ||| 0.6 0.2 0.2 0.6 0.2 0.2
cawis ||| tersedia ||| 0.6 0.2 0.2 0.6 0.2 0.2
cedhak ||| dekat ||| 0.866667 0.0666667 0.0666667 0.866667 0.0666667 0.0666667
cendhek ||| rendah ||| 0.6 0.2 0.2 0.6 0.2 0.2
cepet , ||| cepat , ||| 0.6 0.2 0.2 0.6 0.2 0.2
cepet cawis kaya ||| cepat tersedia seperti ||| 0.6 0.2 0.2 0.6 0.2 0.2
cepet cawis ||| cepat tersedia ||| 0.6 0.2 0.2 0.6 0.2 0.2
cepet ||| cepat ||| 0.818182 0.0909091 0.0909091 0.818182 0.0909091 0.0909091
cerita ||| cerita ||| 0.6 0.2 0.2 0.6 0.2 0.2
cilik , ||| kecil , ||| 0.714286 0.142857 0.142857 0.714286 0.142857 0.142857
cilik lan ||| kecil dan ||| 0.6 0.2 0.2 0.6 0.2 0.2
cilik ||| kecil ||| 0.939394 0.030303 0.030303 0.939394 0.030303 0.030303
citrane ||| citranya ||| 0.6 0.2 0.2 0.6 0.2 0.2
cocok ||| cocok ||| 0.6 0.2 0.2 0.6 0.2 0.2
conto ||| contoh ||| 0.6 0.2 0.2 0.6 0.2 0.2
contone . ||| contohnya . ||| 0.6 0.2 0.2 0.6 0.2 0.2
contone . ||| misalnya . ||| 0.6 0.2 0.2 0.6 0.2 0.2
contone ||| contohnya ||| 0.866667 0.0666667 0.0666667 0.866667 0.0666667 0.0666667
contone ||| misalnya ||| 0.714286 0.142857 0.142857 0.714286 0.142857 0.142857
corake ||| coraknya ||| 0.714286 0.142857 0.142857 0.428571 0.142857 0.428571
cukup akeh ||| yang cukup banyak ||| 0.6 0.2 0.2 0.6 0.2 0.2
cukup ||| cukup ||| 0.714286 0.142857 0.142857 0.714286 0.142857 0.142857
cukup ||| yang cukup ||| 0.6 0.2 0.2 0.6 0.2 0.2
cultural ||| budaya ||| 0.6 0.2 0.2 0.6 0.2 0.2
dadi pawitan ||| jadi pengingat ||| 0.6 0.2 0.2 0.6 0.2 0.2
dadi pralambang tumrap pangarep-arep becik . ||| jadi lambang untuk mengharapkan kebaikan . ||| 0.6 0.2 0.2 0.6 0.2 0.2
dadi pralambang tumrap pangarep-arep becik ||| jadi lambang untuk mengharapkan kebaikan ||| 0.6 0.2 0.2 0.6 0.2 0.2
dadi pralambang tumrap pangarep-arep ||| jadi lambang untuk mengharapkan ||| 0.6 0.2 0.2 0.6 0.2 0.2
dadi pralambang tumrap ||| jadi lambang untuk ||| 0.6 0.2 0.2 0.6 0.2 0.2
dadi pratandha patine ||| menjadi tanda matinya ||| 0.6 0.2 0.2 0.6 0.2 0.2
dadi pratandha ||| menjadi tanda ||| 0.6 0.2 0.2 0.6 0.2 0.2
dadi salah sawijining ||| menjadi salah satu ||| 0.818182 0.0909091 0.0909091 0.818182 0.0909091 0.0909091
dadi salah ||| jadi salah ||| 0.6 0.2 0.2 0.6 0.2 0.2
dadi salah ||| menjadi salah ||| 0.846154 0.0769231 0.0769231 0.846154 0.0769231 0.0769231
dadi sensitif ||| menjadi sensitif ||| 0.6 0.2 0.2 0.6 0.2 0.2
dadi wedhus ireng penyebab ||| menjadi kambing hitam penyebab ||| 0.6 0.2 0.2 0.2 0.2 0.6
dadi wedhus ireng ||| menjadi kambing hitam ||| 0.6 0.2 0.2 0.6 0.2 0.2
dadi wedhus ||| menjadi kambing ||| 0.6 0.2 0.2 0.6 0.2 0.2
dadi ||| adalah ||| 0.6 0.2 0.2 0.6 0.2 0.2
dadi ||| jadi ||| 0.882353 0.0588235 0.0588235 0.882353 0.0588235 0.0588235
dadi ||| memnjadi ||| 0.6 0.2 0.2 0.6 0.2 0.2
dadi ||| menjadi ||| 0.959596 0.010101 0.030303 0.959596 0.010101 0.030303
dadi ||| sehingga ||| 0.714286 0.142857 0.142857 0.714286 0.142857 0.142857
dadine jaringan gusi tetap waras . ||| sehingga jaringan gusi tetap sehat . ||| 0.6 0.2 0.2 0.6 0.2 0.2
dadine jaringan gusi tetap waras ||| sehingga jaringan gusi tetap sehat ||| 0.6 0.2 0.2 0.6 0.2 0.2
dadine jaringan gusi tetap ||| sehingga jaringan gusi tetap ||| 0.6 0.2 0.2 0.6 0.2 0.2
dadine jaringan gusi ||| sehingga jaringan gusi ||| 0.6 0.2 0.2 0.6 0.2 0.2
dadine jaringan ||| sehingga jaringan ||| 0.6 0.2 0.2 0.6 0.2 0.2
dadine ||| menjadikan ||| 0.6 0.2 0.2 0.6 0.2 0.2
dadine ||| sehingga ||| 0.777778 0.111111 0.111111 0.777778 0.111111 0.111111
daging ||| daging ||| 0.714286 0.142857 0.142857 0.714286 0.142857 0.142857
dalem nata kang ana sajrone tembok ||| dalam mengatur yang berada di dalam tembok ||| 0.6 0.2 0.2 0.6 0.2 0.2
dalem nata kang ana sajrone ||| dalam mengatur yang berada di dalam ||| 0.6 0.2 0.2 0.6 0.2 0.2
dalem nata kang ana ||| dalam mengatur yang berada ||| 0.6 0.2 0.2 0.6 0.2 0.2
dalem nata kang ||| dalam mengatur yang ||| 0.6 0.2 0.2 0.6 0.2 0.2
dalem nata ||| dalam mengatur ||| 0.6 0.2 0.2 0.6 0.2 0.2
dalem ||| dalam ||| 0.777778 0.111111 0.111111 0.777778 0.111111 0.111111
dalem ||| istana ||| 0.6 0.2 0.2 0.6 0.2 0.2
dan Kebudayaan Indonesia ||| dan Kebudayaan Indonesia ||| 0.6 0.2 0.2 0.6 0.2 0.2
dan Kebudayaan ||| dan Kebudayaan , ||| 0.6 0.2 0.2 0.6 0.2 0.2
dan Kebudayaan ||| dan Kebudayaan ||| 0.777778 0.111111 0.111111 0.555556 0.111111 0.333333
dan ||| , dan ||| 0.6 0.2 0.2 0.6 0.2 0.2
dan ||| dan ||| 0.764706 0.0588235 0.176471 0.882353 0.0588235 0.0588235
daya ||| kekuatan ||| 0.6 0.2 0.2 0.6 0.2 0.2
dele ireng , ||| kedelai hitam , ||| 0.6 0.2 0.2 0.6 0.2 0.2
dele ireng ||| kedelai hitam ||| 0.6 0.2 0.2 0.6 0.2 0.2
dele ||| kedelai ||| 0.6 0.2 0.2 0.6 0.2 0.2
dene mubarang ||| berasal dari ||| 0.6 0.2 0.2 0.6 0.2 0.2
dene ||| bahwa ||| 0.846154 0.0769231 0.0769231 0.846154 0.0769231 0.0769231
dene ||| dengan ||| 0.6 0.2 0.2 0.6 0.2 0.2
dene ||| jika ||| 0.714286 0.142857 0.142857 0.714286 0.142857 0.142857
dene ||| mengatakan ||| 0.6 0.2 0.2 0.6 0.2 0.2
dene ||| meskipun ||| 0.6 0.2 0.2 0.6 0.2 0.2
dene ||| sedang ||| 0.6 0.2 0.2 0.6 0.2 0.2
dene ||| sedangkan ||| 0.846154 0.0769231 0.0769231 0.692308 0.0769231 0.230769
dene ||| sementara ||| 0.714286 0.142857 0.142857 0.714286 0.142857 0.142857
dene ||| tetapi ||| 0.6 0.2 0.2 0.6 0.2 0.2
dening para ||| oleh para ||| 0.6 0.2 0.2 0.6 0.2 0.2
dening wong sing ||| oleh oknum yang ||| 0.6 0.2 0.2 0.6 0.2 0.2
dening wong sing ||| oleh orang yang ||| 0.6 0.2 0.2 0.2 0.2 0.6
dening wong ||| oleh oknum ||| 0.6 0.2 0.2 0.6 0.2 0.2
dening wong ||| oleh orang ||| 0.6 0.2 0.2 0.6 0.2 0.2
dening ||| oleh ||| 0.971831 0.0140845 0.0140845 0.971831 0.0140845 0.0140845
dening ||| roh ||| 0.6 0.2 0.2 0.6 0.2 0.2
dentin ||| dentin ||| 0.6 0.2 0.2 0.6 0.2 0.2
desa ||| desa ||| 0.931034 0.0344828 0.0344828 0.862069 0.0344828 0.103448
desa-desa ||| desa-desa ||| 0.714286 0.142857 0.142857 0.714286 0.142857 0.142857
dhaerah liyane ||| daerah lainnya ||| 0.6 0.2 0.2 0.6 0.2 0.2
dhaerah ||| daerah ||| 0.882353 0.0588235 0.0588235 0.882353 0.0588235 0.0588235
dhaerah ||| regional ||| 0.6 0.2 0.2 0.6 0.2 0.2
dhaerahe ||| daerahnya ||| 0.6 0.2 0.2 0.2 0.2 0.6
dhalang duwe ||| , dalang memiliki ||| 0.6 0.2 0.2 0.6 0.2 0.2
dhalang duwe ||| dalang memiliki ||| 0.428571 0.142857 0.428571 0.714286 0.142857 0.142857
dhalang saka ||| dalang dari ||| 0.6 0.2 0.2 0.6 0.2 0.2
dhalang ||| , dalang ||| 0.6 0.2 0.2 0.6 0.2 0.2
dhalang ||| , sebagai dalang ||| 0.6 0.2 0.2 0.2 0.2 0.6
dhalang ||| Dalang ||| 0.6 0.2 0.2 0.6 0.2 0.2
dhalang ||| dalang ||| 0.894737 0.0175439 0.0877193 0.929825 0.0175439 0.0526316
dhalang ||| sebagai dalang ||| 0.2 0.2 0.6 0.2 0.2 0.6
dhasar ||| dasar ||| 0.777778 0.111111 0.111111 0.777778 0.111111 0.111111
dhemen ||| suka ||| 0.428571 0.428571 0.142857 0.428571 0.142857 0.428571
dhewe . ||| sendiri . ||| 0.818182 0.0909091 0.0909091 0.818182 0.0909091 0.0909091
dhewe ing ||| sendiri di ||| 0.6 0.2 0.2 0.6 0.2 0.2
dhewe kudu ||| kita harus ||| 0.904762 0.047619 0.047619 0.904762 0.047619 0.047619
dhewe waca . ||| kita baca . ||| 0.6 0.2 0.2 0.6 0.2 0.2
dhewe waca ||| kita baca ||| 0.6 0.2 0.2 0.6 0.2 0.2
dhewe ||| kita ||| 0.945946 0.027027 0.027027 0.945946 0.027027 0.027027
dhewe ||| sendiri ||| 0.904762 0.047619 0.047619 0.904762 0.047619 0.047619
dhewe-dhewe ||| masing-masing ||| 0.818182 0.0909091 0.0909091 0.818182 0.0909091 0.0909091
dhewe-dhewe ||| sendiri-sendiri ||| 0.6 0.2 0.2 0.6 0.2 0.2
dheweke banjur ||| dia kemudian ||| 0.6 0.2 0.2 0.6 0.2 0.2
dheweke kabiji duwe sipat-sipat lan solah bawa ||| dia termasuk mempunyai sifat-sifat dan pembawaan ||| 0.6 0.2 0.2 0.6 0.2 0.2
dheweke kabiji duwe sipat-sipat lan ||| dia termasuk mempunyai sifat-sifat dan ||| 0.6 0.2 0.2 0.6 0.2 0.2
dheweke kabiji duwe sipat-sipat ||| dia termasuk mempunyai sifat-sifat ||| 0.6 0.2 0.2 0.6 0.2 0.2
dheweke kabiji duwe ||| dia termasuk mempunyai ||| 0.6 0.2 0.2 0.6 0.2 0.2
dheweke kabiji ||| dia termasuk ||| 0.6 0.2 0.2 0.6 0.2 0.2
dheweke ngandharake ||| dia mengatakan ||| 0.714286 0.142857 0.142857 0.714286 0.142857 0.142857
dheweke ngandharake ||| dia menjelaskan ||| 0.6 0.2 0.2 0.6 0.2 0.2
dheweke pancen ||| dia memang ||| 0.6 0.2 0.2 0.6 0.2 0.2
dheweke pancen ||| dia sangat ||| 0.6 0.2 0.2 0.6 0.2 0.2
dheweke ||| Cak Diqin ||| 0.6 0.2 0.2 0.6 0.2 0.2
dheweke ||| Cak ||| 0.6 0.2 0.2 0.2 0.2 0.6
dheweke ||| dia ||| 0.966387 0.00840336 0.0252101 0.983193 0.00840336 0.00840336
dheweke ||| dirinya sendiri ||| 0.6 0.2 0.2 0.6 0.2 0.2
dheweke ||| dirinya ||| 0.894737 0.0526316 0.0526316 0.789474 0.0526316 0.157895
dheweke ||| ia ||| 0.777778 0.111111 0.111111 0.777778 0.111111 0.111111
dheweke ||| mereka ||| 0.6 0.2 0.2 0.6 0.2 0.2
dhirine ||| dirinya ||| 0.6 0.2 0.2 0.6 0.2 0.2
dhisik supaya ||| terlebih dahulu agar ||| 0.6 0.2 0.2 0.6 0.2 0.2
dhisik ||| terlebih dahulu ||| 0.777778 0.111111 0.111111 0.777778 0.111111 0.111111
dhisik ||| terlebih ||| 0.6 0.2 0.2 0.6 0.2 0.2
dhosen ing ||| dosen di ||| 0.6 0.2 0.2 0.6 0.2 0.2
dhosen ||| dosen ||| 0.714286 0.142857 0.142857 0.714286 0.142857 0.142857
dhurung disuguhi wedang ||| belum disediakan minuman ||| 0.6 0.2 0.2 0.6 0.2 0.2
dhurung disuguhi ||| belum disediakan ||| 0.6 0.2 0.2 0.6 0.2 0.2
dhurung ||| belum ||| 0.6 0.2 0.2 0.6 0.2 0.2
dhuwur lan ||| tinggi dan ||| 0.2 0.2 0.6 0.6 0.2 0.2
dhuwur ||| atas ||| 0.6 0.2 0.2 0.6 0.2 0.2
dhuwur ||| tinggi ||| 0.692308 0.0769231 0.230769 0.846154 0.0769231 0.0769231
diadani ||| Dipandu ||| 0.6 0.2 0.2 0.6 0.2 0.2
diadani ||| diadakan ||| 0.882353 0.0588235 0.0588235 0.882353 0.0588235 0.0588235
diadani ||| dilakukan ||| 0.6 0.2 0.2 0.6 0.2 0.2
diadani ||| diselenggarakan ||| 0.777778 0.111111 0.111111 0.777778 0.111111 0.111111
diakibatake ||| diakibatkan ||| 0.6 0.2 0.2 0.6 0.2 0.2
diakoni ||| diakui ||| 0.6 0.2 0.2 0.6 0.2 0.2
diakoni ||| dikenal ||| 0.6 0.2 0.2 0.6 0.2 0.2
diamergakne capsaicinoid . ||| dikarenakan capsaicinoid . ||| 0.6 0.2 0.2 0.6 0.2 0.2
diamergakne capsaicinoid ||| dikarenakan capsaicinoid ||| 0.6 0.2 0.2 0.6 0.2 0.2
diamergakne sacacah hal ||| dikarenakan beberapa hal ||| 0.6 0.2 0.2 0.6 0.2 0.2
diamergakne sacacah ||| dikarenakan beberapa ||| 0.6 0.2 0.2 0.6 0.2 0.2
diamergakne ||| dikarenakan ||| 0.714286 0.142857 0.142857 0.714286 0.142857 0.142857
dianakne ||| diadakan ||| 0.6 0.2 0.2 0.6 0.2 0.2
diandharake ||| ditulis ||| 0.714286 0.142857 0.142857 0.714286 0.142857 0.142857
dianggep ora ||| dianggap tidak ||| 0.6 0.2 0.2 0.6 0.2 0.2
dianggep ||| dianggap ||| 0.818182 0.0909091 0.0909091 0.818182 0.0909091 0.0909091
dianyak ||| diadakan ||| 0.6 0.2 0.2 0.6 0.2 0.2
diarahake ||| diarahkan ||| 0.6 0.2 0.2 0.6 0.2 0.2
diatur ing ||| diatur di ||| 0.6 0.2 0.2 0.6 0.2 0.2
diatur ||| diatur ||| 0.6 0.2 0.2 0.6 0.2 0.2
diayahi kanthi ||| dilakukan dengan ||| 0.6 0.2 0.2 0.6 0.2 0.2
diayahi ||| dilakukan ||| 0.6 0.2 0.2 0.6 0.2 0.2
dibabar ||| diadakan ||| 0.6 0.2 0.2 0.6 0.2 0.2
dibabar ||| dibahas ||| 0.714286 0.142857 0.142857 0.714286 0.142857 0.142857
dibabar ||| dibawakan ||| 0.6 0.2 0.2 0.6 0.2 0.2
dibabar ||| dibawakannya ||| 0.6 0.2 0.2 0.6 0.2 0.2
dibabar ||| dibicarakan ||| 0.6 0.2 0.2 0.6 0.2 0.2
dibabar ||| dijadikan ||| 0.6 0.2 0.2 0.6 0.2 0.2
dibabar ||| diperkenalkan ||| 0.6 0.2 0.2 0.6 0.2 0.2
dibabar ||| disajikan ||| 0.6 0.2 0.2 0.6 0.2 0.2
dibarengi ||| diintegrasikan ||| 0.6 0.2 0.2 0.6 0.2 0.2
dibebungahi sebutir ||| dihadiahi sebuah ||| 0.6 0.2 0.2 0.6 0.2 0.2
dibebungahi ||| dihadiahi ||| 0.6 0.2 0.2 0.6 0.2 0.2
dibiwarakake ing saindhenging ndonya ||| ditetapkan di seluruh dunia ||| 0.6 0.2 0.2 0.6 0.2 0.2
dibiwarakake ing saindhenging ||| ditetapkan di seluruh ||| 0.6 0.2 0.2 0.6 0.2 0.2
dibiwarakake ing ||| ditetapkan di ||| 0.6 0.2 0.2 0.6 0.2 0.2
dibiwarakake ||| ditetapkan ||| 0.6 0.2 0.2 0.6 0.2 0.2
diciduk nganggo canthing kanggo nggambar ||| diambil dengan canting untuk menggambar ||| 0.6 0.2 0.2 0.6 0.2 0.2
diciduk nganggo canthing kanggo ||| diambil dengan canting untuk ||| 0.6 0.2 0.2 0.6 0.2 0.2
diciduk nganggo canthing ||| diambil dengan canting ||| 0.6 0.2 0.2 0.6 0.2 0.2
diciduk nganggo ||| diambil dengan ||| 0.6 0.2 0.2 0.6 0.2 0.2
diciduk ||| diambil ||| 0.6 0.2 0.2 0.6 0.2 0.2
dielingake , ||| diingatkan , ||| 0.6 0.2 0.2 0.6 0.2 0.2
dielingake ||| diingatkan ||| 0.714286 0.142857 0.142857 0.714286 0.142857 0.142857
dienggo . ||| digunakan . ||| 0.6 0.2 0.2 0.6 0.2 0.2
dienggo ||| digunakan ||| 0.6 0.2 0.2 0.6 0.2 0.2
digambarake ||| digambarkan ||| 0.714286 0.142857 0.142857 0.714286 0.142857 0.142857
digandhengake karo ||| digabungkan dengan ||| 0.6 0.2 0.2 0.6 0.2 0.2
digandhengake ||| digabungkan ||| 0.6 0.2 0.2 0.6 0.2 0.2
diganggu ||| diganggu ||| 0.714286 0.142857 0.142857 0.714286 0.142857 0.142857
diganti ||| diganti ||| 0.6 0.2 0.2 0.6 0.2 0.2
digarap ||| dibuat ||| 0.6 0.2 0.2 0.6 0.2 0.2
digarap ||| dikerjakan ||| 0.6 0.2 0.2 0.6 0.2 0.2
digarap ||| dilakukan ||| 0.6 0.2 0.2 0.6 0.2 0.2
digawa ||| dibawa ||| 0.714286 0.142857 0.142857 0.714286 0.142857 0.142857
digawe ||| dibuat ||| 0.913043 0.0434783 0.0434783 0.913043 0.0434783 0.0434783
digelar ||| diadakan ||| 0.6 0.2 0.2 0.6 0.2 0.2
digelar ||| ditampilkan ||| 0.6 0.2 0.2 0.6 0.2 0.2
digital ||| digital ||| 0.6 0.2 0.2 0.6 0.2 0.2
digunakake dening ||| digunakan oleh ||| 0.6 0.2 0.2 0.6 0.2 0.2
digunakake kanggo ||| digunakan untuk ||| 0.777778 0.111111 0.111111 0.777778 0.111111 0.111111
digunakake kanggo ||| dimanfaatkan sebagai ||| 0.6 0.2 0.2 0.6 0.2 0.2
digunakake ||| digunakan ||| 0.882353 0.0588235 0.0588235 0.882353 0.0588235 0.0588235
digunakake ||| dimanfaatkan ||| 0.714286 0.142857 0.142857 0.714286 0.142857 0.142857
diilangna karo ||| dihilangkan dengan ||| 0.6 0.2 0.2 0.6 0.2 0.2
diilangna ||| dihilangkan ||| 0.6 0.2 0.2 0.6 0.2 0.2
diisi ||| diisi ||| 0.777778 0.111111 0.111111 0.777778 0.111111 0.111111
dijaga . ||| dijaga . ||| 0.6 0.2 0.2 0.6 0.2 0.2
dijaga lan dilestarekake ||| dijaga dan dilestarikan ||| 0.6 0.2 0.2 0.6 0.2 0.2
dijaga lan ||| dijaga dan ||| 0.6 0.2 0.2 0.6 0.2 0.2
dijaga supayasaya ||| dijaga agar semakin ||| 0.6 0.2 0.2 0.6 0.2 0.2
dijaga ||| dijaga ||| 0.777778 0.111111 0.111111 0.777778 0.111111 0.111111
dijak ||| diajak ||| 0.6 0.2 0.2 0.6 0.2 0.2
dijak ||| diminta ||| 0.6 0.2 0.2 0.6 0.2 0.2
dijenengke ||| dinamakan ||| 0.6 0.2 0.2 0.6 0.2 0.2
dijiwit , ya aja njiwit ||| dicubit , maka jangan mencubit ||| 0.6 0.2 0.2 0.6 0.2 0.2
dijiwit , ya aja ||| dicubit , maka jangan ||| 0.6 0.2 0.2 0.6 0.2 0.2
dijiwit , ya ||| dicubit , maka ||| 0.6 0.2 0.2 0.6 0.2 0.2
dijiwit , ||| dicubit , ||| 0.6 0.2 0.2 0.6 0.2 0.2
dijiwit ||| dicubit ||| 0.6 0.2 0.2 0.6 0.2 0.2
dijupuk saka ||| diambil dari ||| 0.6 0.2 0.2 0.6 0.2 0.2
dijupuk ||| diambil ||| 0.714286 0.142857 0.142857 0.714286 0.142857 0.142857
dikandhakake ||| dibicarakan ||| 0.6 0.2 0.2 0.6 0.2 0.2
dikandhani ||| diberitahu ||| 0.6 0.2 0.2 0.6 0.2 0.2
dikandhani ||| dikatakan ||| 0.6 0.2 0.2 0.6 0.2 0.2
dikarepake ||| diinginkan oleh ||| 0.6 0.2 0.2 0.6 0.2 0.2
dikarepake ||| kita inginkan ||| 0.6 0.2 0.2 0.6 0.2 0.2
dikebeki ||| dipenuhi ||| 0.714286 0.142857 0.142857 0.714286 0.142857 0.142857
dikirimake ||| dikirimkan ||| 0.6 0.2 0.2 0.6 0.2 0.2
dikuwatake ||| dikuatkan ||| 0.6 0.2 0.2 0.6 0.2 0.2
dilakoke ||| dilakukan ||| 0.6 0.2 0.2 0.6 0.2 0.2
dilakoni ||| dilakukan ||| 0.714286 0.142857 0.142857 0.714286 0.142857 0.142857
dilalekake . ||| dilupakan . ||| 0.2 0.2 0.6 0.6 0.2 0.2
dilalekake ||| dilupakan ||| 0.2 0.2 0.6 0.6 0.2 0.2
dilebokake ||| diletakkan ||| 0.6 0.2 0.2 0.6 0.2 0.2
dilebokake ||| dimasukkan ke ||| 0.6 0.2 0.2 0.6 0.2 0.2
dilebokake ||| dimasukkan ||| 0.714286 0.142857 0.142857 0.714286 0.142857 0.142857
dileboni ||| diserap ||| 0.6 0.2 0.2 0.6 0.2 0.2
dilestarekake ||| dilestarikan ||| 0.6 0.2 0.2 0.6 0.2 0.2
dimangsak ||| dimasak ||| 0.6 0.2 0.2 0.6 0.2 0.2
dimasak ||| dimasak ||| 0.6 0.2 0.2 0.6 0.2 0.2
dimenangna saka sawong pangon sapanggon ||| dimenangkan oleh seseorang setempat ||| 0.6 0.2 0.2 0.6 0.2 0.2
dimenangna saka sawong pangon ||| dimenangkan oleh seseorang ||| 0.6 0.2 0.2 0.6 0.2 0.2
dimenangna ||| dimenangkan ||| 0.6 0.2 0.2 0.6 0.2 0.2
dimlebokake ||| dimasukkan ||| 0.6 0.2 0.2 0.6 0.2 0.2
dina Jemuah ||| Jumat ||| 0.6 0.2 0.2 0.6 0.2 0.2
dina ||| Dina ||| 0.6 0.2 0.2 0.6 0.2 0.2
dina ||| hari ||| 0.942857 0.0285714 0.0285714 0.885714 0.0285714 0.0857143
dinas ||| dinas ||| 0.714286 0.142857 0.142857 0.714286 0.142857 0.142857
dinduweni ||| dimiliki ||| 0.6 0.2 0.2 0.6 0.2 0.2
dionceki werdine . ||| ditahan maknanya . ||| 0.6 0.2 0.2 0.6 0.2 0.2
dionceki werdine ||| ditahan maknanya ||| 0.6 0.2 0.2 0.6 0.2 0.2
dionceki ||| ditahan ||| 0.6 0.2 0.2 0.6 0.2 0.2
diowah-owah . ||| diubah-ubah . ||| 0.6 0.2 0.2 0.6 0.2 0.2
diowah-owah ||| diubah-ubah ||| 0.6 0.2 0.2 0.6 0.2 0.2
dipanaske ||| dipanaskan ||| 0.6 0.2 0.2 0.6 0.2 0.2
dipangan mentah ||| dimakan mentah ||| 0.6 0.2 0.2 0.6 0.2 0.2
dipangan ||| dimakan ||| 0.714286 0.142857 0.142857 0.714286 0.142857 0.142857
dipapah menyang ||| dibawa ke ||| 0.6 0.2 0.2 0.6 0.2 0.2
dipapah ||| dibawa ||| 0.6 0.2 0.2 0.6 0.2 0.2
diparagani dening ||| diperankan oleh ||| 0.6 0.2 0.2 0.6 0.2 0.2
diparagani ||| diperankan ||| 0.6 0.2 0.2 0.6 0.2 0.2
dipenging ||| dilarang ||| 0.6 0.2 0.2 0.6 0.2 0.2
dipepe dhisik supaya ||| dijemur terlebih dahulu agar ||| 0.6 0.2 0.2 0.6 0.2 0.2
dipepe dhisik ||| dijemur terlebih dahulu ||| 0.6 0.2 0.2 0.6 0.2 0.2
dipepe ||| dijemur ||| 0.6 0.2 0.2 0.6 0.2 0.2
dipercaya ||| dipercaya ||| 0.6 0.2 0.2 0.6 0.2 0.2
diprecaya dadi pralambang tumrap pangarep-arep becik . ||| dipercaya jadi lambang untuk mengharapkan kebaikan . ||| 0.6 0.2 0.2 0.6 0.2 0.2
diprecaya dadi pralambang tumrap pangarep-arep becik ||| dipercaya jadi lambang untuk mengharapkan kebaikan ||| 0.6 0.2 0.2 0.6 0.2 0.2
diprecaya dadi pralambang tumrap pangarep-arep ||| dipercaya jadi lambang untuk mengharapkan ||| 0.6 0.2 0.2 0.6 0.2 0.2
diprecaya dadi pralambang tumrap ||| dipercaya jadi lambang untuk ||| 0.6 0.2 0.2 0.6 0.2 0.2
diprecaya dadi ||| dipercaya jadi ||| 0.6 0.2 0.2 0.6 0.2 0.2
diprecaya ||| dipercaya ||| 0.714286 0.142857 0.142857 0.714286 0.142857 0.142857
diputer ||| diputar ||| 0.6 0.2 0.2 0.6 0.2 0.2
dirasakne ||| dirasakan ||| 0.6 0.2 0.2 0.6 0.2 0.2
disajike ||| disajikan ||| 0.2 0.2 0.6 0.6 0.2 0.2
disalahke ||| disalahkan ||| 0.6 0.2 0.2 0.6 0.2 0.2
disambi dolanan ||| sambil main ||| 0.6 0.2 0.2 0.6 0.2 0.2
disambi ||| sambil ||| 0.714286 0.142857 0.142857 0.714286 0.142857 0.142857
disebut ||| disebut ||| 0.6 0.2 0.2 0.6 0.2 0.2
diselaki . ||| dihindari . ||| 0.6 0.2 0.2 0.6 0.2 0.2
diselaki ||| dihindari ||| 0.6 0.2 0.2 0.6 0.2 0.2
diselehake ||| ditempatkan ||| 0.6 0.2 0.2 0.6 0.2 0.2
disenengi ||| digemari ||| 0.6 0.2 0.2 0.6 0.2 0.2
disenengi ||| disukai ||| 0.777778 0.111111 0.111111 0.555556 0.111111 0.333333
disengkuyung dening ||| dibantu ||| 0.6 0.2 0.2 0.6 0.2 0.2
disengkuyung ||| didukung ||| 0.6 0.2 0.2 0.6 0.2 0.2
disengkuyung ||| dilakukan ||| 0.6 0.2 0.2 0.6 0.2 0.2
disengkuyung ||| saling ||| 0.6 0.2 0.2 0.6 0.2 0.2
disinau ||| dipelajari ||| 0.714286 0.142857 0.142857 0.714286 0.142857 0.142857
disowani ||| ditemui ||| 0.6 0.2 0.2 0.6 0.2 0.2
disuguhi wedang ||| disediakan minuman ||| 0.6 0.2 0.2 0.6 0.2 0.2
disuguhi ||| disediakan ||| 0.6 0.2 0.2 0.6 0.2 0.2
ditabuh ||| itu dimainkan ||| 0.6 0.2 0.2 0.6 0.2 0.2
ditampa dening masarakat ||| diterima masyarakat ||| 0.6 0.2 0.2 0.6 0.2 0.2
ditampa dening ||| diterima ||| 0.6 0.2 0.2 0.6 0.2 0.2
ditampa ing Universitas ||| diterima di Universitas ||| 0.2 0.2 0.6 0.6 0.2 0.2
ditampa ing ||| diterima di ||| 0.2 0.2 0.6 0.6 0.2 0.2
ditampa ||| diterima ||| 0.2 0.2 0.6 0.6 0.2 0.2
ditegori ||| ditebangi ||| 0.6 0.2 0.2 0.6 0.2 0.2
ditemokake ||| ditemui ||| 0.6 0.2 0.2 0.6 0.2 0.2
ditemokake ||| ditemukan ||| 0.6 0.2 0.2 0.6 0.2 0.2
ditemoni ||| bertemu di ||| 0.6 0.2 0.2 0.6 0.2 0.2
ditemoni ||| ditemui di ||| 0.714286 0.142857 0.142857 0.714286 0.142857 0.142857
ditemoni ||| ditemui ||| 0.714286 0.142857 0.142857 0.714286 0.142857 0.142857
ditemoni ||| ia temui ||| 0.6 0.2 0.2 0.6 0.2 0.2
diterak nalika ||| dilakukan saat ||| 0.6 0.2 0.2 0.6 0.2 0.2
diterak ||| dilakukan ||| 0.6 0.2 0.2 0.6 0.2 0.2
diterusake ||| diteruskan ||| 0.714286 0.142857 0.142857 0.714286 0.142857 0.142857
diteruske menyang ||| diteruskan kepada kepada ||| 0.6 0.2 0.2 0.6 0.2 0.2
diteruske ||| diteruskan kepada ||| 0.6 0.2 0.2 0.6 0.2 0.2
ditetepake ||| diterapkan ||| 0.6 0.2 0.2 0.6 0.2 0.2
ditinggalke ||| ditinggalkan ||| 0.6 0.2 0.2 0.6 0.2 0.2
