buah buah 1.0000000
buta raksasa 1.0000000
buta Raksasa 1.0000000
kepedesen kepedasan 0.6666667
apik nya 0.2500000
apik bagus 0.8750000
apik baik 0.5294118
apik indah 0.2000000
saksuwene selama 0.2500000
saksuwene lamanya 0.5000000
olahraga olahraga 1.0000000
Mangkunegaran Mangkunegaran 1.0000000
bali kembali 0.2500000
Sraddha Institut 0.2500000
Sraddha Sraddha 0.8333333
agawe dibuat 0.0833333
agawe membuat 0.0526316
reged kotor 1.0000000
Pandheyan tukang 0.2000000
Pandheyan besi 0.1111111
cundrik cundrik 1.0000000
Astri Astri 1.0000000
Ka Ka 1.0000000
2 2 1.0000000
Bambang Bambang 1.0000000
Bambang bambang 1.0000000
provinsi provinsi 1.0000000
Soedharsono Soedharsono 1.0000000
visi visi 0.6666667
owah merubah 1.0000000
sore sore 0.5000000
gayeng-gayengan becandaan 1.0000000
Basa bahasa 0.0416667
Basa Belanda 0.5000000
Basa Bahasa 0.8695652
kari menempel 0.2000000
kari tertinggal 1.0000000
penghargaan penghargaan 0.3333333
omahe ke 0.0571429
omahe rumahnya 0.6666667
omahe rumah 0.0400000
capsaicinoid capsaicinoid 1.0000000
pilek pilek 1.0000000
sabenere sebenarnya 0.3333333
Konghucu Konghucu 1.0000000
Konghucu dari 0.0106383
Goni Goni 1.0000000
Kabare Kabarnya 1.0000000
wadhah wadah 1.0000000
dibayangke dibayangkan 1.0000000
400-an 400-an 1.0000000
mewah mewah 1.0000000
nggambar menggambar 1.0000000
Atika Atika 1.0000000
pentase Pertujukannya 1.0000000
pentase pentasnya 1.0000000
Sedekah Bersedekah 1.0000000
Kejambon Kejambon 1.0000000
Ja Ja 1.0000000
Tengah Tengah 1.0000000
getih darah 1.0000000
ujian ujian 0.5000000
akehe orang 0.0117647
akehe banyaknya 0.6666667
cabe cabai 0.5000000
Km Km 1.0000000
nutupi menutupi 1.0000000
mitos mitos 1.0000000
kaping-36 ke 0.0285714
kaping-36 36 1.0000000
iringan untuk 0.0095238
iringan beriringan 0.5000000
walik balik 1.0000000
demo pendemo 0.4000000
tentrem ketentraman 1.0000000
tentrem tentram 0.3333333
tentrem dhewe 0.3333333
omonange semua 0.0256410
omonange omongannya 1.0000000
geni api 0.6666667
geni dihasilkan 0.5000000
warga warga 0.9166667
warga penduduknya 0.5000000
warga masyarakat 0.0416667
muslim muslim 1.0000000
candhi candi 0.3333333
candhi Candhi 1.0000000
mupuk mengasah 1.0000000
sorotan sorotan 1.0000000
purwa Purwa 1.0000000
sesrawungan aula 0.5000000
Julius Julius 1.0000000
wuri diikuti 0.3333333
bersaing bersaing 1.0000000
sulur-sulur salur-salur 1.0000000
Akuntansi Akuntansi 1.0000000
TV TV 1.0000000
aksara hufuf 0.5000000
aksara NULL 0.0172414
aksara aksarakan 1.0000000
aksara aksara 0.8571429
aksara hafalan 0.5000000
aksara huruf 1.0000000
hawa hawa 0.5000000
hawa udara 0.5000000
artikel artikel 0.2500000
Jawi Jawa 0.0075758
ujar bilang 0.5000000
ujar mengatakan 0.0697674
kwajiban kewajiban 1.0000000
sabubare selesai 0.3333333
sabubare setelah 0.2307692
Dha Dha 1.0000000
minuman minuman 0.2500000
cendhek rendah 0.3333333
pulo Pulau 1.0000000
menak bangsawan 1.0000000
okol fisik 0.5000000
Tiongkok Cina 0.1000000
preduli peduli 0.5000000
preduli perduli 1.0000000
trengginas lincah 1.0000000
maneka berbagi 1.0000000
maneka berbagai 0.8000000
maneka beraneka 1.0000000
keprigelan keterampilan 0.5000000
Pisan-tama Pertama-tama 1.0000000
kelas kelasnya 1.0000000
kelas kelas 0.7692308
banjir banjir 1.0000000
Gambyong Gambyong 1.0000000
leluhur leluhur 0.4000000
Muhammad Muhammad 1.0000000
kita kita 0.0810811
kita dhewe 0.3333333
antara antara 1.0000000
sehat sehat 0.6666667
padhepokan padepokan 1.0000000
asline aslinya 1.0000000
asline asalnya 0.5000000
asline sebenarnya 0.1666667
swara suara 0.5000000
Tha Tha 1.0000000
deres deras 1.0000000
Apameneh apalagi 0.2222222
Gitar gitar 0.5000000
masyarakat masyarakat 0.0833333
jalaran perintah 0.3333333
jalaran karena 0.1304348
isine isi 0.5000000
isine isinyha 1.0000000
isine isinya 1.0000000
isine bahasa 0.0416667
isine berisi 0.2000000
gegayutane hubungannya 0.2000000
wolu delapan 1.0000000
mujudke mewujudkan 0.5000000
Pindhah Pindhah 1.0000000
ampyang ampyang 1.0000000
mimisan mimisan 1.0000000
Sutardjo Sutardjo 1.0000000
rumangsane rasanya 0.2000000
koplo koplo 1.0000000
kejawen Jawa 0.0303030
kejawen kejawen 1.0000000
kejawen adat 0.2000000
kejawen jawa 0.1000000
terna antar 1.0000000
padha mendaftar 0.3333333
padha mereka 0.1428571
padha saling 0.3333333
padha pada 0.1190476
padha sesuai 0.1250000
padha menyalakan 0.1666667
padha sama 0.6666667
padha orang 0.0117647
padha semuanya 0.5000000
protokol protokol 1.0000000
dhemeni disukai 0.1428571
Pendidikan Pendidikan 1.0000000
ngetrepake menerapkan 1.0000000
dhewe-dhewe sendiri-sendiri 1.0000000
dhewe-dhewe masing-masing 0.8000000
dienggo digunakan 0.1000000
malahan telah 0.0322581
malahan bahkan 0.2857143
antarane antaranya 1.0000000
antarane Diantaranya 1.0000000
semester semester 1.0000000
nindakaken melakukannya 1.0000000
jawab jawab 1.0000000
ndhukung mendukung 0.3333333
Mulan Mulan 1.0000000
digambarake digambarkan 1.0000000
sumbere sumbernya 1.0000000
Saling saling 0.3333333
manungsa manusia 0.8750000
patine matinya 1.0000000
patine Punahnya 1.0000000
nyelaki berkomentar 1.0000000
arupa berupa 0.3333333
mulange pembelajaran 0.5000000
sanadyan Padahal 0.1666667
sanadyan walaupun 0.2500000
sanadyan begitu 0.0909091
sanadyan walau 1.0000000
sanadyan meskipun 0.8461538
Tambanglaras Tambanglaras 1.0000000
gaman alat 0.3333333
sayuran sayur 0.2500000
sayuran Sayuran 1.0000000
Pembawa pembawa 0.3333333
apa saja 0.0357143
apa atau 0.0178571
apa apalagi 0.4444444
apa apa 0.8888889
ditrapake ditempuh 1.0000000
pengowahan perubahan 1.0000000
Yania Yania 1.0000000
kamanungsan kemanusiaan 0.5000000
panemuku penemuanku 1.0000000
Istana Istana 1.0000000
mbah rumah 0.0400000
mbah Kakek 1.0000000
mbah kakak 0.5000000
geseng gosong 1.0000000
kaserat disebutkan 0.5000000
Kajianne Kajiannya 1.0000000
Silent Silent 1.0000000
kasebut kampung 0.5000000
kasebut disebut 0.7500000
kasebut disebutkan 0.5000000
kasebut upacara 0.1428571
kasebut tersebut 0.8000000
kasebut itu 0.0411765
Manteb Manteb 1.0000000
sesuk besok 0.7500000
adi luar 0.1250000
sego nasi 0.5000000
cilik kecil 0.8888889
gurun gurun 1.0000000
nduwe memiliki 0.0400000
jebule ternyata 1.0000000
dhosen dosen 0.2857143
guyon bercanda 0.5000000
seksi saksi 1.0000000
cah anak 0.0188679
cacah bilangan 1.0000000
cacah jumlah 0.4000000
cacah jumlahnya 0.1111111
cacah berjumlah 1.0000000
cultural budaya 0.0172414
diremehake dihina 1.0000000
tradisi tradisional 0.0588235
tradisi tradisi 0.0833333
kedelok kondisi 0.3333333
kedelok terlihat 0.1428571
Wahyu Wahyu 1.0000000
kain kain 0.6666667
sajrone selama 0.2500000
sajrone di 0.0032895
sajrone dalam 0.0652174
piye bagaimana 0.5555556
khusus khusus 0.2500000
kampung-kampung kampung-kampung 1.0000000
prenahe tantangan 1.0000000
barus barus 1.0000000
Banyuwangi Banyuwangi 1.0000000
godhog rebus 1.0000000
luhung biasa 0.2000000
Apidae Apidae 1.0000000
efek efek 1.0000000
wetenge lambungnya 1.0000000
saiki merambah 0.5000000
saiki sekarang 1.0000000
saiki ini 0.1746032
saiki saat 0.1200000
1975 1975 1.0000000
pejuwang pejuang 1.0000000
dharat darat 1.0000000
putri nenek 0.2500000
Semarang Semarang 1.0000000
Prihadi Prihadi 1.0000000
nglatih melatih 1.0000000
sakral sakral 1.0000000
Dhandhanggula Dhandhanggula 1.0000000
separo setengah 0.5000000
Bandung Bandung 1.0000000
pawitan pengingat 0.5000000
pandesan pedesaan 0.5000000
nyokot menggigit 1.0000000
digitalisasi digitalisasi 1.0000000
digitalisasi didigitalkan 1.0000000
digitalisasi mendigitalkan 1.0000000
legenda legenda 1.0000000
akal akal 0.6666667
hp hp 0.6666667
enjang pagi 0.3333333
alusan halus 0.3333333
pikir pikir 1.0000000
kandungan kandungan 0.5000000
karawitan karawitan 1.0000000
karawitan dan 0.0040816
akeh melihatnya 0.3333333
akeh banyaknya 0.3333333
akeh banyak 0.9450549
akeh penggemar 0.1666667
plancongan berlibur 0.6666667
kepindo Kedua 1.0000000
kakung nenek 0.2500000
nyulam merajut 1.0000000
sopan sopan 0.6666667
kasengkuyung didukung 0.6666667
kasengkuyung dibantu 0.2500000
asuhan asuhan 1.0000000
diandharake ditulis 0.2222222
muga-muga semoga 1.0000000
Kulon Barat 0.5000000
Kulon barat 0.5000000
Kulon . 0.0007519
sakit sakit 0.2500000
ndesa desa 0.0476190
sapiturute sebagainya 0.1666667
basane bahasa 0.0416667
basane bahasanya 1.0000000
tetesan tetesan 1.0000000
di-scan di 0.0032895
di-scan scan 1.0000000
tingkat tingkat 1.0000000
ajang kancah 1.0000000
tanpa tanpa 0.8888889
Slamet banyak 0.0109890
Slamet Riyadi 0.5000000
Slamet Jalan 0.3333333
Slamet Slamet 1.0000000
cekelan pegangan 0.6666667
radio radio 1.0000000
kothakan kotak 0.5000000
nglantur melantur 1.0000000
telung tiga 0.7777778
rock rock 1.0000000
Kecamatan Kabupaten 0.5000000
Kecamatan Kecamatan 1.0000000
Ainun Ainun 1.0000000
tegese maknanya 0.3333333
tegese artinya 0.2500000
tegese berarti 0.6666667
tegese makna 0.2500000
peraturan peraturan 1.0000000
sebutir sebuah 0.2500000
kawigaten menarik 0.0909091
kawigaten perhatian 0.1250000
gumedhe sombong 1.0000000
Ombe minum 0.3333333
sirna sirna 1.0000000
olah olah 1.0000000
cita-cita cita-cita 1.0000000
mawa membawa 0.5000000
mawa membaca 0.0769231
mawa dengan 0.0185185
mawa melalui 0.6000000
pariwisata pariwisata 1.0000000
sendhok sendok 1.0000000
Anita Anita 1.0000000
Aji Aji 1.0000000
tilik berkunjung 0.2500000
teh teh 1.0000000
Jayaatmaja Jayaatmaja 1.0000000
Skuter Scooter 1.0000000
supayasaya agar 0.0714286
supayasaya semakin 0.0909091
guwang membuang 0.1666667
sakjroning dalam 0.0217391
mbayangke membayangkan 1.0000000
mbakal akan 0.0555556
juru pengarang 0.5000000
ngapalke menghafalkan 1.0000000
Arin Arin 0.5000000
pedhes pedas 0.6666667
televisi televisi 1.0000000
hoax Hoax 1.0000000
lagune lagunya 0.5000000
itungan perhitungan 0.5000000
dikon disuruh 0.5000000
dikon disuh 1.0000000
krasa Baru 0.1428571
krasa merasa 0.1000000
Fave Fave 1.0000000
sakudune seharusnya 0.2500000
jejogetan bergoyang 0.3333333
trabasan jalan 0.2500000
trabasan pintasnya 1.0000000
sabab penyebabnya 0.3333333
ngarani menyebut 1.0000000
puluhan puluhan 1.0000000
dirusakne dirusak 1.0000000
yen mengeluh 0.2500000
yen saat 0.0200000
yen ruang 0.5000000
yen Vino 0.5000000
yen bahwa 0.2380952
yen jika 0.7750000
yen bagi 0.1111111
yen kalau 0.9375000
yen sedangkan 0.1428571
yen ketika 0.0746269
yen apabila 1.0000000
tiket tiket 1.0000000
digunakake digunakan 0.7000000
digunakake dimanfaatkan 1.0000000
1985 1985 0.5000000
urip hidup 0.9375000
nyirami menyirami 1.0000000
sariawan Sariawan 1.0000000
Cindy Cindy 1.0000000
ngripta menciptakan 1.0000000
ngripta menulis 0.0909091
Fajar fajar 1.0000000
Negeri Islam 0.2500000
Negeri Negri 1.0000000
tengere pendirian 1.0000000
komunitas komunitas 0.0952381
rakaruan tidak 0.0070423
rakaruan beraturan 1.0000000
Gubernur Gubernur 1.0000000
pati terlalu 0.8000000
metode metode 1.0000000
sumrambyahe melestarikan 0.0769231
ekonomi ekonomi 1.0000000
23 23 1.0000000
E E 1.0000000
kucing kucing 0.8000000
kae itu 0.0058824
disiyapake disiapkan 0.6666667
jarene kata 0.0434783
kondhang terkenal 0.0833333
kondhang lebih 0.0243902
ngoncori mengairi 1.0000000
marang menyukai 0.2500000
marang untuk 0.0095238
marang pada 0.0714286
marang terhdap 1.0000000
marang terhadap 0.4285714
marang dalam 0.0217391
marang dengan 0.0740741
marang kepada 0.8113208
lirih halus 0.3333333
lirih sangat 0.0119048
lirih terdengar 0.5000000
madhani tertandingi 0.3333333
Boreh Boreh 1.0000000
Jawane Jawanya 1.0000000
penggemare penggemarnya 1.0000000
bandhane hartanya 1.0000000
Abdul Abdul 1.0000000
bubrah berantakan 1.0000000
sijining satunya 0.0769231
kowe kamu 0.7500000
kowe untukmu 0.5000000
kowe sepedamu 0.5000000
Saking Terlalu 1.0000000
Saking karena 0.0144928
Saking sangat 0.0119048
Dodik Dodik 1.0000000
Prangwedan Prangwedan 1.0000000
pengin mau 0.0625000
pengin ingin 0.5500000
NULL , 0.0251256
NULL mereka 0.1428571
NULL bagian 0.0833333
NULL dari 0.0106383
NULL baru 0.0588235
NULL telah 0.0322581
NULL tidak 0.0070423
NULL Bahasa 0.0434783
NULL para 0.0384615
NULL berasal 0.1666667
NULL sendiri 0.1000000
NULL yang 0.0140000
NULL itu 0.0176471
NULL untuk 0.0095238
NULL sebagai 0.0666667
NULL Diqin 0.1428571
NULL ada 0.0076336
NULL musik 0.0666667
Perancis Prancis 0.3333333
pralambang lambang 0.6666667
ngetrapake penerapan 1.0000000
DKS DKS 1.0000000
turunan turunan 1.0000000
masarakate masyarakatnya 1.0000000
Nikita Nikita 1.0000000
asma asma 1.0000000
La La 1.0000000
sapatemon berbincang 0.5000000
Jalan jalan 0.2500000
Youtube Youtube 1.0000000
kajaba kecuali 1.0000000
nglenggahi menduduki 1.0000000
panemune ucapan 0.5000000
butuh membutuhkan 1.0000000
butuh butuh 1.0000000
Ngajarake Mengajarkan 1.0000000
foto foto 1.0000000
ki ini 0.0158730
ki itu 0.0058824
ki Ki 0.5000000
sekitar orang 0.0117647
sekitar dengan 0.0092593
sekitar sekitar 0.2857143
les les 1.0000000
Agustus agustus 1.0000000
Agustus Agustus 1.0000000
TK TK 1.0000000
anggitane anggota 0.2500000
anggitane karangan 1.0000000
1700-an 1700-an 1.0000000
udhar lepas 0.3333333
dhurung belum 0.1111111
crita cerita 0.3000000
crita menceritakan 0.2500000
crita bercerita 0.5000000
digital digital 1.0000000
Dewi Dewi 1.0000000
karet karet 1.0000000
nedha makan 0.0500000
diblanjakake dibelanjakan 1.0000000
siaran siaran 1.0000000
nggunakake digunakan 0.1000000
nggunakake menggunakan 0.1538462
nggunakake memakai 1.0000000
nggunakake gunakan 0.5000000
ditulis ditulis 0.2222222
anane keberadaanya 1.0000000
anane adanya 0.8000000
luntur memudar 1.0000000
online online 1.0000000
omongane kata-kata 1.0000000
kelompoke kelompoknya 1.0000000
turah bekas 1.0000000
turah sisa 0.5000000
turah menyapu 0.2500000
tulisan tulisan 0.8571429
tulisan solopos 0.0526316
lawang pintu 1.0000000
Polisi Polisi 1.0000000
mangun membangun 0.3333333
klinik klinik 1.0000000
motor motor 1.0000000
Kelinci Kelinci 1.0000000
: : 1.0000000
pambiwara acara 0.0555556
pambiwara pembawa 0.6666667
semak-semak semak-semak 1.0000000
hukum hukum 0.5000000
kanti sampai 0.0294118
kamardikan kemerdekaan 0.6666667
Malin Malin 1.0000000
Sadurung sebelum 0.0588235
Jumuah jumat 0.5000000
duwekmu punyamu 1.0000000
siji satu 0.1470588
apa-apa apa 0.0370370
apa-apa apapun 0.5000000
apa-apa apa-apa 1.0000000
apa-apa saja 0.0357143
alamiah alami 0.5000000
ngrembakake memperkuat 0.5000000
ngrembakake mengembangkan 1.0000000
ngrembakake Mempromosikan 1.0000000
Sunan Sunan 1.0000000
kawentar terkenal 0.3333333
kawentar dikenal 0.1666667
kawentar populer 0.3333333
Ket sejak 0.0400000
Ket saat 0.0200000
black band 1.0000000
black black 1.0000000
Tarsa Tarsa 1.0000000
gugur gugur 1.0000000
3WMP 3WMP 1.0000000
Ibrahim Ibrahim 1.0000000
Rahmat Rahmat 1.0000000
mbesuke depannya 1.0000000
ayem tentram 0.3333333
ayem tenang 0.6666667
ayem damai 0.3333333
Pranowo Pranowo 1.0000000
% % 1.0000000
Jebres Jebres 1.0000000
ditemtokake ditentukan 1.0000000
Idul Idul 1.0000000
tanggaku tetangga 0.2500000
tanggaku saya 0.0666667
wiwit kemanusiaan 0.5000000
wiwit sedari 1.0000000
wiwit kalangan 0.3333333
wiwit dari 0.0425532
wiwit semenjak 1.0000000
wiwit sejak 0.6000000
wiwit setelah 0.0769231
wiwit Riyadi 0.5000000
wiwit mulai 1.0000000
ide ide 1.0000000
saka dari 0.8829787
saka karena 0.0144928
saka sejak 0.0400000
saka oleh 0.0600000
saka RRI 0.1250000
saka asal 1.0000000
saka suka 0.0526316
saka yang 0.0020000
saka dar 1.0000000
saka pada 0.0238095
saka matahari 0.3333333
saka kejadian 0.3333333
saka NULL 0.0344828
saka saat 0.1200000
saka Lulusan 1.0000000
sumrambah merambah 0.5000000
sumrambah dikenal 0.1666667
nrajang bersebrangan 1.0000000
dhisik terlebih 1.0000000
dhisik dahulu 0.2727273
pratandha tanda 0.7500000
karan adalah 0.0217391
karan dikenal 0.1666667
buyar berhenti 0.2500000
Masjid Masjid 1.0000000
disiapake disiapkan 0.3333333
pagelaran pertunjukan 0.3750000
pagelaran pementasan 0.1111111
enom pemuda 0.2000000
enom muda 0.0975610
konsep konsep 1.0000000
Desi Desi 1.0000000
wewulang ajaran 0.0833333
sesepuh sesepuh 1.0000000
sakliya-liyane lain-lainnya 0.1111111
Borobudur Borobudur 1.0000000
jaringan jaringan 1.0000000
kana sampai 0.0294118
kana manuskrip 0.2500000
kana disana 0.5454545
kana sana 1.0000000
kana itu 0.0058824
pira-pira beberapa 0.0400000
cairan cair 1.0000000
nguripi menghidupkan 1.0000000
kababar mempelajari 0.0625000
keluhuran keluhuran 1.0000000
lagi ada 0.0076336
lagi menderita 0.5000000
lagi baru 0.0588235
lagi berlibur 0.3333333
lagi sedang 0.7142857
pilot pilot 1.0000000
2011 2011 1.0000000
dikuwatake dikuatkan 1.0000000
Australia Australia 1.0000000
reresik bersih-bersih 0.3333333
mandiri mandiri 1.0000000
Bangsal bangsal 1.0000000
diwulangake diajarkan 0.1818182
upaya upaya 0.5000000
Godhong daun 0.7500000
dentin dentin 1.0000000
cukup yang 0.0020000
cukup cukup 0.7500000
700-an 700-an 1.0000000
jeneng nama 1.0000000
tani di 0.0032895
tani desa 0.0476190
kang yang 0.0680000
Menak Menak 1.0000000
kamarku kamarku 1.0000000
nguri-uri melestarikan 0.6923077
nguri-uri menjaga 0.1111111
paragane pemeran 0.1111111
paragane Pemerannya 1.0000000
paragane tokohnya 0.5000000
jumlahe jumlahnya 0.1111111
Dilan Dilan 1.0000000
terkenal terkenal 0.0833333
jilidane halamannya 1.0000000
workshop workshop 1.0000000
s s 1.0000000
digugat dituntut 1.0000000
reggae reggae 0.5000000
penyanyi penyanyi 1.0000000
gedhunge gedungnya 1.0000000
karya karya 0.5000000
ngimpi memimpikan 1.0000000
gayeng Menyenangkan 1.0000000
gayeng berubah 0.5000000
sinambi sambil 0.1428571
Helikopter Helikopter 1.0000000
Dina hari 0.0555556
Dina Dina 0.5000000
Rabu Rabu 0.0909091
dhasar dasar 0.5000000
ngrungokake mendengarkan 0.9090909
Internasional Internasional 0.3333333
bank bank 1.0000000
Kancil Kancil 1.0000000
Tapi Tapi 0.3333333
bunder bulat 1.0000000
sadina-dina sehari-hari 1.0000000
Pararaton Pararaton 1.0000000
jemparing jemparing 1.0000000
masak memasak 0.5000000
ditinggalke ditinggalkan 1.0000000
wesi besi 0.4444444
ngucapke bersyukur 0.3333333
bahane bahannya 1.0000000
klenengan klenengan 1.0000000
tuture kata 0.1304348
kaiket terikat 1.0000000
pedese pedasnya 1.0000000
kanggonan tempat 0.1818182
jati jati 1.0000000
ngancik membuka 0.2500000
Sunda Sunda 1.0000000
mite mite 1.0000000
penting penting 0.4000000
penting sebuah 0.2500000
Sakliyane Selain 0.7272727
pranyata tujuannya 0.3333333
diomongake dibicarakan 0.3333333
diomongake dikatakan 0.5000000
jempu jempu 1.0000000
Music Music 1.0000000
bancaan bancaan 1.0000000
kaasilake dihasilkan 0.5000000
ditemoni bertemu 0.5000000
ditemoni ditemui 0.6666667
ditemoni temui 1.0000000
ditemoni di 0.0098684
ditemoni ia 0.1428571
ekosistem seimbangnya 0.5000000
ekosistem ekosistem 1.0000000
Losari Losari 1.0000000
Wonosobo Wonosobo 1.0000000
Isyak Isyak 1.0000000
wisata wisata 1.0000000
wisata Wisata 1.0000000
Pendhapa Pendopo 1.0000000
Kapercayan kepercayaan 0.2500000
sakdawane sepanjang 0.5000000
arane sebutan 1.0000000
sakehing semua 0.0512821
Kusumo Soemirat 0.2000000
Kusumo Kusumo 0.7142857
gejala gejala 1.0000000
ngambang mengapung 1.0000000
simpenane simpanannya 1.0000000
festival ada 0.0076336
festival festival 0.5000000
Sapejagong hadir 0.3333333
Sapejagong dimohon 1.0000000
sumure sumurnya 1.0000000
sapanunggalane lain-lainnya 0.1111111
20 20 1.0000000
dina Dina 0.5000000
dina Bhayangkara 0.5000000
dina hari 0.8888889
dina HUT 0.5000000
dina Jumat 0.2500000
pangan makan 0.0500000
pangan makanan 0.0555556
mudha-mudhi pemuda-pemudi 1.0000000
lampion lentera 1.0000000
Khusus Khusus 1.0000000
mlebune termasuknya 1.0000000
wangune berbentuk 0.2500000
35 35 1.0000000
bisnise bisnisnya 1.0000000
ringkih lemah 1.0000000
separoh setengah 0.5000000
ewon ribuan 0.5000000
diajarke diajarkan 0.3636364
diajarke dilatih 1.0000000
nulungi menolongnya 0.5000000
nulungi membantu 0.2500000
daging daging 1.0000000
SD SD 1.0000000
kelembagaan kelembagaan 1.0000000
Rukune Rukunnya 1.0000000
omongan pembicaraan 1.0000000
mbuktekake membuktikan 1.0000000
sifat sifat 0.1666667
malam malam 0.1818182
Dhagan Dhagan 1.0000000
welasan belasan 1.0000000
kue kue 0.5000000
ana lahir 0.1250000
ana ada 0.9236641
ana terjadi 0.2000000
ana ana 1.0000000
ana berkumpul 0.3333333
ana NULL 0.0517241
ana bertempat 0.3333333
ana tertandingi 0.3333333
ana pembiasan 1.0000000
ana berada 0.6666667
ana , 0.0012563
ana menempel 0.2000000
ana rasa 0.0714286
kemis kamis 1.0000000
adat adat 0.6000000
adat rasa 0.0714286
gula gula 1.0000000
putu cucu 1.0000000
positif positif 1.0000000
neng pada 0.0238095
neng di 0.0230263
wedi takut 1.0000000
alam alam 1.0000000
tan terbatas 0.5000000
gotong-royong royong 1.0000000
gotong-royong Gotong 1.0000000
pamarintahane pemerintahannya 1.0000000
akhire akhirnya 1.0000000
ngrungokne mendengarkan 0.0909091
nyapu menyapu 0.7500000
nyapu makanan 0.0555556
Randha Randha 1.0000000
nyumet penduduknya 0.5000000
nyumet menyalakan 0.6666667
kuna kuno 0.8750000
tetenger ciri 0.5000000
Burj Burj 1.0000000
mbangun membangun 0.3333333
sikap sikap 0.3333333
pitrahe kodratnya 1.0000000
Doni Doni 1.0000000
kasektene kesaktian 1.0000000
kabudayaan budaya 0.0172414
kabudayaan kebudayaan 0.1111111
menehake memberikan 0.2000000
Menteri Menteri 1.0000000
dipapah dibawa 0.3333333
Gino Gino 1.0000000
ndhudhah mengungkapkan 0.5000000
tari menari 0.6250000
tari tari 0.7333333
tari tarian 0.8571429
2014 2014 1.0000000
piranti alat 0.5000000
piranti peralatan 1.0000000
piranti alat-alat 0.5000000
kasuksesan kesuksesan 0.2000000
rodo cenderung 1.0000000
wanita wanita 0.2500000
sakjam satu 0.0294118
sakjam jam 0.2500000
liwat lewat 0.6666667
berkah restu 1.0000000
Negara Negara 0.2500000
Langit Langit 1.0000000
buktine buktinya 1.0000000
ilate lidahnya 1.0000000
brandhing promosi 0.5000000
Wiwid Wiwid 1.0000000
Wiwid bersamaWiwid 0.5000000
blas sekali 0.3333333
blas sama 0.0833333
sugeng selamat 1.0000000
Nana Nana 1.0000000
aeng aneh 0.5000000
beda-beda masing-masing 0.2000000
beda-beda berbeda-beda 1.0000000
beda-beda berbeda 0.0476190
Ki Ki 0.5000000
emping emping 0.5000000
rong dua 0.4615385
Terdaftar Terdaftar 1.0000000
dosen dosen 0.7142857
Piring Piring 1.0000000
piterange penjelasan 1.0000000
dileboni diserap 0.5000000
Gofani Gofani 1.0000000
guwa kandungan 0.2500000
nguwatake memperkuat 0.5000000
nguwatake menguatkan 1.0000000
dikandhakake dibicarakan 0.3333333
Bintan Bintan 1.0000000
trep sesuai 0.2500000
nangani menangani 1.0000000
ewunan ribuan 0.5000000
mligi khusus 0.7500000
mligi tersendiri 1.0000000
mligi khas 0.2500000
krenteg kemauan 1.0000000
krenteg bertekad 1.0000000
TNI TNI 1.0000000
sepantaran sepantarannya 1.0000000
jempol jempol 1.0000000
resik bersih 0.5000000
jumbuh sejalan 1.0000000
asli asli 0.9166667
maju tampil 0.0833333
maju maju 0.6666667
Jaya jaya 1.0000000
banter keras 0.3333333
banter cepat 0.2000000
1980-an 1980-an 1.0000000
1980-an pada 0.0238095
wingi kemarin 0.8750000
pilihan pilihan 0.6666667
00 00 0.7500000
urban urban 1.0000000
pirang beberapa 0.0400000
dianggep dianggap 0.6666667
kepenging ingin 0.0500000
Wayange Wayangnya 1.0000000
gabung bergabung 1.0000000
Dadi Jadi 1.0000000
mlayu lari 0.6666667
mlayu berlari 0.5000000
durung belum 0.7777778
durung tidak 0.0070423
pakoleh hasil 0.2500000
GBK GBK 1.0000000
kakandhut terkandung 1.0000000
jlag-jlug hanya 0.0169492
ndongani mendoakan 0.5000000
kepriye bagaimana 0.2222222
sak-sake Singkatnya 0.5000000
sak-sake asal-asalan 1.0000000
sak-sake sembarangan 0.2500000
nyilih pinjam 1.0000000
gambar gambar 1.0000000
hadiah hadiah 0.6666667
sumebar tersebar 0.5000000
nuduhake menunjukkan 0.5000000
biyasa biasa 0.4000000
biyasa terbiasa 1.0000000
saben setiap 0.9130435
saben tiap 1.0000000
saben snagat 0.3333333
enjing pagi 0.3333333
Seneng Suka 1.0000000
Seneng Senang 1.0000000
Seneng ketika 0.0149254
ngombe minum 0.6666667
ngombe minumlah 1.0000000
tradisional tradisional 0.0882353
awisan warisan 0.3333333
tinimbang daripada 1.0000000
HP HP 1.0000000
ngesuhi untuk 0.0095238
ngesuhi berwenang 1.0000000
kemringet berkeringat 1.0000000
nyebabake terjadinya 0.5000000
nyebabake menyebabkan 0.3333333
nyebabake memicu 1.0000000
nyebabake mengakibatkan 1.0000000
jugrug berdiri 0.1666667
Kekacauan kekacauan 0.5000000
miturut menurut 0.9166667
miturut menurutnya 0.5000000
miturut menggunakan 0.0384615
miturut sesuai 0.2500000
miturut berdasarkan 0.4000000
diwaca dibaca 1.0000000
April April 1.0000000
sethithik sedikit 0.2307692
leluhure moyang 1.0000000
leluhure nenek 0.2500000
nomer nomer 1.0000000
dielingake diingatkan 1.0000000
semana begitu 0.3636364
pagaweyane pekerjaannya 0.5000000
suk besar 0.0625000
suk saat 0.0200000
250-an sekitar 0.1428571
250-an 250-an 1.0000000
video video 1.0000000
wit-witan pohon-pohon 1.0000000
wit-witan pepohonan 1.0000000
wit-witan pohon 0.1666667
nyedhak menjelang 1.0000000
salah salah 0.9729730
salah ada 0.0076336
kedaden kesalahan 0.5000000
pakaryan karya 0.5000000
pakaryan tangan 0.1666667
pakaryan kerajinan 0.5000000
mas laki-laki 0.2500000
mas mas 1.0000000
rendheng hujan 0.6666667
rendheng musim 0.5000000
kuwawan pertahanan 1.0000000
Ha Ha 1.0000000
Ngaturake mengucapkan 0.2500000
mobil mobil 1.0000000
Nusantara Nusantara 0.6000000
cocog sesuai 0.1250000
wis terampil 0.5000000
wis diajarkan 0.0909091
wis telah 0.7741935
wis sudah 0.9298246
Gadjah Gadjah 1.0000000
ditampa diterima 0.6666667
No Nomor 1.0000000
pitulung bantuan 0.5000000
tembok tembok 1.0000000
tembang lagu 0.7692308
tembang Lagu 0.5000000
tembang menyanyi 0.5000000
kesel lelah 1.0000000
Pemudha pemuda 0.2000000
Keris Keris 1.0000000
Minangka Sebagai 1.0000000
nemu menemukan 0.2500000
informasi informasi 1.0000000
ajar mengajar 0.2000000
ajar belajar 0.0909091
Kerja Kerja 0.2500000
nguri-nguri agar 0.0357143
barongsai barongsai 1.0000000
yaitu yaitu 0.0666667
nglumpukake mengumpulkan 1.0000000
Nerusake meneruskan 0.5000000
warnane warnanya 0.5000000
ajaran pelajaran 0.0555556
ajaran ajaran 0.2500000
Pascasarjana University 0.5000000
kuwat kuat 0.2500000
perlu diperlukan 1.0000000
perlu perlu 0.1538462
angger diam 1.0000000
angger sekedar 1.0000000
UGM UGM 1.0000000
diterak dilakukan 0.1000000
Yasmiran Yasmiran 1.0000000
diakibatake diakibatkan 0.5000000
sithik-sithik sedikit-sedikit 1.0000000
keislaman keislaman 1.0000000
Yuli Yuli 1.0000000
ngurusi mengurus 1.0000000
ngurusi yang 0.0020000
Aqua Aqua 1.0000000
Kuna kuno 0.0833333
kuning kuning 0.5000000
kuning hijau 1.0000000
buruh betina 0.5000000
buruh lebah 0.1250000
pinteer pandai 0.1666667
dhaerahe daerahnya 1.0000000
pengunjung pengunjung 0.6666667
lan atau 0.0178571
lan serta 0.2500000
lan dan 0.9346939
kaprecayan kepercayaan 0.2500000
PAUD PAUD 1.0000000
lunga pergi 0.1000000
Republik Republik 1.0000000
bukune bukunya 1.0000000
simbol simbol 1.0000000
kagem dua 0.0769231
sungsum hidupnya 0.5000000
ngene ini 0.0476190
ngene Berikut 0.3333333
ngene seperti 0.0140845
pandhemen pencinta 0.1428571
pandhemen penggemar 0.1666667
diati-ati dijaga 0.2500000
semangat bersemangat 1.0000000
semangat semangat 0.5000000
endi mana 0.4000000
perpustakaan perpustakaan 0.7272727
nandur menanam 1.0000000
Warga Warga 1.0000000
kabudayan budaya 0.2758621
kabudayan kebudayaan 0.7777778
kabudayan Budaya 0.1250000
the the 1.0000000
Besar Besar 1.0000000
ngaku mengaku 0.4000000
promosi promosi 0.5000000
wonge orangnya 1.0000000
tanggap ulang 0.5000000
pener benar 0.1666667
lima lima 0.3333333
wedang minuman 0.2500000
medhia-medhia media-media 1.0000000
lombok cabai 0.5000000
lombok cabe 1.0000000
Soeryo Soeryo 1.0000000
RT RT 1.0000000
dipadakne disamakan 0.5000000
santai santai 1.0000000
nyebrang persilangan 1.0000000
mupangat manfaat 0.5000000
utawa dan 0.0040816
utawa atau 0.9285714
utawa goyang 0.5000000
K K 1.0000000
maring kasih 0.1000000
maring kepada 0.0188679
kalodhangan peluang 1.0000000
masakan masakan 0.3333333
wani berani 1.0000000
kranjang keranjang 1.0000000
diadani diselenggarakan 1.0000000
diadani Dipandu 1.0000000
diadani dilakukan 0.1000000
diadani diadakan 0.5714286
panguwasa kekuasaan 0.5000000
Sembada Sembada 1.0000000
regeng sibuk 1.0000000
regeng meriah 1.0000000
sarapan sarapan 1.0000000
anakku anakku 1.0000000
semono begitu 0.0909091
dimangsak dimasak 0.5000000
dalan jalan 0.2500000
dalan untuk 0.0095238
dalan Perjalanan 1.0000000
dalan jalanan 1.0000000
dalan Jalan 0.3333333
ngapusi berbohong 1.0000000
Tholib Tholib 1.0000000
pidato pidato 1.0000000
Amongraga Amongraga 1.0000000
ariwati artikel 0.2500000
wasis mahir 1.0000000
wasis berpengalaman 0.5000000
wasis pandai 0.6666667
wasis ahli 1.0000000
karnaval karnaval 1.0000000
bagean bagian 0.2500000
katrajang ditelan 1.0000000
Dafa Dafa 1.0000000
A A 1.0000000
lungguh duduk 0.6666667
kulawargane keluarganya 0.5000000
ger-geran terbahak-bahak 1.0000000
KKI KKI 1.0000000
Jurusan Jurusan 1.0000000
Kuncoro Kuncoro 1.0000000
cm cm 1.0000000
ganti-ganti berubah 0.5000000
Rasyapustaka Rasyap 1.0000000
Rasyapustaka perpustakaan 0.0909091
penak enak 0.5000000
mligine contohnya 0.1111111
mligine khususnya 1.0000000
cakepan Cakupan 1.0000000
cakepan pemandangan 1.0000000
dhewean sendirian 1.0000000
Dosen Dosen 1.0000000
Maiyah Maiyah 1.0000000
nanggap merespon 1.0000000
nduduhi menujukkan 1.0000000
Solo solo 1.0000000
Solo Tunggal 0.5000000
Solo Solo 1.0000000
othok-othok othok-othok 1.0000000
koleksi koleksi 1.0000000
lesehan Lesehan 1.0000000
lesehan duduk 0.3333333
blusukan blusukan 1.0000000
Gempa Gempa 1.0000000
besare besarnya 1.0000000
manis manis 0.4000000
rapi rapi 1.0000000
AMI AMI 1.0000000
kesuksesane kesuksesannya 1.0000000
sawektu sewaktu-waktu 1.0000000
bulik tante 1.0000000
kudu perlu 0.3076923
kudu harus 0.9333333
kudu penting 0.0333333
Ami Ami 1.0000000
nemokake menemukan 0.7500000
nuli lalu 0.0303030
Tasya Tasya 1.0000000
ibune Ibunya 1.0000000
ibune ibunya 0.8750000
ilang kehilangan 0.3333333
ilang sifat 0.0833333
ilang hilang 0.5000000
matematika matematika 1.0000000
campuran campuran 1.0000000
adiluhunge bermutunya 1.0000000
11 11 1.0000000
santosa sejahtera 0.6666667
landhep tajam 0.5000000
lontar lontar 1.0000000
keraton keraton 0.5000000
dhawuhe perintah 0.3333333
swasana menjadi 0.0169492
swasana suasana 1.0000000
urutane hufuf 0.5000000
urutane urutan 1.0000000
media media 1.0000000
bentuke berbentuk 0.2500000
bentuke subtropis 0.3333333
dinas dinas 1.0000000
Teguh Teguh 1.0000000
agamane agamanya 1.0000000
istiadat hormat 1.0000000
istiadat istiadat 1.0000000
laire lahirnya 1.0000000
bu Bu 1.0000000
watake sifat 0.0833333
cukat gesit 1.0000000
ndhuwuri meningkatkan 0.2500000
manawa mengkonsumsi 0.2500000
manawa bahwa 0.1428571
manawa ia 0.1428571
manawa hubungannya 0.2000000
millenial milenial 1.0000000
cedhak dekat 1.0000000
RUU RUU 1.0000000
sengkut telah 0.0322581
cilikku kecilku 1.0000000
21 21 1.0000000
sipat sifat 0.5000000
kembange bunganya 1.0000000
nampa mendapat 0.2500000
nampa menerima 0.5000000
sakarepe seenaknya 0.5000000
Kridha Kridha 1.0000000
panas panas 1.0000000
Karanganyar Karanganyar 1.0000000
pancen sangatlah 0.2000000
pancen sangat 0.0595238
pancen benar-benar 0.2500000
pancen tersandung 0.2000000
pancen memang 0.9459459
ditutup adanya 0.2000000
ditutup tutup 0.5000000
ditutup ditutup 1.0000000
petugas petugas 1.0000000
suwiwi sayap 1.0000000
pedes pedas 0.3333333
ganteng terlalu 0.2000000
ganteng tampan 0.6666667
ukel gerakan 0.3333333
ukel ukel 0.5000000
Bengal bengal 1.0000000
menange menangnya 1.0000000
menange menang 1.0000000
mangan memakan 0.5000000
mangan makan 0.7500000
mangan mengkonsumsi 0.5000000
gunung gunung 0.2857143
Aditama Aditama 1.0000000
kepeksa terpaksa 1.0000000
guru guru-guru 1.0000000
guru Guru 1.0000000
guru guru 0.9473684
keprungu terdengar 0.5000000
diwulang diajarkan 0.0909091
sepela sepele 0.5000000
undhangan undangan 1.0000000
gambuh gambuh 1.0000000
ditanggap diundang 1.0000000
pengaruh berpengaruh 1.0000000
pengaruh pengaruh 1.0000000
bangsa bangsa 1.0000000
dibebungahi dihadiahi 1.0000000
mung hanya 0.9661017
mung hanyalah 1.0000000
mung NULL 0.0172414
terdampar terlantar 1.0000000
kejaga terjaga 1.0000000
sejatine sejatinya 1.0000000
sejatine sebenarnya 0.1666667
penanganan penanganan 1.0000000
Tari tarian 0.0476190
Tari Tari 1.0000000
Tari tari 0.0666667
. . 0.9992481
rapete kaitannya 0.2000000
cahya sinar 0.5000000
4 4 1.0000000
tuwane tuanya 1.0000000
makake pemakaiannya 1.0000000
disenengi disukai 0.4285714
disenengi digemari 0.5000000
Kutipan Kutipan 1.0000000
dilebokake dimasukkan 0.7500000
dilebokake diletakkan 1.0000000
dilebokake ke 0.0285714
Sesandhingane Disamping 1.0000000
Prancis Prancis 0.6666667
roti roti 0.5000000
Herwasto Kusumo 0.1428571
Herwasto Herwasto 0.8000000
Herwasto Herwanto 1.0000000
tutorial tutorial 1.0000000
kayadene diumpamakan 0.5000000
urusan urusan 0.5000000
Center Center 1.0000000
dudu bukan 0.3333333
Sanggar Sris 0.5000000
Sanggar Sanggar 0.8000000
Sanggar sanggar 0.1250000
bapak Ayah 0.7500000
bapak bapak 0.7500000
tliti baik 0.0588235
Katelu ketiga 0.3333333
pangajap harapan 0.1666667
sakiwa kiri 0.3333333
ngrupakne merupakan 0.1111111
zat zat 1.0000000
kaluputan kesalahan 0.5000000
gitare gitar 0.5000000
gitare nya 0.2500000
Dito Dito 1.0000000
padha-padha sama-sama 1.0000000
tradhisional tradisional 0.2352941
tradhisional Tradisional 0.5000000
saindenge diseluruh 0.5000000
Azis Azis 1.0000000
asring sering 0.2333333
Biologi Biologi 1.0000000
ngisi mengisi 1.0000000
16 Risyani 0.5000000
16 16 1.0000000
ngakoni mengaku 0.2000000
nyiapake menyiapkan 1.0000000
dituku dibeli 1.0000000
kosmetik kosmetik 1.0000000
diperbarui diperbarui 1.0000000
dijiwit dicubit 1.0000000
kakehan kebanyakan 0.2500000
kayata seperti 0.4507042
kayata misalnya 0.5000000
kayata contohnya 0.1111111
sutresna pencinta 0.5714286
sutresna para 0.0384615
Break Break 1.0000000
pangenak penyedap 1.0000000
gelut bertengkar 1.0000000
pirang-pirang penyakit 0.5000000
pirang-pirang beberapa 0.2000000
pirang-pirang berbagai 0.0666667
panyimpenan penyimpanan 1.0000000
IV IV 0.8333333
nambah bertambah 0.6666667
nambah menambah 1.0000000
nambah meningkat 0.5000000
digenthingi dibenci 0.5000000
adicara-adicara acara-acara 1.0000000
polusi pencemaran 1.0000000
Kodam Kodam 1.0000000
ta NULL 0.0172414
ta subtropis 0.3333333
ta nektar 0.3333333
saknyatane kenyatanya 1.0000000
Ilham Ilham 1.0000000
W W 1.0000000
tanggal tanggal 1.0000000
kok kok 1.0000000
misuh membersihkan 0.5000000
arit arit 1.0000000
bab tentang 0.5370370
bab hal 0.5000000
bab pelajaran 0.0555556
bab bagian 0.3333333
bab bab 1.0000000
bab pengetahuan 0.2500000
bab ISI 0.2500000
ngepasi tepat 0.5000000
Diqin termasuk 0.0526316
Diqin Diqin 0.7142857
Atas Atas 1.0000000
penontone penonton 0.1000000
penontone penontonnya 0.5000000
Singgih Singgih 1.0000000
adegan adegan 0.5000000
Timun Mentimun 1.0000000
Timun Timun 1.0000000
Indonesia indonesia 1.0000000
Indonesia Indonesia 1.0000000
suwe lama 0.6000000
suwe kemudian 0.0434783
Tambangraras Tambangraras 1.0000000
pimpinan ketua 0.1111111
pimpinan pemimpin 1.0000000
Vita Vita 1.0000000
unik sangat 0.0119048
unik unik 1.0000000
berprestasi berprestasi 1.0000000
wadon wanita 0.2500000
wadon yang 0.0020000
rezeki rezeki 1.0000000
rezeki nafkah 1.0000000
tandhing tertandingi 0.3333333
tandhing tak 0.5000000
B6 B6 1.0000000
tresna cinta 0.6000000
sakwise setelah 0.3846154
Ketua Ketua 1.0000000
Ketua Kepala 0.5000000
Iya Iya 1.0000000
puluh puluh 1.0000000
Bhayangkara Bhayangkara 0.5000000
Rajamala Rajamala 1.0000000
si si 1.0000000
ceritane ceritanya 0.5000000
adigang adigang 1.0000000
motif motif 1.0000000
kegiyatan beraktivitas 0.5000000
kegiyatan diluar 0.2500000
kegiyatan kegiatan 1.0000000
kegiyatan aktivitas 1.0000000
omong berbicara 0.1111111
kanca-kanca teman-teman 0.7500000
kanca-kanca teman-temannya 0.1111111
adeging Komunitas 1.0000000
adeging berdirinya 1.0000000
Sewu Sewu 1.0000000
Institut Institut 0.7500000
nggelar mengadakan 0.1428571
Saut-sautan Jawab-menjawab 1.0000000
ucul lepas 0.3333333
kesebut tersebut 0.0285714
diilangna dihilangkan 0.6666667
diilangna akan 0.0277778
pawiwahan pernikahan 0.3333333
padudon bertarung 1.0000000
padudon diadu 1.0000000
ndonga berdoa 1.0000000
tau pernah 0.6153846
mrene kesini 1.0000000
pratelane pernyataannya 0.5000000
pratelane pernyataan 0.5000000
motife motifnya 1.0000000
reaper reaper 1.0000000
nuladha ditiru 1.0000000
Zainudin Zainudin 1.0000000
makili mewakili 1.0000000
carangan cadangan 1.0000000
lagu-lagu lagu-lagu 0.2000000
balado balado 1.0000000
njalari ditemukan 0.5000000
njalari menyebabkan 0.3333333
Ora roti 0.5000000
Ora Tidak 1.0000000
Ora tidak 0.0070423
nembang menyanyi 0.5000000
nembang bernyanyi 0.7500000
nembang lagu 0.0769231
Annisa Annisa 1.0000000
ngobati mengobati 1.0000000
contone misalnya 0.5000000
contone contohnya 0.6666667
reformasi reformasi 1.0000000
Pangkur Pangkur 1.0000000
Tono Tono 1.0000000
dikumbah dicuci 0.3333333
twitter twitter 0.5000000
dikarepake diinginkan 1.0000000
dikarepake inginkan 1.0000000
dikarepake oleh 0.0200000
dikarepake kita 0.0270270
neliti meneliti 1.0000000
Adila Adila 1.0000000
dijlentrehake dijelaskan 1.0000000
ngelek-elek menjelek-jelekan 1.0000000
pendatang imigran 1.0000000
pendatang para 0.0384615
Kalimantan Kalimantan 1.0000000
tut diikuti 0.3333333
renget rayap 1.0000000
diwawancara diwawancarai 0.8333333
diwawancara diwawancara 1.0000000
tumis tumis 1.0000000
wuh sampah 0.1428571
wuh sembarangan 0.2500000
tata sopan 0.1111111
tata tata 0.5714286
tata , 0.0012563
tata untuk 0.0095238
tata tertib 1.0000000
libur libur 1.0000000
kerja kerja 1.0000000
kerja berkerja 1.0000000
kerja Kerja 0.2500000
macapat macapat 1.0000000
, memasak 0.5000000
, NULL 0.2586207
, emping 0.5000000
, campur 0.5000000
, Sris 0.5000000
, dan 0.0040816
, pertolongan 0.5000000
, , 0.9648241
, twitter 0.5000000
lemon lemon 1.0000000
riset penelitiannya 1.0000000
Dhasare Intinya 1.0000000
menu menu 1.0000000
Baskoro Baskoro 1.0000000
Tina Tina 1.0000000
nganggep dianggap 0.1666667
nganggep menganggap 0.5000000
nglamar melamar 0.5000000
wegah enggan 1.0000000
paring diberi 0.1666667
suwun terima 0.1250000
suwun kasih 0.2000000
biyasane biasanya 0.3928571
sithik sedikit 0.3846154
cara cara 0.9189189
kawigatene perhatian 0.8750000
patang empat 0.4000000
lenga minyak 0.6666667
adhem sejuk 0.6666667
dibutuhake dibutuhkan 1.0000000
didol dijual 0.5000000
simbah nenek 0.2500000
simbah atau 0.0178571
Lagu Lagu 0.5000000
dipenjara dipenjara 1.0000000
greget tangguh 1.0000000
nyelarasake menyelaraskan 1.0000000
in in 1.0000000
Pekerjaan Kerja 0.5000000
elaborasi elaborasi 1.0000000
dumunung bertempat 0.3333333
dilestarikake dilestarikan 0.3333333
Benawa Benawa 1.0000000
kupiya bagaimana 0.1111111
kupiya upaya 0.5000000
kupiya berusaha 0.1428571
kupiya usaha 1.0000000
ngiwa kekiri 1.0000000
kuwawa pantas 1.0000000
kuwawa selalu 0.0909091
bumi bumi 1.0000000
bumi sebesar 1.0000000
menehi memberikan 0.6000000
menehi memberi 0.8000000
ngonsumsi mengkonsumsi 0.2500000
paling terpenting 0.3333333
paling tertinggi 0.5000000
paling terbesar 0.3333333
paling terbarunya 0.5000000
paling NULL 0.0172414
paling setidaknya 1.0000000
paling terbaru 0.5000000
paling dipegang 0.5000000
paling masih 0.0322581
paling paling 0.7500000
Kayane sepertinya 0.5000000
jiwa jiwa 1.0000000
Manu Manu 1.0000000
adhedhasar didasarkan 1.0000000
adhedhasar berdasarkan 0.6000000
66 66 1.0000000
alihan pergantian 0.3333333
disusul diikuti 0.3333333
disusul oleh 0.0200000
Wedhatama Wedhatama 1.0000000
murid-muride murid-muridnya 0.5000000
kabudayane kebudayaan 0.0740741
nglestarikake melestarikan 0.0769231
endah indah 0.4000000
kabecikan kebaikan 0.7142857
kabecikan baik 0.0588235
sujarahe sejarahnya 1.0000000
Selamanya Selamanya 1.0000000
Pahlawan pahlawan 0.5000000
mundhutake membelikan 1.0000000
nylametke menyelamatkan 1.0000000
diganti diganti 1.0000000
bapang bapang 1.0000000
alesan alasannya 1.0000000
sawijine seorang 0.2500000
nganggi dengan 0.0092593
nganggi dihilangkan 0.3333333
nganggi menggunakan 0.0384615
Siti Siti 1.0000000
ngaturake mengucapkan 0.2500000
ngaturake membuat 0.0263158
dipraktekake dipraktikkan 1.0000000
sarwa serba 1.0000000
sarwa cemerlang 1.0000000
sarwa sesuai 0.1250000
takon-takon bertanya 1.0000000
kabeh segala 0.5000000
kabeh orang 0.0117647
kabeh semuanya 0.5000000
kabeh sepenuhnya 1.0000000
kabeh semua 0.8974359
Bella Bella 1.0000000
rutin teratur 1.0000000
Asia Asia 1.0000000
pamer memamerkan 1.0000000
pamer menunjukkan 0.2500000
tengahan tengah 0.5000000
tengahan sedang 0.0714286
netepi patuhi 1.0000000
netepi mematuhi 0.2500000
manuskrip manuskrip 0.7500000
werdine maknanya 0.3333333
ngandhakake mengatakan 0.0232558
dikongkon disuruh 0.2500000
angel-angel susah-susah 1.0000000
kosong kosong 1.0000000
keripik keripik 1.0000000
minton bulu 1.0000000
minton tangkis 1.0000000
minanga dalam 0.0217391
legi manis 0.6000000
penyebab penyebab 1.0000000
FX FX 1.0000000
maksude tahu 0.0909091
maksude artinya 0.2500000
kunir kunyit 1.0000000
pepak lengkap 1.0000000
kuas kuat 0.2500000
pelajar pelajar 1.0000000
golek mencari 0.2500000
Tembange lagunya 0.5000000
kreatif kreatif 1.0000000
Arab Arab 1.0000000
Balekambang Balekambang 1.0000000
utamane utamanya 1.0000000
Sukuh Sukuh 1.0000000
temene keduanya 1.0000000
ngacungi mengacungi 1.0000000
nduweni memiliki 0.2200000
nduweni mempunyai 0.2500000
pemahaman wawasan 0.5000000
pesinden sinden 1.0000000
korban korban 1.0000000
menyan dupa 1.0000000
menyan Tampaknya 1.0000000
tentu tentu 0.5000000
Priya pria 0.5000000
BJ Bj 1.0000000
Hadi Hadi 1.0000000
Mangsakan masakan 0.6666667
kritik kritikan 1.0000000
nggawa membawa 0.1250000
sedhih sedih 1.0000000
nemtokake menentukan 1.0000000
Dewan Dewan 1.0000000
Bay Bay 1.0000000
MGMP MGMP 1.0000000
diwarai ditawari 1.0000000
dolan main 0.5000000
jaz jazz 1.0000000
jaz jaz 1.0000000
musime musimnya 1.0000000
dipengeti dirayakan 1.0000000
niliki menjenguk 1.0000000
disapu disapu 1.0000000
nglebokake memasukkan 0.3333333
diayahi dilakukan 0.1000000
tuku membelinya 1.0000000
tuku membeli 0.8333333
Ponorogo Ponorogo 1.0000000
persis persis 0.5000000
Gardens Gardens 1.0000000
pegawe pegawai 1.0000000
pegawe Sipil 1.0000000
pegawe Negeri 0.5000000
senior senior 1.0000000
Car Car 1.0000000
Aduk Aduk 1.0000000
Novel Novel 1.0000000
solopos solopos 0.9473684
negor memotong 0.5000000
mlebokake memasukkan 0.3333333
nggodhog merebus 1.0000000
ngedegake mendirikan 1.0000000
desa kampung 0.5000000
desa Setu 0.5000000
desa desa 0.6190476
pakem aturan 0.1666667
gothak mengotak-atik 0.5000000
seminggu seminggu 1.0000000
Nuswantara Nusantara 0.4000000
Nuswantara Nusantaran 1.0000000
Nuswantara nusantara 1.0000000
Nuswantara Nuswantara 1.0000000
biasane biasanya 0.3571429
Jawa Jawa-Cina 0.3333333
Jawa jawa 0.7000000
Jawa Jawa 0.9469697
Samesthine seharusnya 0.2500000
wicaksana bijak 1.0000000
angslup hilang 0.3333333
ngendelake mengutamakan 1.0000000
endahe indahnya 1.0000000
endahe keindahan 0.1428571
Ngliyakne melainkan 1.0000000
wulan bulan 0.8571429
Inggris Inggris 1.0000000
papan-papan tempat-tempat 1.0000000
ngongsakake meninggikan 1.0000000
dongenge dongeng 0.0277778
dongenge dongengnya 1.0000000
dongenge Jenis 0.5000000
pitutur nasehat 1.0000000
pitutur saran 1.0000000
keluwarga , 0.0012563
keluwarga keluarga 0.2000000
kandha mengatakan 0.0465116
kandha akan 0.0277778
Risyani Risyani 0.5000000
madu madu 1.0000000
tumrap terhadap 0.2857143
tumrap lambang 0.3333333
tumrap untuk 0.0095238
dokumen dokumen 1.0000000
warisan warisan 0.6666667
suk-sukan berdesakan 1.0000000
paraga peran 0.5000000
paraga peraga 1.0000000
paraga pemeran 0.6666667
Darweni Darweni 1.0000000
1964 1964 1.0000000
nyonto mencontoh 1.0000000
pamerdi pengamat 0.6666667
Patung Patung 1.0000000
Arkanda Arkanda 1.0000000
DPR DPR 1.0000000
dicritakake diceritakan 0.5000000
ngajari mengajar 0.6000000
ngajari dirinya 0.0909091
ngajari mengajarkan 0.7500000
ngajari mengajari 1.0000000
nyesep mengisap 1.0000000
ndongengi membacakan 0.6666667
ndongengi dongeng 0.0555556
ndongengi kepada 0.0188679
panggon tempat 0.0909091
panggon dengan 0.0092593
tunangane tunangannya 1.0000000
Sing yang 0.0020000
Sing Yang 1.0000000
cendhak pendek 1.0000000
aja jangan 1.0000000
reyog reog 1.0000000
diciduk diambil 0.2500000
pupus punah 0.1666667
sembelit sembelit 1.0000000
sambatan pertolongan 0.5000000
sambatan kali 0.2500000
sedulur saudara 1.0000000
kawarasan kesehatan 0.3636364
nom muda 0.0487805
Mangkunegara Mangkunegara 1.0000000
Mangkunegara Mangkunegoro 0.5000000
sementara sementara 0.3333333
ndongeng mendongeng 1.0000000
ndongeng dongeng 0.1666667
ndongeng membaca 0.3846154
ndongeng membacakan 0.3333333
Hotman hotman 0.5000000
sesambungan hubungan 0.6666667
sesambungan sebuah 0.2500000
sinau belajar 0.8636364
sinau studi 0.3333333
sinau mempelajari 0.3750000
pertemuan pertemuan 1.0000000
liya-liyane lain-lainnya 0.3333333
Wiwitane Berawal 1.0000000
mangsa masa 0.5000000
mangsa musim 0.5000000
mangsa periode 1.0000000
padhang terang 1.0000000
mengkana itu 0.0117647
mengkana begitu 0.0909091
Cat Cat 1.0000000
sedheng sedang 0.0357143
Megasari Megasari 1.0000000
dimasak dimasak 0.5000000
Pasartane Pesertanya 1.0000000
Pasartane pesertanya 0.5000000
mbuka membuka 0.5000000
Dinas Dinas 1.0000000
Dinas Departemen 0.3333333
sasi bulan 0.1428571
ariwarti artikel 0.2500000
bayi bayi 1.0000000
nyikat sikat 0.5000000
nyikat Menyikat 1.0000000
digabungke digabungkan 0.5000000
utama utama 0.7500000
dingerteni diakui 0.5000000
dingerteni dimengerti 1.0000000
samsaya tambah 1.0000000
samsaya semakin 0.1363636
Suluk Suluk 1.0000000
Suluk Sulphur 1.0000000
langka langka 1.0000000
supaya agar 0.7142857
supaya supaya 0.7857143
supaya untuk 0.0095238
Saben Setiap 1.0000000
Kacapak Termuat 1.0000000
cacing cacing 1.0000000
Gendut Gendut 1.0000000
Disbudpar Disbudpar 1.0000000
Sholat sholat 1.0000000
dikirimake dikirimkan 1.0000000
Sinta Sinta 1.0000000
lapangan lapangan 1.0000000
garbane kandungan 0.2500000
kadangkala terkadang 0.6000000
Pasar Pasar 1.0000000
tilar kematian 0.5000000
di di 0.0098684
di dialih 0.3333333
di mulutku 0.5000000
di atas 0.1666667
luwih semakin 0.0909091
luwih sebaiknya 0.5000000
luwih kurang 0.3333333
luwih lebih 0.9512195
luwih alangkah 1.0000000
mbakar membakar 1.0000000
Hewan Hewan 1.0000000
nggunakne yang 0.0020000
nggunakne menggunakan 0.0769231
ketok terlihat 0.1428571
Laksita Laksita 1.0000000
dhaerah-dhaerah daerah-daerah 1.0000000
Panganane Makanannya 1.0000000
sakabehane keseluruhan 1.0000000
sakabehane seluruhnya 1.0000000
simbol-simbol simbol-simbol 1.0000000
tandha tandanya 1.0000000
tandha tanda 0.2500000
turu tidur 1.0000000
kuburan kuburan 1.0000000
kuburan nisan 1.0000000
sukur syukur 1.0000000
sega nasi 0.3333333
mengko nanti 0.5000000
tukang pendongeng 0.2500000
tukang logistik 1.0000000
tukang pembuat 0.5000000
lanange laki-lakinya 1.0000000
kondangan ada 0.0076336
kondangan yang 0.0020000
Agusta Agusta 1.0000000
Basane Bahasanya 1.0000000
aljabar aljabar 1.0000000
balap balap 1.0000000
apalan hafalan 0.5000000
285 285 1.0000000
Ta Ta 1.0000000
cacahing jumlah 0.2000000
maca membaca 0.5384615
plek persis 0.5000000
awake tubuh 0.3333333
awake Badannya 1.0000000
awake depan 0.1666667
awake kita 0.1891892
atusan ratusan 1.0000000
ngenalake memperkenalkan 0.6000000
atos keras 0.3333333
Kundang Kundang 1.0000000
bolongan lubang 1.0000000
sirih sirih 1.0000000
gumantekne membunuh 0.3333333
politik politik 1.0000000
pambukaning pembukaan 0.5000000
sejarah sejarah 0.5000000
sejarah bersejarah 1.0000000
agung besar 0.0625000
agung bersama 0.0526316
mapanake menempatkan 1.0000000
lumrah biasa 0.2000000
tekan saat 0.1200000
tekan ke 0.1142857
tekan hingga 0.0285714
tekan sampai 0.1764706
tekan kemana-mana 0.2500000
tekan datang 0.1250000
B1 B1 1.0000000
wit pohon 0.8333333
pasinaon studi 0.3333333
pasinaon pembelajaran 0.5000000
Kolam Kolam 1.0000000
Wa Wa 1.0000000
sosial sosial 0.6666667
sosial distancing 1.0000000
ambu bau 1.0000000
keluargane keluarganya 0.2500000
njaba diluar 0.2500000
njaba luar 0.1250000
statistik statistik 1.0000000
manjing masuk 0.1250000
Keterangan Keterangan 1.0000000
menawa bahwa 0.2857143
menawa jika 0.0500000
Mbak Mbak 1.0000000
dibarengi diintegrasikan 1.0000000
loro ini 0.0158730
loro dua 0.2307692
pangribawa berwibawa 1.0000000
Zamani Zamani 1.0000000
Bu Ibu 0.3333333
adigung adigung 1.0000000
bosen bosan 1.0000000
Harsoyo Harsoyo 1.0000000
pratelaning daftar 1.0000000
pawongan seseoran 1.0000000
pawongan setiap 0.0217391
5 5 1.0000000
durunge sebelumnya 0.1000000
angkah gaya 0.3333333
Palemahan Lahan 1.0000000
isin malu 1.0000000
jinaga menjaga 0.0555556
awit bercampur 0.3333333
awit karena 0.0144928
awit sejak 0.2800000
antagonis antagonis 1.0000000
dipoto difoto 0.3333333
Kemendikbud Kemendikbud 1.0000000
diparani dihampiri 1.0000000
anak-anakku anak-anak 0.0243902
tercemar tercemari 1.0000000
Sekolah Sekolah 1.0000000
Sekolah Kelas 0.3333333
Sekolah sekolah 0.2727273
kalih ke 0.0285714
Hindu Hindu 1.0000000
Brawijaya Brawijaya 1.0000000
sakpenere benar 0.1666667
sakpenere paling 0.0833333
latihan untuk 0.0095238
latihan latihan 0.4285714
ngadepi menghadapi 0.2500000
Berbahasa Berbahasa 1.0000000
Jagalan Jagalan 1.0000000
gamblang jelas 0.1250000
didongengi dibacakan 0.8000000
didongengi dongeng 0.0833333
Cak Cak 0.8750000
Cak NULL 0.0172414
Suwalike Sebaliknya 0.5000000
cawis tersedia 1.0000000
album album 1.0000000
album dalam 0.0217391
album Koleksi 0.5000000
korupsi korupsi 1.0000000
Gede Gede 1.0000000
purna berakhir 1.0000000
sesandhingan berdampingan 0.5000000
videone videonya 1.0000000
ditresnani disukai 0.1428571
Februari Februari 1.0000000
enak enak 0.5000000
2019 2019 1.0000000
isolasi isolasi 1.0000000
ndongakake mendoakan 0.5000000
rame rami 1.0000000
rame ramai 0.8000000
B9 B9 1.0000000
pilih kencang 0.5000000
katelune , 0.0012563
katelune ketiganya 1.0000000
ndadekake menjadikan 0.5000000
ndadekake membuat 0.0263158
anteng tenang 0.3333333
nyantrik pernah 0.0769231
nyantrik belajar 0.0151515
komputer komputer 1.0000000
penjahat penjahat 1.0000000
teater teater 1.0000000
diwawancarai diwawancarai 0.1666667
njomplange seimbangnya 0.5000000
njomplange ketidakseimbangan 1.0000000
njomplange tidak 0.0070423
dhemen suka 0.1052632
digawe dibuat 0.8333333
pamasaran penasaran 1.0000000
Mayit mayat 1.0000000
Industri Industri 1.0000000
nom-noman kaum 0.7500000
nom-noman remaja 0.5000000
nom-noman muda 0.6097561
nom-noman kalangan 0.3333333
nom-noman anak 0.3773585
nom-noman pemuda 0.2000000
nom-noman anak-anak 0.0243902
melu terlibat 1.0000000
melu turut 1.0000000
melu NULL 0.0172414
melu mengikuti 0.6666667
melu yang 0.0020000
melu ikut 0.6923077
Bidang Bidang 1.0000000
rupa berupa 0.3333333
rupa ragam 0.5000000
rupa macam 0.1428571
rusuh kerusuhan 0.5000000
rusuh kekacauan 0.5000000
dalang dalang 0.0666667
wangi harum 1.0000000
wangi parfum 0.5000000
wangi wangi 1.0000000
nyerep menyerap 1.0000000
manganan makanan 0.1111111
Banjarsari Banjarsari 1.0000000
nyengsemake mengesankan 1.0000000
nyengsemake karyanya 1.0000000
spaneng tegang 1.0000000
Humaira Humaira 1.0000000
Ramadhani Ramadhani 1.0000000
Ds Ds 1.0000000
Gema Gema 1.0000000
klangenane kesukaan 1.0000000
mateni mematikan 0.5000000
mateni membunuh 0.3333333
reaggae reggae 0.5000000
Polda Polda 1.0000000
kabiji termasuk 0.0526316
dhuwur atas 0.1666667
dhuwur tinggi 0.5555556
dhuwur nutrisi 0.5000000
dhuwur tertinggi 0.5000000
Gambuh Gambuh 1.0000000
pasren keindahan 0.1428571
Sabtu Sabtu 0.5000000
ditegor ditebang 1.0000000
Nasyir Nasyir 1.0000000
Loker Loker 1.0000000
Hasta Hasta 1.0000000
nek jika 0.0500000
akulturasi akulturasi 1.0000000
kawin menikah 0.2500000
UNS UNS 1.0000000
seng belajar 0.0151515
digandhengake digabungkan 0.5000000
ngomong berbicara 0.5555556
ngomong bisa 0.0181818
ngomong membicarakannya 0.3333333
ngomong mengatakan 0.0232558
ngomong bilang 0.5000000
Sumatra Sumatera 1.0000000
Sumatra Sumatra 1.0000000
Sumatra sumatera 1.0000000
Kebun kebun 0.3333333
Bali Bali 1.0000000
lumantar melalui 0.2000000
impian mimpi 1.0000000
musafir pelancong 1.0000000
anyare barunya 1.0000000
Kuta Kuta 1.0000000
Kuta kuta 1.0000000
bocah-bocah anak-anak 0.8536585
sawijining satunya 0.3076923
sawijining seseorang 0.1666667
sawijining satunnya 1.0000000
sawijining satu 0.3823529
sawijining salah 0.0270270
Lisa Lisa 1.0000000
ngenger bekerja 0.5000000
pitung tujuh 0.2500000
wisane sengat 0.5000000
wisane setelahnya 1.0000000
dynamite dynamite 1.0000000
kumpul berkumpul 0.3333333
amarga akibat 1.0000000
amarga karena 0.5942029
amarga menyesal 0.5000000
amarga diakibatkan 0.5000000
amarga dikarenakan 0.4000000
amarga dengan 0.0092593
gathuk begitu 0.0909091
gathuk mengotak-atik 0.5000000
nglulusake meluluskan 1.0000000
Dikin Diqin 0.1428571
pereng lereng 0.5000000
pungkasane akhir 0.5000000
pangeling-eling pengingat 0.5000000
Muhammadiyah Muhammadiyah 1.0000000
Bangalore Bangalore 1.0000000
nggatekake memperhatikan 1.0000000
nggambus gambus 1.0000000
duweke milik 1.0000000
buku buku 0.6250000
buah-buahan buah-buahan 0.5000000
ngarepe depan 0.1666667
Vietnam Vietnam 1.0000000
campursari campursari 1.0000000
Heritage Heritage 1.0000000
ngendhih perlahan-lahan 0.5000000
ngendhih bahkan 0.0476190
kuripan kehidupan 0.3333333
ayu cantik 1.0000000
Nga Nga 1.0000000
saya semakin 0.5454545
saya bertambahnya 1.0000000
saya terus 0.1250000
sasuwene selama 0.2500000
susu susu 1.0000000
Lita Lita 1.0000000
abdi orang 0.0117647
abdi penyanyinya 0.3333333
abdi pembantu 1.0000000
Louhan Louhan 1.0000000
kaentup tujuh 0.1250000
kaentup orang 0.0117647
saindhenge seluruh 0.4000000
diugemi dipakai 1.0000000
diugemi teguh 1.0000000
diugemi digunakan 0.1000000
diugemi oleh 0.0200000
diugemi dinikmati 1.0000000
carane cara 0.0540541
carane caranya 1.0000000
Jakartan Jakarta 0.2000000
yayasan yayasan 1.0000000
Rock Rock 1.0000000
raharja sejahtera 0.3333333
nempel menempel 0.6000000
jumlah jumlah 0.2000000
jumlah angka 1.0000000
Usia Usia 1.0000000
cipta cipta 1.0000000
kembang-kembang bunga-bunga 1.0000000
eleke buruknya 1.0000000
Kewurungan Kegagalan 1.0000000
rekaman rekaman 1.0000000
FIB FIB 1.0000000
kepara bahkan 0.0476190
kepara mematikan 0.5000000
nggoreng menggoreng 1.0000000
Kebecikan kebaikan 0.1428571
Kampung desa 0.0476190
Kampung Desa 0.5000000
diajari diajarkan 0.1818182
diajari diajari 1.0000000
nata mengatur 0.5000000
babar sama 0.2500000
carita dongeng 0.0277778
carita cerita 0.6000000
carita kisah 1.0000000
Twitter Twitter 1.0000000
griya rumah 0.0800000
Prodi Prodi 1.0000000
shopee shopee 1.0000000
Rekor Rekor 1.0000000
gawene membuatnya 0.3333333
mau itu 0.0058824
diajak diajak 0.7500000
kekuwatan kekuatan 0.2500000
kekembangan berkembang 0.2000000
kekembangan sedang 0.0357143
kekembangan yang 0.0020000
nggantung digantung 1.0000000
nggantung cara 0.0270270
tabuh pukul 0.3333333
nuding menunjuk 1.0000000
detik detik 1.0000000
jane memang 0.0270270
dheweke Cak 0.1250000
dheweke menolongnya 0.5000000
dheweke dirinya 0.7272727
dheweke menggantikannya 0.5000000
dheweke menyambutnya 0.5000000
dheweke mengganggu 0.5000000
dheweke ia 0.4285714
dheweke mengaku 0.2000000
dheweke disukai 0.1428571
dheweke membicarakannya 0.3333333
dheweke mereka 0.1428571
dheweke menurutnya 0.5000000
dheweke dia 0.9830508
10 10 1.0000000
Kabupaten Kabupaten 0.5000000
masarakat msyarakat 1.0000000
masarakat rakyat 1.0000000
masarakat masyrakat 1.0000000
masarakat masyarakat 0.8333333
masarakat penduduk 1.0000000
Wisata Mojosongo 0.3333333
takon tanya 1.0000000
jodho jodoh 1.0000000
Mustanto Mustanto 1.0000000
Pendapa Pendapa 0.5000000
nganti remaja 0.2500000
nganti sampai 0.7058824
nganti entah 0.2500000
nganti hingga 0.8857143
nganti mencapai 0.5000000
wedhus kambing 1.0000000
wedhus kambingnya 1.0000000
babad babad 1.0000000
Taiwan Taiwan 1.0000000
ndeteksi mendeteksi 1.0000000
gathik kata 0.0434783
penere benarnya 1.0000000
mbesengut cemberut 1.0000000
iku yang 0.0020000
iku itu 0.6529412
iku muncul 0.5000000
iku Heru 0.5000000
iku yaitu 0.0333333
iku tersebut 0.1142857
iku ini 0.1428571
iku kekanan 0.5000000
iku diadakan 0.0714286
iku adalah 0.1086957
iku sebelum 0.0588235
iku NULL 0.0689655
iku sangatlah 0.2000000
iku sangat 0.0119048
ula ular 1.0000000
disahke ditetapkan 0.5000000
obyek tempat 0.0909091
tropis tropis 1.0000000
udan hujan 0.3333333
kulawarga keluarga 0.4000000
pasang-pasangan berpasangan 1.0000000
mujur tegak 1.0000000
ngobrol berbicara 0.1111111
Pewarnaan Pewarna 1.0000000
nuwun kasih 0.3000000
nuwun NULL 0.0172414
sinaune belajarnya 1.0000000
sinaune Pembelajarannya 1.0000000
sinaune Studinya 1.0000000
dadine menjadikan 0.5000000
dadine sehingga 0.2727273
dhesa desa 0.0476190
Lina Lina 1.0000000
Singapura Singapore 1.0000000
Kutha Kota 0.7692308
Kutha kota 0.2000000
Oktober Oktober 1.0000000
Oktober oktober 1.0000000
sambel sambal 1.0000000
rabi menikah 0.5000000
bebungah hadiah 0.3333333
ngocori mengailiri 1.0000000
konseling BK 1.0000000
barang barang 1.0000000
barang sepele 0.5000000
barang hal 0.0555556
barang juga 0.0123457
awakmu kamu 0.2500000
mbiyen dulu 0.5000000
mbiyen dahulu 0.6363636
teks teks 1.0000000
nate telah 0.0322581
nate pernah 0.3076923
nate ia 0.1428571
krupuk kerupuk 1.0000000
jurusan jurusan 1.0000000
tas tas 1.0000000
siji-siji per 1.0000000
siji-siji satu 0.0588235
Pamerti Pemerhati 1.0000000
Pamerti pengamat 0.3333333
kepingin ingin 0.0500000
kepingin mau 0.0625000
mapan tinggal 0.3333333
ngemu mengandung 0.2857143
ngemu memiliki 0.0200000
ngemu pengajaran 0.3333333
ngemu Berkumur 1.0000000
aula aula 0.5000000
seneng tertarik 1.0000000
seneng menyenangkan 0.4000000
seneng pengendalian 1.0000000
seneng menyukai 0.7500000
seneng bahagia 0.6000000
seneng suka 0.7894737
seneng senang 0.9696970
seneng mencintai 0.5000000
ketua kepala 0.1818182
ketua ketua 0.8888889
ketua ketu 1.0000000
penonton penontonnya 0.5000000
penonton penonton 0.9000000
nggampangake melancarkan 1.0000000
nggampangake menganggap 0.5000000
nggampangake memudahkan 1.0000000
anak anak 0.1132075
Kementerian Departemen 0.6666667
Kementerian Kementerian 0.5000000
mbedak-bedakake membeda-bedakan 0.5000000
ijol-ijolan bertukar 0.5000000
diselametke diselamatkan 0.5000000
kebudayaan kebudayaan 0.0370370
dewe kita 0.0270270
sarujuk setuju 0.7500000
sarujuk menyetujui 1.0000000
lakune jalan 0.2500000
pait pahit 1.0000000
nggawe membuat 0.5526316
nggawe menjalin 0.5000000
nggawe jamu 0.3333333
nggawe sebuah 0.2500000
barange barangnya 1.0000000
keprigelane kemampuannya 1.0000000
keprigelane ketrampilan 1.0000000
kecantikan kecantikan 1.0000000
diduweni miliki 1.0000000
diduweni dimiliki 0.6666667
diduweni kita 0.0270270
tundhuk mematuhi 0.2500000
jamu jamu 0.6666667
jamu jami 1.0000000
Riyadi Jalan 0.3333333
Timur Timur 0.5000000
nyetrika disetrika 1.0000000
tinamtu tertentu 0.1000000
tinamtu saja 0.0357143
sakanca temannya 0.2500000
sakanca bersama 0.0526316
Budi Budi 1.0000000
persiapan persiapan 1.0000000
persiapan apapun 0.5000000
ya Masa 0.3333333
ya besok 0.2500000
ya pun 0.5000000
ya yaitu 0.0333333
ya maka 0.6666667
ya adalah 0.1086957
ya adiguna 0.4000000
ya juga 0.0123457
ya akan 0.0277778
ya urusan 0.5000000
ya biasanya 0.0357143
ya ya 1.0000000
ya besi 0.1111111
kuwatir menghawatirkan 1.0000000
kuwatir khawatir 1.0000000
baksone baksonya 1.0000000
umur berumur 1.0000000
umur usia 0.5000000
umur umur 1.0000000
dimaksudake ditujukan 1.0000000
anyaran baru 0.0588235
Kiki Kiki 1.0000000
mletheke Malam 1.0000000
mletheke merayakan 0.5000000
Ganjar Ganjar 1.0000000
ludruk ludruk 1.0000000
diprecaya dipercaya 0.6666667
7 telah 0.0322581
7 7 1.0000000
rakete keterkaitan 0.5000000
rakete eratnya 1.0000000
rakete kaitannya 0.2000000
gedhong gedung 0.5000000
Aneka Maneka 1.0000000
amrih agar 0.0357143
amrih Negara 0.2500000
amrih kepada 0.0188679
amrih bermanfaat 0.5000000
amrih untuk 0.0095238
didaku anggap 1.0000000
dolanan main 0.5000000
dolanan bermain 1.0000000
dolanan permainan 0.6666667
dolanan mainan 1.0000000
dhewe kita 0.6486486
dhewe sendiri 0.9000000
njero dalam 0.0652174
njero kue 0.2500000
wigati paling 0.0833333
wigati diminati 1.0000000
wigati penting 0.3000000
seneni marahi 1.0000000
sumber sumber 1.0000000
sayur sayur 0.7500000
non-pamarentah bukan 0.0666667
non-pamarentah pemerintah 0.0555556
sipating sifat 0.0833333
irah-irahan judul 1.0000000
subtropika daerah 0.0909091
andharane kata 0.0434783
andharane hotman 0.5000000
Bebaya Berbahaya 1.0000000
keliwat terlewat 1.0000000
karep tujuan 0.2500000
karep keinginan 0.2000000
Garapan garapan 1.0000000
kobong terbakar 0.6666667
latin Latin 1.0000000
ngowahi mengubah 1.0000000
nerusa meneruskan 0.5000000
nembe baru 0.2941176
nggeret penting 0.0333333
nggeret sangat 0.0119048
sembrono sembarangan 0.2500000
ngusung membawa 0.1250000
Pendhudhuk ndesa 0.5000000
Pendhudhuk warga 0.0833333
Purnama Purnama 1.0000000
klapa kelapa 1.0000000
jarak mengenai 0.5000000
jarak jarak 1.0000000
jarak sosial 0.3333333
praktis praktis 1.0000000
tetep tetap 0.7500000
tetep terus 0.2500000
tetep masih 0.0967742
becik kebaikan 0.1428571
becik gunakan 0.5000000
becik baik 0.2352941
becik baiknya 1.0000000
becik indah 0.2000000
asil hasil 0.5000000
asil asli 0.0833333
ngundang memanggil 1.0000000
ngundang mengundang 1.0000000
tonil tonil 1.0000000
peso pisau 1.0000000
saperangan sebagian 0.5000000
wedha pengajaran 0.3333333
pangon seseorang 0.1666667
dilairake lahir 0.1250000
rada sedikit 0.2307692
cocok cocok 1.0000000
Sukoharjo Sukoharjo 1.0000000
donya dunia 0.1818182
ngregengake merayakan 0.5000000
ngregengake meramaikan 1.0000000
diteruske kepada 0.0188679
diteruske diteruskan 0.3333333
njaluk meminta 0.8000000
umat umat 1.0000000
mbiyantu membantu 0.2500000
efektif efektif 0.5000000
Menengah Menengah 1.0000000
Pentinge pentingnya 0.5000000
sensor sensor 1.0000000
keajaiban keajaiban 1.0000000
New New 1.0000000
moro perburuan 1.0000000
Arief Arief 1.0000000
keri terakhir 0.3333333
dipepe dijemur 1.0000000
Lanka Lanka 1.0000000
sabangsa sebangsa 1.0000000
Jemuwah jumat 0.5000000
Tenggara Tenggara 1.0000000
gugup gugup 1.0000000
Raihan Raihan 1.0000000
diperang dibagi 1.0000000
diperang diterjemahkan 0.3333333
winih biji 1.0000000
nggumun mengherankan 1.0000000
nyetir mengendarai 1.0000000
nyumadyakake menyediakan 1.0000000
perkara hal 0.0555556
tinggi tinggi 0.1111111
struktur struktur 1.0000000
kethopak kethoprak 0.0526316
dele kedelai 1.0000000
Alya Alya 1.0000000
bebarengan bersamaan 1.0000000
bebarengan mendukung 0.3333333
bebarengan berdampingan 0.5000000
bebarengan bersama 0.1052632
Lakone tokohnya 0.5000000
keobong terbakar 0.3333333
York York 1.0000000
minyak minyak 0.3333333
meh hampir 1.0000000
dene dengan 0.0092593
dene sedang 0.0357143
dene jika 0.0500000
dene bahwa 0.2380952
dene sedangkan 0.7142857
dene meskipun 0.0769231
dene kethoprak 0.0526316
dene mengatakan 0.0232558
dene tetapi 0.0434783
dene sementara 0.6666667
dene berasal 0.1666667
bahan bahan 0.7500000
bahan berbahan 1.0000000
ngrumat menjaga 0.0555556
Covid Covid 1.0000000
Covid covid 0.2500000
Mahabarata Mahabharata 1.0000000
kursine kursinya 1.0000000
kepribadian pribadi 0.5000000
kunjung berkunjung 0.2500000
Mr Mr 1.0000000
diet dietnya 1.0000000
ngalahake mengalahkan 1.0000000
kemajuwaning perkembangan 0.5000000
kemajuwaning memajukan 1.0000000
Susuh Sarang 1.0000000
fasih fasih 1.0000000
fasih dia 0.0169492
keluhan keluhan 1.0000000
VIII VIII 1.0000000
Lia Lia 1.0000000
Mung Hanya 1.0000000
Deleng Lihatlah 1.0000000
pindhah pindah 0.3333333
isa bisa 0.0545455
Distribusi Pembagian 1.0000000
tandang gerak 1.0000000
dianakne diadakan 0.0714286
Kebhinekaan Kebhinekaan 1.0000000
Unen-unen Pepatah 1.0000000
Tali Tali 1.0000000
mancanagara luar 0.1250000
mancanagara negeri 0.3333333
Janjane Sebenarnya 1.0000000
mili mata 0.1666667
Pusat Kementerian 0.5000000
tahayul tahayul 1.0000000
negera negeri 0.3333333
Digitalisasi Digitalisasi 1.0000000
punjere pusatnya 1.0000000
Fina Fina 1.0000000
Jemuah Jumat 0.7500000
KM KM 1.0000000
lair lahir 0.7500000
viral viral 1.0000000
seni seni 0.9142857
kabutuhane kebutuhannya 1.0000000
nyejahteraake kesejahteraan 1.0000000
Palawan Palawan 1.0000000
tulung tolong 1.0000000
Sadar Pariwisata 0.3333333
kelairane kelahirannya 1.0000000
jero dalam 0.0652174
macan harimau 1.0000000
sapiturue sebagainya 0.0833333
biji nilai 0.5000000
awet awet 1.0000000
malati berpenghuni 1.0000000
Sentana Sentana 1.0000000
pekarangane halaman 0.5000000
kriya kriya 1.0000000
Kudu Harus 1.0000000
akademisi akademisi 1.0000000
pindho kali 0.5000000
pindho kedua 0.3333333
payu laku 0.5000000
jelas jelas 0.5000000
Umure Umurnya 1.0000000
langsung langsung 1.0000000
awujud seperti 0.0140845
awujud berupa 0.3333333
pethek tempe 1.0000000
pethek asin 0.5000000
atine hatinya 1.0000000
Rizal Rizal 1.0000000
Pancasila Pancasila 1.0000000
Stefani Stefani 1.0000000
Setu ndesa 0.5000000
Setu Sabtu 0.5000000
pamarentah pemerintah 0.3888889
monolog bermonolog 1.0000000
sanksine sanksinya 1.0000000
ngising besar 0.0625000
ngising air 0.0769231
ngising buang 1.0000000
manca asing 1.0000000
manca negara 0.1428571
manca luar 0.1250000
40 40 0.5000000
nglakoke melakukan 0.1666667
pangandikan permintaan 1.0000000
Sebelas University 0.5000000
Sebelas Sebelas 1.0000000
dimetokake dikeluarkan 0.5000000
nepungake memperkenalkan 0.2000000
Anugerah Anugerah 1.0000000
pendhapa pendopo 1.0000000
apike bagusnya 1.0000000
apike sebaiknya 0.5000000
Jerman Jerman 1.0000000
keputusan keputusan 1.0000000
dibangun dibangun 1.0000000
polos lugu 1.0000000
Putri Putri 1.0000000
kalebu termasuk 0.6315789
dikebeki dipenuhi 0.6666667
dijenengake dinamakan 0.5000000
corake coraknya 1.0000000
sawijing satunya 0.0769231
sawijing satu 0.0588235
peserta peserta 0.5000000
KBM KBM 1.0000000
canthing canting 1.0000000
dana dana 0.7777778
laladan daerah 0.0909091
adhine adiknya 1.0000000
kembang bunga 1.0000000
kembang kembang 1.0000000
kembang menyalakan 0.1666667
kembang petasan 0.4444444
noda noda 1.0000000
lucu lucu 1.0000000
murih untuk 0.0095238
wedine takutnya 1.0000000
wujud wujud 1.0000000
wujud bentuk 0.5714286
Retno Retno 1.0000000
Pemajuan Pengembangan 1.0000000
wewangunan pembangunan 1.0000000
megap-megap terengah-engah 1.0000000
panyedhakan pencegahan 0.3333333
Nanging Namun 1.0000000
Nanging Tapi 0.3333333
praktisi praktisi 1.0000000
ancase tujuannya 0.3333333
boneka boneka 1.0000000
ditumpuk ditimbun 1.0000000
kadulu terlacak 1.0000000
macem-macem macam-macam 0.3333333
ngandel percaya 0.2000000
tembayatan bekerjasama 1.0000000
Wondene sedangkan 0.1428571
keweden ketakutan 1.0000000
dibiwarakake ditetapkan 0.5000000
mbathik batik 0.0555556
mbathik membatik 1.0000000
mbathik membuat 0.0263158
jangkep termasuk 0.0526316
kanggone bagi 0.2222222
kanggone efektif 0.5000000
kanggone untuk 0.0190476
kanggone puisi 1.0000000
embuh entah 0.5000000
1 1 1.0000000
dimenangna dimenangkan 1.0000000
ndadi menjadi 0.0169492
kajian kajian 1.0000000
sembarangan sembarang 1.0000000
danane dana 0.1111111
virus virus 1.0000000
adhep terhadap 0.1428571
ngati-ati Berhati-hatilah 1.0000000
ngati-ati berhati-hati 1.0000000
pemain pemain 1.0000000
kepengin ingin 0.2000000
dawa panjang 1.0000000
dawa memanjang 1.0000000
Kelompok Kelompok 1.0000000
Kelompok Pariwisata 0.3333333
katulis ditulis 0.1111111
katulis tertulis 1.0000000
muride siswanya 1.0000000
Oesman Oesman 1.0000000
quinine quinine 1.0000000
Presiden Presiden 1.0000000
Suryanto Suryanto 1.0000000
pepundhen penghuninya 1.0000000
pepundhen dianggap 0.1666667
pepundhen tempat 0.0909091
pepundhen yang 0.0020000
pepundhen ada 0.0076336
turune keturunan 0.1666667
maksud makna 0.2500000
maksud tujuan 0.2500000
maksud dengan 0.0092593
Zidan Zidan 1.0000000
Karya Karya 1.0000000
Cirebon Cirebon 1.0000000
kuli kulit 0.3333333
nabuh memukul 1.0000000
nabuh memainkan 1.0000000
trauma trauma 1.0000000
guyub damai 0.6666667
Sesajen Sesajen 1.0000000
Majelis Anggota 1.0000000
dipangan dimakan 1.0000000
nanggapi menanggapi 0.5000000
istimewa istimewa 1.0000000
Maskumambang Maskumambang 1.0000000
amargi karena 0.0289855
amargi dikarenakan 0.2000000
precaya percaya 0.4000000
bola bola 1.0000000
nom-nomane muda 0.0243902
nom-nomane anak 0.0188679
psikologi psikologi 1.0000000
nintingi membawa 0.1250000
pantai pantai 1.0000000
panggung panggung 0.5555556
agama agama 1.0000000
Vivi Vivi 1.0000000
gudang gudang 0.5000000
favorit favorit 1.0000000
Pencegahan pencegahan 0.6666667
diserat ditulis 0.2222222
Warayagya Warayagya 1.0000000
sarana melalui 0.2000000
sarana sarana 1.0000000
Cabang Cabang 1.0000000
didu di 0.0032895
didu adu 1.0000000
nyadran berkunjung 0.2500000
kuat kuat 0.5000000
Pratelan pernyataan 0.5000000
digarap dikerjakan 1.0000000
digarap dibuat 0.0833333
digarap dilakukan 0.1000000
njoged menari 0.1250000
lewat lewat 0.3333333
Andika Andika 1.0000000
ketimbang dibandingkan 1.0000000
nglairake melahirkan 1.0000000
pepati bagi 0.1111111
pepati kematian 0.5000000
Korea Korea 1.0000000
Korea korea 1.0000000
Ca Ca 1.0000000
Soale Karena 0.5000000
kapinteran kepandaian 1.0000000
Kebudayaan Budaya 0.1250000
Kebudayaan Kebudayaan 1.0000000
abad abad 1.0000000
Campursari Campursari 1.0000000
lulus lulus 1.0000000
aturan-aturan aturan-aturan 0.5000000
nanging tapi 1.0000000
nanging namun 0.9487179
nanging Tapi 0.3333333
nanging tetapi 0.9565217
yakuwi yaitu 0.0333333
formula rumus 1.0000000
kandhane menurut 0.0416667
kandhane ucapan 0.5000000
kandhane pernyataannya 0.5000000
kandhane katanya 0.9761905
kandhane kata 0.6956522
kandhane Kata 1.0000000
sacacah beberapa 0.0400000
kebone kebunnya 1.0000000
manual manual 1.0000000
Jarik kain 0.3333333
nglarang melarang 1.0000000
pasangane pasangannya 1.0000000
uba macam-macam 0.1666667
Sari Sari 1.0000000
kadhangkala kadang 0.5000000
kadhangkala terkadang 0.4000000
kadhangkala Kadang-kadang 1.0000000
wartawan wartawan 1.0000000
wartawan sudah 0.0175439
Agasta Agasta 1.0000000
Kodhok Katak 1.0000000
tengah tengah 0.5000000
penyutradaraan sutradara 0.5000000
120 120 1.0000000
Jadwal Jadwal 1.0000000
angsar watak 1.0000000
saindhenging seluruh 0.1000000
pindhah-pindhah sedang 0.0357143
pindhah-pindhah jika 0.0250000
pindhah-pindhah mereka 0.1428571
ngepyakake menampilkan 0.3333333
Fakultas Fakultas 1.0000000
cathetan catatan 1.0000000
kadhung terlanjur 1.0000000
manut sesuai 0.1250000
manut mematuhi 0.2500000
para anak 0.0754717
para leluhur 0.2000000
para pencinta 0.2857143
para para 0.8461538
para murid-muridnya 0.2500000
para , 0.0012563
para kaum 0.2500000
para kepada 0.0188679
dijaga dijaga 0.7500000
aturan aturan 0.5000000
Si Si 1.0000000
waktu saat 0.0200000
2018 2018 1.0000000
ndhidhik mendidik 1.0000000
pewarnane pewarnanya 1.0000000
Ambathik Ambathik 1.0000000
udud merokok 1.0000000
Amarga Karena 0.5000000
ancas itu 0.0058824
panutan panutan 1.0000000
yawis sudah 0.0175439
palingan paling 0.0833333
100 100 1.0000000
diarahake diarahkan 1.0000000
ngliwati melewati 1.0000000
Guci Guci 1.0000000
Kajupuk diambil 0.2500000
cepet cepat 0.8000000
mikir berpikir 1.0000000
mlaku-mlaku jalan-jalan 0.5000000
mlaku-mlaku berjalan 0.2500000
Congwayndut Congwayndut 1.0000000
Nah Nah 1.0000000
meja meja 1.0000000
terus selalu 0.0909091
terus terus 0.5000000
CCI CCI 1.0000000
Amerika Amerika 1.0000000
meteng hamil 1.0000000
ditularake menular 1.0000000
gumantung tergantung 1.0000000
nyawang melihat 0.0500000
dokumene dokumennya 1.0000000
yogyakarta Yogyakarta 0.5000000
19 19 0.9444444
DJ DJ 1.0000000
dipadhakake diumpamakan 0.5000000
dikebaki dipenuhi 0.3333333
ngrekam merekam 0.5000000
Rendra Rendra 1.0000000
Rendra Renda 1.0000000
endhas kepala 0.5454545
endhas Kepala 0.5000000
Srikandhi Srikandi 1.0000000
Srikandhi Srikandhi 1.0000000
pasuguhan hidangan 1.0000000
Burma Burma 1.0000000
jemput jemput 1.0000000
Orde ketika 0.0149254
Orde Orde 0.5000000
Mas Mas 1.0000000
ruang ruang 0.5000000
wilayah wilayah 0.6666667
daya kekuatan 0.2500000
Kota Walikota 0.5000000
Kota Kota 0.2307692
sumadya sedikit 0.0769231
Awards Awards 1.0000000
Tak Tak 1.0000000
alami alami 0.5000000
bukti bukti 1.0000000
bukti buktikan 1.0000000
fiksi dari 0.0106383
fiksi fiksi 1.0000000
mengkono begitu 0.0909091
bocah yang 0.0020000
bocah kecil 0.1111111
bocah menyampaikan 0.3333333
bocah pemuda 0.2000000
bocah kepada 0.0188679
bocah anak-anaknya 0.1428571
bocah anak-anak 0.0731707
bocah anak 0.3773585
Ibu kepada 0.0188679
Ibu ibu 0.0454545
Ibu Ibu 0.3333333
Mulane itu 0.0058824
Mulane Sebab 0.5000000
suwarane suaranya 1.0000000
Telkom Telkom 1.0000000
janjane sepertinya 0.5000000
Gusti Gusti 0.5000000
Gusti Tuhan 0.5000000
asumber bersumber 1.0000000
iwak ayam 0.3333333
iwak ikan 0.5000000
kekuwataning kekuatan 0.2500000
nglanggar melanggar 1.0000000
Alasane Alasannya 0.5000000
Alasane  0.0131579
dileremake dicegah 1.0000000
bentuk bentuk 0.1428571
kabupaten kabupaten 1.0000000
mbasuh mencuci 0.3333333
patrap sikap 0.6666667
patrap yang 0.0020000
tutur tutur 1.0000000
kalori kalori 1.0000000
syukur di 0.0032895
syukur bersyukur 0.3333333
kono Disitu 0.5000000
diisi diisi 1.0000000
sastra sastra 0.8000000
Soerya Soerya 1.0000000
Soerya Sanggar 0.2000000
penulise penulisnya 1.0000000
keadilan keadilan 1.0000000
tinunggu-tunggu oleh 0.0200000
tinunggu-tunggu sangat 0.0119048
tinunggu-tunggu ditunggu-tunggu 0.5000000
kanthi secara 0.3333333
kanthi berbentuk 0.2500000
kanthi harus 0.0133333
kanthi sampai 0.0294118
kanthi dikenal 0.1666667
kanthi dengan 0.3148148
kanthi sangat 0.0119048
kanthi matahari 0.3333333
kanthi hingga 0.0571429
rencana masa 0.1666667
Puspita Puspita 1.0000000
Nyolong Mencuri 1.0000000
sawah sawah 1.0000000
Puntadewa Puntadewa 1.0000000
tandhingane saingannya 1.0000000
mampyor ramai 0.2000000
level level 1.0000000
perasaan perasaan 0.3333333
ditata disusun 1.0000000
tuladha contoh 0.3333333
grup Grup 0.5000000
grup grup 1.0000000
diganggu diganggu 1.0000000
Ba Ba 1.0000000
lumrahe biasanya 0.2142857
terhuyung-huyung sempoyongan 1.0000000
diapali dihafal 1.0000000
ditambahi ditambahkan 1.0000000
ditambahi diperbanyak 1.0000000
longsor longsor 1.0000000
tuwa tua 0.8571429
seadoh sejauh 1.0000000
Bahan-bahan bahan 0.2500000
nyumanggakake mempersilahkan 1.0000000
kapisan pertama 0.3333333
Millen Millen 1.0000000
judhule berjudul 0.5000000
judhule Judulnya 1.0000000
nyandhak mengambil 0.2000000
dipadhakke dengan 0.0092593
dipadhakke disamakan 0.5000000
pasien pasien 1.0000000
pamutih pemutih 1.0000000
paitan modal 1.0000000
pangajabe Harapannya 1.0000000
pangajabe harapan 0.1666667
pinang pinang 1.0000000
sekolahan sekolahan 1.0000000
sekolahan sekolah 0.0909091
iklim iklim 1.0000000
jus jus 1.0000000
gadhepi menghadapi 0.2500000
bioskop bioskop 1.0000000
bener-bener benar-benar 0.2500000
santun santun 0.2500000
Studio Studio 1.0000000
kaancam yang 0.0020000
kaancam terancam 0.5000000
warsa tahun 0.0232558
warsa ulang 0.5000000
ditambah ditambah 1.0000000
dening roh 1.0000000
dening oleh 0.6800000
dening dibantu 0.2500000
dening diterima 0.3333333
krama krama 1.0000000
krama santun 0.2500000
Nia Nia 1.0000000
pesta festival 0.5000000
alus halus 0.3333333
alus lembut 1.0000000
42 40 0.5000000
panggunungan pegunungan 1.0000000
anake anaknya 1.0000000
kolosal kolosal 1.0000000
dicampur dipadukan 1.0000000
Garuda Garuda 1.0000000
sepuluh sepuluh 1.0000000
dirangkul dirangkul 1.0000000
ngentengna menghabiskan 0.5000000
digoreng digoreng 1.0000000
pesawat pesawat 1.0000000
Tionghoa Tionghoa 1.0000000
Tionghoa tionghoa 1.0000000
Tionghoa Cina 0.6500000
Tionghoa Jawa-Cina 0.3333333
Ewandene tentu 0.5000000
Ewandene saja 0.0357143
Setiabudi Setiabudi 1.0000000
pandhita pendeta 1.0000000
dialih dialih 0.3333333
gratis gratis 1.0000000
1900-an 1900-an 1.0000000
kan kan 1.0000000
kan kerusuhan 0.5000000
mumpuni mumpuni 1.0000000
nyoba menguji 1.0000000
nyoba mencoba 0.6666667
nyoba berusaha 0.5714286
nyoba untuk 0.0095238
Kabudayan Budaya 0.1250000
nilai nilai-nilai 1.0000000
nilai nilai 0.5000000
dong daun 0.2500000
wengi malam 0.6363636
wengi larut 1.0000000
ngresiki membersihkan 0.5000000
wayahe saat 0.0200000
wayahe saatnya 1.0000000
regenerasi regenerasi 1.0000000
kepepet kepepet 1.0000000
kepepet hanya 0.0169492
murid siswa 0.3000000
murid murid 0.5714286
karyane hasil 0.2500000
kapur kapur 1.0000000
RI RI 1.0000000
ditugasake untuk 0.0095238
ditugasake ditugaskan 1.0000000
ngandharake menjelaskan 0.6250000
ngandharake membahas 0.0909091
ngandharake mengklaim 1.0000000
ngandharake mengatakan 0.7209302
kepindho kalinya 1.0000000
kepindho kedua 0.3333333
internasional Internasional 0.6666667
njlentrehake menjelaskan 0.1250000
adicara upacara 0.2857143
adicara acara 0.7777778
ditugasi diberi 0.1666667
ditugasi tugas 0.1666667
kalang lingkungan 0.2000000
rokok rokok 1.0000000
kirab kirab 1.0000000
metal metal 1.0000000
pamikir pendapat 0.5000000
iki setiap 0.0217391
iki ini 0.5396825
iki tersebut 0.0285714
iki NULL 0.0172414
iki itu 0.0117647
permisi amit 1.0000000
jenenge namanya 1.0000000
papan tempat 0.1818182
papan papan 1.0000000
amangun membangun 0.3333333
gudung gunung 0.1428571
Indrawan Indrawan 1.0000000
Wong Orang 1.0000000
Rebecca tahun 0.0232558
Anakmu Anakmu 1.0000000
kahanan keadaan 1.0000000
kahanan kondisi 0.6666667
kahanan Situasi 1.0000000
potensi potensi 1.0000000
bisa tajam 0.5000000
bisa bisa 0.8909091
bisa dapat 1.0000000
bisa beriringan 0.5000000
bisa pegangan 0.3333333
bisa boleh 0.3333333
bisa berhasil 0.5000000
? ? 1.0000000
mlayune berlarinya 1.0000000
pengetan perayaan 1.0000000
pengetan peringatan 0.7500000
ngrembaka berkembang 0.6000000
1960 1960 1.0000000
error error 1.0000000
Wonogiri Wonogiri 1.0000000
sansaya semakin 0.0454545
Pagongan Pagongan 1.0000000
ning di 0.0065789
ning jika 0.0250000
ning ada 0.0076336
brambang bawang 0.6000000
brambang merah 0.5000000
Suwadi Suwadi 1.0000000
mbedak-mbedakake membeda-bedakan 0.5000000
mbedak-mbedakake membedakan 1.0000000
nggambarake menggambarkan 1.0000000
nuju menuju 1.0000000
pagaweyan pekerjaan 0.3333333
pakaryane pekerjaannya 0.5000000
pamandu pemandu 1.0000000
mungkin mungkin 0.2500000
mimpin pemimpinannya 1.0000000
mimpin memimpin 0.6666667
mimpin di 0.0032895
ngadek berdiri 0.1666667
beksan-beksan gerakan-gerakan 1.0000000
Iki Ini 1.0000000
dideleng dilihat 1.0000000
Kompetisi lomba 0.1111111
ISI ISI 0.7500000
Pemenang Pemenang 1.0000000
mujudake mewujudkan 0.5000000
tur dan 0.0040816
Wedokan Wedokan 1.0000000
13 13 1.0000000
steril steril 1.0000000
kitab naskah 0.0188679
kitab kitab 1.0000000
kitab buku 0.3750000
nada nada 1.0000000
wedhok wanita 0.2500000
ngumbah membasuh 1.0000000
ngumbah dicuci 0.3333333
ngumbah mencuci 0.6666667
ngewangi membantu 0.2500000
tangga tetangga 0.5000000
gawane bawakan 0.6666667
Sragen Sragen 1.0000000
Dubai Dubai 1.0000000
kethoprak Kethoprak 0.1250000
kethoprak ketoprak 1.0000000
kethoprak kethoprakk 1.0000000
kethoprak kethoprak 0.8421053
nggenteni menggantikannya 0.5000000
kekarepan keinginan 0.2000000
kekarepan Ketertarikannya 1.0000000
Sudiroprajan Sudiroprajan 1.0000000
nuwuhake menumbuhkan 1.0000000
rengeng-rengeng bersenandung 1.0000000
kebentuk terbentuk 1.0000000
gusi gusi 1.0000000
Wayang Wayang 0.5000000
kulon barat 0.5000000
jaman zaman 0.9230769
jaman kemajuan 0.2500000
jaman jaman 1.0000000
jaman dengan 0.0092593
jaman waktu 0.1250000
minangka merupakan 0.7777778
minangka adalah 0.1521739
minangka menurut 0.0416667
minangka sebagai 0.8000000
minangka jabatan 0.5000000
minangka seperti 0.0140845
minangka menjadi 0.1016949
Saliyane Selain 0.1818182
Susu Susu 1.0000000
Susu dan 0.0040816
gumregut menjaga 0.0555556
Sudarsono Sudarsono 1.0000000
angel sulit 1.0000000
dinane harinya 0.6000000
luwe lapar 1.0000000
Cafe Cafe 1.0000000
dhaftar mendaftar 0.6666667
Nendra Nendra 1.0000000
rukun rukun 1.0000000
diomongke diucapkan 1.0000000
tema tema 1.0000000
Soemirat Kusumo 0.1428571
Soemirat GPH 0.1666667
Soemirat Soemirat 0.8000000
padesan pedesaan 0.5000000
tetap tetap 0.0833333
sangka sebenarnya 0.1666667
Hantu Hantu 1.0000000
wajib wajib 1.0000000
sijine satunya 0.5384615
sijine satu 0.0882353
700 700 1.0000000
ngupiya berusaha 0.1428571
ngupiya supaya 0.0714286
ngenal mengenal 0.5000000
ben biar 1.0000000
ben bersih 0.2500000
ben agar 0.0714286
ben supaya 0.0714286
loro-lorone dua-duanya 1.0000000
Nasi nasi 0.1666667
Kino Kino 1.0000000
watese batasnya 1.0000000
St St 0.5000000
St di 0.0032895
kuwasa kuasa 1.0000000
kuwasa penuh 0.5000000
barengan setara 1.0000000
duwe memiliki 0.6800000
duwe mempunyai 0.7500000
duwe pasti 0.0833333
duwe punya 1.0000000
Mada Mada 1.0000000
bala bencana 0.3333333
dikandhani dikatakan 0.5000000
dikandhani diberitahu 1.0000000
Taman Taman 1.0000000
tartamtu tertentu 0.9000000
watak karakter 0.3333333
busana busana 1.0000000
busana Fashion 1.0000000
panaliten peneliti 0.3333333
panaliten penelitian 0.7500000
mbela membela 0.5000000
Punakawan Punakawan 1.0000000
Minggu Minggu 1.0000000
pohung singkong 1.0000000
Ancaman Ancaman 1.0000000
panliten penelitian 0.2500000
apadene dan 0.0040816
rombongan kelompok 0.2500000
dongeng dongeng 0.6111111
dongeng merekam 0.5000000
njlentrekake menjelaskan 0.1250000
uripe hidup 0.0625000
uripe hidupnya 0.5000000
yektine rumahnya 0.3333333
45 45 1.0000000
diowah-owah diubah-ubah 1.0000000
ilegal ilegal 1.0000000
pemikirane pemikirannya 1.0000000
pujangga kuno 0.0416667
pujangga penyair 1.0000000
tulisan-tulisan artikel 0.2500000
penggemar penggemar 0.3333333
Blebes Blebes 1.0000000
trus terus 0.1250000
trus jadi 0.0769231
kruyukan maju 0.3333333
gampang mudah 1.0000000
gampang sederhana 1.0000000
gampang sangatlah 0.2000000
gampang gampang 1.0000000
suku suku 1.0000000
wutuh utuh 1.0000000
toko toko 1.0000000
Disinfektan Desinfektan 1.0000000
Dinda Dinda 1.0000000
kasimpen disimpan 0.3333333
Pakubuwana Pakubuwana 1.0000000
rasane rasanya 0.8000000
ilat lidah 1.0000000
sarat persyaratan 1.0000000
merti bersih 0.2500000
gunungan gunung 0.1428571
gunungan tumpukkan 1.0000000
kuota kuota 1.0000000
pangapura maaf 1.0000000
kuwi mereka 0.1428571
kuwi adalah 0.0434783
kuwi itu 0.1352941
kuwi saat 0.0600000
kuwi ini 0.0158730
Tembang-tembange lagu-lagu 0.2000000
gedhang pisang 1.0000000
jan-jane sebenarnya 0.1666667
Yifei Yifei 1.0000000
adoh jauh 1.0000000
tanah tanah 1.0000000
ngucapake mengucapkan 0.2500000
Budaya budaya 0.0172414
Budaya Budaya 0.5000000
ningkat meningkat 0.5000000
sukses sukses 1.0000000
sukses kesuksesan 0.2000000
sukses berhasil 0.5000000
ngupaya berusaha 0.1428571
mapag menyambut 1.0000000
by by 1.0000000
kumpule berkumpulnya 1.0000000
Kembang Kembang 1.0000000
pakar-pakar pakar-pakar 1.0000000
maksimal maksimal 1.0000000
mbingungi bingung 0.5000000
mbingungi membuat 0.0263158
mutrani mengulangi 1.0000000
ngleluri menjaga 0.1111111
ngleluri melestarikan 0.0769231
ngleluri menggeluti 1.0000000
modheren moderen 1.0000000
modheren modern 1.0000000
meloni mengikuti 0.1666667
njerone dalamnya 1.0000000
25 25 1.0000000
Shankara Shankara 1.0000000
nepsu nafsu 0.5000000
Buta Buta 1.0000000
ngendi perginya 0.5000000
ngendi mana 0.4000000
dasar dasar 0.1666667
materi materi 1.0000000
biaya biaya 1.0000000
ngono seperti 0.0563380
ngono memang 0.0270270
ngono itu 0.0235294
ngono begitu 0.0909091
geger pembantaian 1.0000000
ngendel-endelake mengandalkan 0.2500000
pencak pencak 1.0000000
ngrembug membahas 0.0909091
sinuwun diciptakan 0.5000000
Satrio Satrio 1.0000000
Ignasia Ignatian 1.0000000
Ignasia Ignasian 1.0000000
titimangsane titik 0.5000000
dedonga permohonan 0.6666667
songo sembilan 1.0000000
basa diterjemahkan 0.3333333
basa Bahasa 0.0869565
basa bahasa 0.8333333
basa Basa 1.0000000
areng arang 1.0000000
Wali Walikota 0.5000000
kelurahan desa 0.0952381
tawon betina 0.5000000
tawon tawon 1.0000000
tawon Tawon 1.0000000
tawon lebah 0.7500000
menyang pergi 0.7000000
menyang Kemanapun 1.0000000
menyang ke 0.4000000
menyang kepada 0.0566038
pengusaha pengusaha 1.0000000
jajan didalam 0.3333333
jajan kue 0.2500000
panggone singgahnya 1.0000000
panggone tempatnya 0.5000000
macapatan macapatan 1.0000000
siswa murid 0.4285714
siswa siswa 0.6000000
judheg akal 0.3333333
judheg kehabisan 1.0000000
wus sudah 0.0350877
ngandung merah 0.1666667
ngandung mengandung 0.1428571
Ambya Ambya 1.0000000
UKM UKM 1.0000000
Bhatik batik 0.0555556
kanca teman 0.5000000
tepat tepat 0.5000000
sukerta sukerta 1.0000000
bosok busuk 1.0000000
padhepokan-padhepokan padepokan-padepokan 1.0000000
Habibie Habibie 1.0000000
Bogor Bogor 1.0000000
Bogor pada 0.0238095
Bogor bogor 0.5000000
kangelan kesusahan 1.0000000
kangelan kesulitan 1.0000000
diwisuh dicuci 0.3333333
kawruh pelajaran 0.0555556
kawruh pengetahuan 0.2500000
diabetes diabetes 1.0000000
panyebaran penyebaran 1.0000000
soal soal 1.0000000
rusak rusak 1.0000000
ditemokake ditemui 0.1666667
ditemokake ditemukan 0.5000000
resep resep 1.0000000
Wiyono Wiyono 1.0000000
crah acuh 1.0000000
Anak Anak 1.0000000
ngetoke mengeluarkan 0.5000000
Bagas Bagas 1.0000000
cakrik bentuk 0.1428571
apal hafal 1.0000000
apal pandai 0.1666667
apal dikuasai 1.0000000
prekara hal 0.1111111
MTA MTA 1.0000000
pilih-pilih pemilih 1.0000000
rilis rilis 1.0000000
Stroberi Strawberry 1.0000000
nari tari 0.1333333
nari menari 0.2500000
dadi menjadi 0.8135593
dadi sehingga 0.1818182
dadi jadi 0.5384615
dadi Negeri 0.5000000
dadi pemeran 0.1111111
dadi memnjadi 1.0000000
dadi semakin 0.0454545
dadi adalah 0.0217391
panggonan berpergian 1.0000000
panggonan tempat 0.1818182
kudune harusnya 1.0000000
kudune seharusnya 0.5000000
Tantri Tantri 1.0000000
Dwi Dwi 1.0000000
ditrepake diterapkan 0.8000000
ditrepake diulang 1.0000000
Nyebar menyebarkan 0.5000000
dipentaske dipentaskan 1.0000000
nganglang keliling 0.5000000
nganglang bahkan 0.0476190
nganglang pindah 0.3333333
nalika saat 0.3800000
nalika ketika 0.8805970
nalika pada 0.0714286
nalika dulu 0.0714286
nalika jika 0.0250000
diterusake diteruskan 0.6666667
legi-legi manis-manis 1.0000000
tisu tisu 1.0000000
pambukane pembukaan 0.5000000
kaendahan keindahan 0.7142857
canggih canggih 1.0000000
kanca-kancane teman-temannya 0.8888889
Wiswakarman Wiswakarman 1.0000000
Keroncong keroncong 1.0000000
piala piala 1.0000000
setuju setuju 0.2500000
mentah mentah 1.0000000
sakdurunge sebelum 0.5294118
sakdurunge sebelumnya 0.6000000
kepungkur yang 0.0080000
kepungkur lalu 0.3636364
kepungkur kebelakang 1.0000000
kepungkur terakhir 0.3333333
kepungkur kemarin 0.1250000
aku aku 0.8260870
aku saya 0.7333333
26 26 1.0000000
diragukan diragukan 1.0000000
kertas kertas 1.0000000
rembugan berdiskusi 1.0000000
3 3 1.0000000
materine materinya 1.0000000
Baru Orde 0.5000000
Baru Baru 0.2857143
2006 2006 1.0000000
ulap-ulap ulap-ulap 1.0000000
umuk arogan 1.0000000
pangerten paham 0.2500000
Gumiho Gumiho 1.0000000
Rembang Rembang 1.0000000
Bri BRI 1.0000000
permen permen 1.0000000
narik menarik 0.7272727
kayu kayu 1.0000000
influenza influenza 1.0000000
kaping-100 ke-100 1.0000000
Sura Sura 1.0000000
Murid siswa 0.1000000
ngatur mengatur 0.5000000
ngatur mengelola 1.0000000
sanak kerabat 0.5000000
Rung dua 0.0769231
umume umumnya 1.0000000
nulis menulis 0.8181818
Sania Sania 1.0000000
donga doa 1.0000000
disinau dipelajari 0.6666667
budayawan budayawan 1.0000000
winates terhadap 0.1428571
winates terbatas 0.5000000
suwene selama 0.2500000
suwene lamanya 0.5000000
single single 1.0000000
sandhangan baju 0.2500000
sandhangan tambahan 1.0000000
tahun tahun 0.1162791
tahun 1986 0.5000000
tahun itu 0.0058824
sambung kaitannya 0.2000000
inspirasi inspirasi 1.0000000
60 60 1.0000000
cilaka terluka 0.5000000
tansah selalu 0.3636364
akeh-akeh kebanyakan 0.2500000
pocapane pengucapannya 1.0000000
nganut percaya 0.4000000
nyukupi memenuhi 0.5000000
desa-desa desa-desa 1.0000000
batuk batuk 1.0000000
nyuwara bersuara 0.6666667
nyuwara suara 0.1666667
lomba lomba 0.7777778
lomba lari 0.3333333
kaluwarga keluarga 0.4000000
sonten sore 0.5000000
Jenderal Jenderal 1.0000000
metu keluar 1.0000000
dibedakake dibedakan 1.0000000
perangan bagian 0.0833333
mangerteni memahami 0.5000000
murid-murid murid-murid 1.0000000
nampani telah 0.0322581
nampani menyambutnya 0.5000000
taman taman 0.5000000
negesake menekankan 1.0000000
negesake menegaskan 1.0000000
ndhaptarake mendaftarkan 1.0000000
keamanan keamanan 1.0000000
cawuh bercampur 0.3333333
kapiji termasuk 0.0526316
gizi gizi 1.0000000
Ajisaka Ajisaka 1.0000000
narkoba narkoba 1.0000000
Widyaloka Widyaloka 1.0000000
pamawa peserta 0.2500000
sikat sikat 0.5000000
Guru guru 0.0526316
nglakoni melakukan 0.4166667
kulit kulit 0.6666667
ajeg rutin 1.0000000
ajeg tetap 0.1666667
dharik berbaris 1.0000000
kira-kira sekitar 0.4285714
jinis jenis 0.9583333
jinis tumbuhan 0.3333333
diripta ditulis 0.1111111
diripta diciptakan 0.5000000
nglestarekake melestarikan 0.0769231
gitaris gitaris 1.0000000
greged sungguh-sungguh 1.0000000
greged semangat 0.5000000
greged baik 0.0588235
yawiji menyatu 0.5000000
nagara manca 1.0000000
nagara Negara 0.2500000
nagara negara 0.2857143
obat-obatan obat-obatan 1.0000000
ngiringi mengiringi 1.0000000
ngiringi mengiringinya 1.0000000
ngisor bawah 1.0000000
kerupuke kerupuknya 1.0000000
dinduweni dimiliki 0.3333333
gegrumbulan hutan 0.2500000
Damai Perdamaian 1.0000000
ngendi-ngendi saja 0.0357143
ngendi-ngendi berasal 0.1666667
ngendi-ngendi kemana-mana 0.7500000
ngendi-ngendi mana 0.2000000
Ga Ga 1.0000000
karo terkait 0.2000000
karo dibenci 0.5000000
karo mematuhi 0.2500000
karo bersama 0.6315789
karo ditunggu-tunggu 0.5000000
karo Safitri 0.2500000
karo bersamaWiwid 0.5000000
karo NULL 0.0172414
karo Arin 0.5000000
karo dengan 0.3888889
karo denga 1.0000000
berfungsi berfungsi 1.0000000
TPA TPA 1.0000000
kerajaan kerajaan 1.0000000
awan awan 1.0000000
awan siang 0.5000000
nepangake memperkenalkan 0.2000000
kerep kerap 1.0000000
kerep akan 0.0833333
kerep sering 0.7666667
Grup Grup 0.5000000
Sastra Sastra 1.0000000
Sastra sastra 0.2000000
cetha nyata 1.0000000
cetha jelas 0.3750000
saengga sehingga 0.3636364
saengga Akibatnya 1.0000000
Penolakan Penolakan 1.0000000
Sekretaris Sekretaris 1.0000000
Jepang Jepang 1.0000000
laminasi laminasi 1.0000000
kaskaya kesadaran 1.0000000
mandeg berhenti 0.2500000
mandeg henti 1.0000000
makna makna 0.2500000
gegremetan hewan 0.2222222
mbayar membayar 1.0000000
Berseri Berseri 1.0000000
dibenerake dibenarkan 1.0000000
kena boleh 0.3333333
kena sakit 0.2500000
grothal-grathul belum 0.1111111
grothal-grathul lancar 1.0000000
Imam imam 1.0000000
Imam Imam 1.0000000
wayang Wayang 0.5000000
wayang wayang 1.0000000
kecap kecap 1.0000000
pilehan pilihan 0.3333333
nyengkuyung membantu 0.2500000
nyengkuyung pendiri 1.0000000
nyengkuyung memimpin 0.3333333
nyengkuyung berpartisipasi 1.0000000
nyengkuyung mendukung 0.3333333
nggoleki mencari 0.5000000
nglayani melayani 1.0000000
mbelani membela 0.5000000
sambi sembari 1.0000000
sambi sambil 0.5714286
sakpenake seenaknya 0.5000000
gurune gurunya 1.0000000
wewatakan karakter 0.3333333
ngurangi mengurangi 0.3333333
pengalamane pengalamannya 1.0000000
suket rumput 1.0000000
kalane masanya 1.0000000
akustik akustik 1.0000000
betah senang 0.0303030
musike musiknya 1.0000000
Tradisi Tradisional 0.5000000
Tradisi Tradisi 1.0000000
dipanaske dipanaskan 1.0000000
duwur tinggi 0.1111111
nikah pernikahan 0.3333333
masalah masalah 1.0000000
nerbitake mengeluarkan 0.5000000
diudhar diserap 0.5000000
ngadeg berdiri 0.6666667
ras ras 1.0000000
mrejit ditulis 0.1111111
puskesmas puskesmas 1.0000000
pisah berpisah 1.0000000
pinggir pinggiran 1.0000000
wigatine pentingnya 0.5000000
tlatah wilayah 0.3333333
kaperang terbagi 1.0000000
Etnomusikologi Etnomusikologi 1.0000000
Aku Saya 1.0000000
Aku saya 0.0666667
disengkuyung dibantu 0.2500000
disengkuyung didukung 0.3333333
disengkuyung saling 0.3333333
disengkuyung dilakukan 0.1000000
dipercaya dipercaya 0.3333333
The The 1.0000000
budaya budaya 0.6551724
budaya bahasa 0.0416667
budaya Budaya 0.1250000
karepe keinginan 0.4000000
rengginang rengginang 1.0000000
ngandhelake mengandalkan 0.2500000
kadang kadang 0.5000000
kadang kerabat 0.5000000
kadang petani 0.5000000
kadang anak 0.0188679
bawang bawang 0.4000000
katone terlihat 0.1428571
Bumiraja Penjajah 1.0000000
Sutradara direktur 1.0000000
Sutradara sutradara 0.5000000
Nita Nita 1.0000000
Radio Radio 1.0000000
Kinanthi Kinanthi 1.0000000
resik-resik bersih-bersih 0.6666667
resik-resik adalah 0.0217391
landhesan alas 1.0000000
Maret Maret 1.0000000
Maret Eleven 1.0000000
Maret maret 0.6666667
Undang-Undang Undang-Undang 1.0000000
tekanan tekanan 1.0000000
FKIP March 1.0000000
FKIP FKIP 1.0000000
Wisma Wisma 1.0000000
Wisma Pendapa 0.5000000
rereget kotoran 1.0000000
Tuladhane contohnya 0.1111111
Tuladhane contoh 0.3333333
istana Luar 0.5000000
istana istana 0.3333333
mokal mungkin 0.5000000
mokal tidak 0.0140845
sumrambyah berkembang 0.2000000
cerdas pintar 0.2500000
cerdas cerdas 0.5000000
ndhalang mendalang 1.0000000
ndhalang dalang 0.0333333
bengi malam 0.1818182
sawong seseorang 0.3333333
sawong oleh 0.0200000
siang siang 0.5000000
nyebul meniup 1.0000000
Ganis Ganis 1.0000000
Umbul Umbul 1.0000000
kelangan kehilangan 0.6666667
Obat Obat 1.0000000
&apos; &apos; 1.0000000
dileske diajarkan 0.0909091
Sejahtera Sejahtera 1.0000000
Jayapura Jayapura 1.0000000
enamel email 1.0000000
ngandelake mengandalkan 0.2500000
30mm 30mm 1.0000000
pakurmatan penghargaan 0.6666667
COVID-19 19 0.0555556
COVID-19 covid 0.0625000
Chenthini Chenthini 1.0000000
kalangan kalangan 0.3333333
bareng bareng 1.0000000
bareng dengan 0.0092593
bareng sebentar 0.5000000
bareng bersama 0.1578947
harmonis harmonis 1.0000000
Suradi Suradi 1.0000000
kewan hewan 0.7777778
B2 B2 1.0000000
Paris paris 1.0000000
2944 2944 1.0000000
dumadakan tiba-tiba 0.6666667
akeh-akehe besar 0.0625000
akeh-akehe kebanyakan 0.2500000
akeh-akehe sebagian 0.5000000
cacahe jumlahnya 0.6666667
cacahe jumlah 0.2000000
cacahe julahnya 1.0000000
pelem ada 0.0076336
pelem mangga 0.5000000
dimangerteni diketahui 1.0000000
diselehake ditempatkan 1.0000000
upacara upacara 0.4285714
saknjabane Luar 0.5000000
saknjabane di 0.0032895
saknjabane luar 0.1250000
Hutama Hutama 1.0000000
tulis tulis 1.0000000
Arif Arif 1.0000000
Tio lakukan 1.0000000
Tio Tio 0.5000000
diselaki dihindari 1.0000000
sekolah sekolah 0.6363636
Kapuas Kapuas 1.0000000
ST ST 1.0000000
pacul pacul 1.0000000
ningkatake meningkatkan 0.7500000
punah punah 0.8333333
pakulinane kebiasaan 1.0000000
kelingan teringat 1.0000000
ditembangke dilagukan 0.5000000
limbukan awal 0.3333333
tuwuh tumbuh 1.0000000
Macapat Macapat 1.0000000
kuliahe kuliah 0.2000000
ngilangna menghilangkan 0.6666667
tumindak Bertindaklah 1.0000000
tumindak melakukan 0.0833333
tumindak bertingkah 1.0000000
tumindak perbuatan 1.0000000
tumindak bertindak 1.0000000
ombenan minuman 0.5000000
Ayah Ayah 0.2500000
urun menyokong 1.0000000
urun ikut 0.0769231
gong gong 1.0000000
tanggung bertanggung 1.0000000
Irawan Irawan 1.0000000
ngedekake membesarkan 1.0000000
diwiwiti dimulai 1.0000000
sawise setelah 0.0769231
pelaksanaan pelaksanaan 1.0000000
saut ambil 1.0000000
Asap Asap 1.0000000
sapanggon setempat 1.0000000
luhur leluhur 0.4000000
nabi nabi 1.0000000
nabi seorang 0.2500000
dijak diminta 1.0000000
dijak diajak 0.2500000
matur bersyukur 0.3333333
matur terima 0.5000000
oval oval 0.2500000
oval berbentuk 0.2500000
tepa bersikap 0.5000000
tepa menjaga 0.0555556
endhog telur 1.0000000
Syifa Syifa 1.0000000
kasile hasilnya 0.5000000
Trans Trans 1.0000000
Kongres Kongres 1.0000000
rasa sifat 0.0833333
rasa rasa 0.7857143
rasa perasaan 0.3333333
Ngayogyakarta Yogyakarta 0.5000000
pisan pertama 0.3333333
pisan sekali 0.1111111
Surakartan Surakartan 1.0000000
Surakartan Surakarta 0.5000000
mudha muda 0.1707317
mudha pemuda 0.2000000
nggawene membuatnya 0.6666667
nggawene merasa 0.1000000
kebon taman 0.5000000
kebon kebun 0.3333333
gereh ikan 0.5000000
gereh tahu 0.0909091
kuliah ini 0.0158730
kuliah belajar 0.0151515
kuliah kuliah 0.6000000
maknane artinya 0.5000000
PT PT 1.0000000
Dora Dora 1.0000000
disowani ditemui 0.1666667
Dekne semua 0.0256410
kapan kapan 1.0000000
legal legal 1.0000000
gerak gerakan 0.3333333
Kucingku ku 1.0000000
Kucingku kucing 0.2000000
flu flu 1.0000000
Dino Dino 1.0000000
adiluhung yang 0.0020000
adiluhung berkualitas 1.0000000
dijenengke dinamakan 0.5000000
Destionanta Destionanta 1.0000000
gunane gunanya 0.5000000
sasmita khas 0.2500000
sasmita ciri 0.5000000
geguritan jawa 0.1000000
geguritan geguritan 1.0000000
dikaremi disukai 0.1428571
bingung kebingungan 1.0000000
bingung bingung 0.5000000
BTS BTS 1.0000000
2.3 2,3 0.5000000
keceritane ceritanya 0.5000000
Nun Nun 1.0000000
mbukak terbuka 1.0000000
mbukak membuka 0.2500000
RRI RRI 0.8750000
jajah keliling 0.5000000
asat kering 0.6666667
tradhisi tradisional 0.6176471
tradhisi tradisi 0.9166667
kontroversi kontroversi 1.0000000
kemajuan kemajuan 0.5000000
panilik pengunjung 0.3333333
ngethok memotong 0.5000000
gedhe banyak 0.0109890
gedhe kencang 0.5000000
gedhe NULL 0.0172414
gedhe terbesar 0.3333333
gedhe yang 0.0020000
gedhe bagus 0.1250000
gedhe besar 0.6250000
gedhe jumlahnya 0.1111111
kantor kantor 1.0000000
Koleksi Koleksi 0.5000000
ngugemi mempelajari 0.0625000
ngugemi menghargai 0.3333333
ngugemi mengagumi 1.0000000
pakeliran pertunjukan 0.1250000
pakeliran pementasan 0.3333333
pakeliran pagelaran 1.0000000
timbul muncul 0.5000000
Mula karena 0.0144928
Mula Oleh 1.0000000
ondhe-ondhe onde-onde 1.0000000
perusahaan perusahaan 1.0000000
beksan tarian 0.0952381
beksan beksan 1.0000000
mbalung menjadi 0.0169492
sadhengah segala 0.5000000
kapilih terpilih 0.5000000
Sasak Sasak 1.0000000
Sakwalike Sebaliknya 0.5000000
putih putih 1.0000000
asor hati 0.4000000
atmosfir atmosfir 1.0000000
mubarang dari 0.0106383
mubarang berasal 0.1666667
ditakoni ditanya 1.0000000
oleh boleh 0.3333333
oleh oleh 0.0200000
oleh diperagakan 0.5000000
resolusi resolusi 1.0000000
undang-undang undang-undang 1.0000000
juara juara 1.0000000
dan dan 0.0285714
Rajin rajin 0.5000000
VII VII 1.0000000
wakil perwakilan 1.0000000
Filipina Filipina 1.0000000
Bangsa Bangsa 1.0000000
1990-an 1990-an 0.6666667
1990-an , 0.0012563
Musik Musik 1.0000000
lingkungan lingkungan 0.8000000
candi candi 0.6666667
gandhengane terkait 0.2000000
Madya Madya 1.0000000
kesandung tersandung 0.2000000
kesandung dengan 0.0092593
tembang-tembang lagu-lagu 0.6000000
api petasan 0.5555556
api api 0.3333333
wates batas 1.0000000
dilestarekake dilestarikan 0.3333333
werna warna 0.5000000
werna macam 0.1428571
mutihake memutihkan 1.0000000
Dini Dini 1.0000000
Pacinan orang 0.0117647
ngregani menghargai 0.3333333
cemilan cemilan 1.0000000
ngeluh mengeluh 0.7500000
daerah daerah 0.0909091
2007 2007 1.0000000
pamudhunan penurunan 1.0000000
rinakit pengantar 1.0000000
tanja handal 1.0000000
dicekel dipegang 0.5000000
Ing Di 1.0000000
Hijab Jilbab 1.0000000
Terbaik Terbaik 1.0000000
mati mati 0.7500000
panularan penularan 1.0000000
banjur kemudian 0.9565217
banjur lalu 0.5151515
banjur Seiring 1.0000000
banjur selanjutnya 0.3333333
banjur sehingga 0.0909091
kesandhung sedang 0.0357143
kesandhung tersandung 0.6000000
kaya sejahat 1.0000000
kaya gayanya 0.5000000
kaya seperti 0.3943662
kaya Berikut 0.3333333
getun menyesal 0.5000000
raket terkait 0.2000000
nyawiji bersatu 1.0000000
nyawiji menyatu 0.5000000
nyawiji bercampur 0.3333333
nyawiji disatukan 1.0000000
nerangake menjelaskan 0.1250000
kasus kasus 1.0000000
mbrebes air 0.0769231
mbrebes berlinang 1.0000000
pasartane pesertanya 0.5000000
lah bahagia 0.2000000
disimpen disimpan 0.6666667
diiringi diiringan 1.0000000
mandek berhenti 0.5000000
ketemu mereka 0.1428571
ketemu bertemu 0.5000000
dienteni oleh 0.0200000
dienteni ditunggu 0.5000000
Hikmah Hikmah 1.0000000
anggone tempat 0.0909091
anggone dalam 0.2173913
anggone berpengalaman 0.5000000
anggone untuk 0.0095238
anggone di 0.0032895
anggone ia 0.1428571
anggone tentang 0.0185185
anggone sejak 0.0400000
srengenge sinar 0.5000000
srengenge oleh 0.0200000
ngasorake menjelekkan 1.0000000
atas atas 0.1666667
menit menit 1.0000000
ageman pakaian 1.0000000
Rudy Rudy 1.0000000
ngrusak merusak 1.0000000
Zaza Zaza 1.0000000
Krentek Niat 1.0000000
rasan-rasan bergunjing 1.0000000
Cakra Cakra 1.0000000
Jl Jl 1.0000000
Mangkunegoro Mangkunegoro 0.5000000
2012 2012 0.6666667
panti panti 1.0000000
lintas lintas 1.0000000
Dongeng Dongeng 1.0000000
Malaysia Malaysia 1.0000000
mimpine impiannnya 1.0000000
2020 2020 1.0000000
