buah buah 1.0000000
raksasa buta 0.6666667
Raksasa buta 0.3333333
kepedasan kepedesen 1.0000000
nya apik 0.0555556
bagus apik 0.3888889
baik apik 0.5000000
indah apik 0.0555556
selama saksuwene 0.5000000
lamanya saksuwene 0.5000000
olahraga olahraga 1.0000000
Mangkunegaran Mangkunegaran 1.0000000
kembali bali 1.0000000
Institut Sraddha 0.1666667
Sraddha Sraddha 0.8333333
dibuat agawe 0.3333333
membuat agawe 0.6666667
kotor reged 1.0000000
tukang Pandheyan 0.5000000
besi Pandheyan 0.5000000
cundrik cundrik 1.0000000
Astri Astri 1.0000000
Ka Ka 1.0000000
2 2 1.0000000
Bambang Bambang 0.8000000
bambang Bambang 0.2000000
provinsi provinsi 1.0000000
Soedharsono Soedharsono 1.0000000
visi visi 1.0000000
merubah owah 1.0000000
sore sore 1.0000000
becandaan gayeng-gayengan 1.0000000
bahasa Basa 0.0454545
Belanda Basa 0.0454545
Bahasa Basa 0.9090909
menempel kari 0.5000000
tertinggal kari 0.5000000
penghargaan penghargaan 1.0000000
ke omahe 0.4000000
rumahnya omahe 0.4000000
rumah omahe 0.2000000
capsaicinoid capsaicinoid 1.0000000
pilek pilek 1.0000000
sebenarnya sabenere 1.0000000
Konghucu Konghucu 0.7500000
dari Konghucu 0.2500000
Goni Goni 1.0000000
Kabarnya Kabare 1.0000000
wadah wadhah 1.0000000
dibayangkan dibayangke 1.0000000
400-an 400-an 1.0000000
mewah mewah 1.0000000
menggambar nggambar 1.0000000
Atika Atika 1.0000000
Pertujukannya pentase 0.5000000
pentasnya pentase 0.5000000
Bersedekah Sedekah 1.0000000
Kejambon Kejambon 1.0000000
Ja Ja 1.0000000
Tengah Tengah 1.0000000
darah getih 1.0000000
ujian ujian 1.0000000
orang akehe 0.3333333
banyaknya akehe 0.6666667
cabai cabe 1.0000000
Km Km 1.0000000
menutupi nutupi 1.0000000
mitos mitos 1.0000000
ke kaping-36 0.5000000
36 kaping-36 0.5000000
untuk iringan 0.5000000
beriringan iringan 0.5000000
balik walik 1.0000000
pendemo demo 1.0000000
ketentraman tentrem 0.3333333
tentram tentrem 0.3333333
dhewe tentrem 0.3333333
semua omonange 0.5000000
omongannya omonange 0.5000000
api geni 0.6666667
dihasilkan geni 0.3333333
warga warga 0.8461538
penduduknya warga 0.0769231
masyarakat warga 0.0769231
muslim muslim 1.0000000
candi candhi 0.5000000
Candhi candhi 0.5000000
mengasah mupuk 1.0000000
sorotan sorotan 1.0000000
Purwa purwa 1.0000000
aula sesrawungan 1.0000000
Julius Julius 1.0000000
diikuti wuri 1.0000000
bersaing bersaing 1.0000000
salur-salur sulur-sulur 1.0000000
Akuntansi Akuntansi 1.0000000
TV TV 1.0000000
hufuf aksara 0.0294118
NULL aksara 0.0294118
aksarakan aksara 0.0294118
aksara aksara 0.1764706
hafalan aksara 0.0294118
huruf aksara 0.7058824
hawa hawa 0.5000000
udara hawa 0.5000000
artikel artikel 1.0000000
Jawa Jawi 1.0000000
bilang ujar 0.4000000
mengatakan ujar 0.6000000
kewajiban kwajiban 1.0000000
selesai sabubare 0.2500000
setelah sabubare 0.7500000
Dha Dha 1.0000000
minuman minuman 1.0000000
rendah cendhek 1.0000000
Pulau pulo 1.0000000
bangsawan menak 1.0000000
fisik okol 1.0000000
Cina Tiongkok 1.0000000
peduli preduli 0.5000000
perduli preduli 0.5000000
lincah trengginas 1.0000000
berbagi maneka 0.0666667
berbagai maneka 0.8000000
beraneka maneka 0.1333333
keterampilan keprigelan 1.0000000
Pertama-tama Pisan-tama 1.0000000
kelasnya kelas 0.0909091
kelas kelas 0.9090909
banjir banjir 1.0000000
Gambyong Gambyong 1.0000000
leluhur leluhur 1.0000000
Muhammad Muhammad 1.0000000
kita kita 0.7500000
dhewe kita 0.2500000
antara antara 1.0000000
sehat sehat 1.0000000
padepokan padhepokan 1.0000000
aslinya asline 0.6000000
asalnya asline 0.2000000
sebenarnya asline 0.2000000
suara swara 1.0000000
Tha Tha 1.0000000
deras deres 1.0000000
apalagi Apameneh 1.0000000
gitar Gitar 1.0000000
masyarakat masyarakat 1.0000000
perintah jalaran 0.1000000
karena jalaran 0.9000000
isi isine 0.1000000
isinyha isine 0.1000000
isinya isine 0.6000000
bahasa isine 0.1000000
berisi isine 0.1000000
hubungannya gegayutane 1.0000000
delapan wolu 1.0000000
mewujudkan mujudke 1.0000000
Pindhah Pindhah 1.0000000
ampyang ampyang 1.0000000
mimisan mimisan 1.0000000
Sutardjo Sutardjo 1.0000000
rasanya rumangsane 1.0000000
koplo koplo 1.0000000
Jawa kejawen 0.5714286
kejawen kejawen 0.1428571
adat kejawen 0.1428571
jawa kejawen 0.1428571
antar terna 1.0000000
mendaftar padha 0.0500000
mereka padha 0.0500000
saling padha 0.0500000
pada padha 0.2500000
sesuai padha 0.0500000
menyalakan padha 0.0500000
sama padha 0.4000000
orang padha 0.0500000
semuanya padha 0.0500000
protokol protokol 1.0000000
disukai dhemeni 1.0000000
Pendidikan Pendidikan 1.0000000
menerapkan ngetrepake 1.0000000
sendiri-sendiri dhewe-dhewe 0.2000000
masing-masing dhewe-dhewe 0.8000000
digunakan dienggo 1.0000000
telah malahan 0.1428571
bahkan malahan 0.8571429
antaranya antarane 0.7500000
Diantaranya antarane 0.2500000
semester semester 1.0000000
melakukannya nindakaken 1.0000000
jawab jawab 1.0000000
mendukung ndhukung 1.0000000
Mulan Mulan 1.0000000
digambarkan digambarake 1.0000000
sumbernya sumbere 1.0000000
saling Saling 1.0000000
manusia manungsa 1.0000000
matinya patine 0.5000000
Punahnya patine 0.5000000
berkomentar nyelaki 1.0000000
berupa arupa 1.0000000
pembelajaran mulange 1.0000000
Padahal sanadyan 0.0625000
walaupun sanadyan 0.0625000
begitu sanadyan 0.0625000
walau sanadyan 0.1250000
meskipun sanadyan 0.6875000
Tambanglaras Tambanglaras 1.0000000
alat gaman 1.0000000
sayur sayuran 0.5000000
Sayuran sayuran 0.5000000
pembawa Pembawa 1.0000000
saja apa 0.0333333
atau apa 0.0333333
apalagi apa 0.1333333
apa apa 0.8000000
ditempuh ditrapake 1.0000000
perubahan pengowahan 1.0000000
Yania Yania 1.0000000
kemanusiaan kamanungsan 1.0000000
penemuanku panemuku 1.0000000
Istana Istana 1.0000000
rumah mbah 0.3333333
Kakek mbah 0.3333333
kakak mbah 0.3333333
gosong geseng 1.0000000
disebutkan kaserat 1.0000000
Kajiannya Kajianne 1.0000000
Silent Silent 1.0000000
kampung kasebut 0.0243902
disebut kasebut 0.0731707
disebutkan kasebut 0.0243902
upacara kasebut 0.0243902
tersebut kasebut 0.6829268
itu kasebut 0.1707317
Manteb Manteb 1.0000000
besok sesuk 1.0000000
luar adi 1.0000000
nasi sego 1.0000000
kecil cilik 1.0000000
gurun gurun 1.0000000
memiliki nduwe 1.0000000
ternyata jebule 1.0000000
dosen dhosen 1.0000000
bercanda guyon 1.0000000
saksi seksi 1.0000000
anak cah 1.0000000
bilangan cacah 0.2000000
jumlah cacah 0.4000000
jumlahnya cacah 0.2000000
berjumlah cacah 0.2000000
budaya cultural 1.0000000
dihina diremehake 1.0000000
tradisional tradisi 0.6666667
tradisi tradisi 0.3333333
kondisi kedelok 0.5000000
terlihat kedelok 0.5000000
Wahyu Wahyu 1.0000000
kain kain 1.0000000
selama sajrone 0.2000000
di sajrone 0.2000000
dalam sajrone 0.6000000
bagaimana piye 1.0000000
khusus khusus 1.0000000
kampung-kampung kampung-kampung 1.0000000
tantangan prenahe 1.0000000
barus barus 1.0000000
Banyuwangi Banyuwangi 1.0000000
rebus godhog 1.0000000
biasa luhung 1.0000000
Apidae Apidae 1.0000000
efek efek 1.0000000
lambungnya wetenge 1.0000000
merambah saiki 0.0188679
sekarang saiki 0.6603774
ini saiki 0.2075472
saat saiki 0.1132075
1975 1975 1.0000000
pejuang pejuwang 1.0000000
darat dharat 1.0000000
nenek putri 1.0000000
Semarang Semarang 1.0000000
Prihadi Prihadi 1.0000000
melatih nglatih 1.0000000
sakral sakral 1.0000000
Dhandhanggula Dhandhanggula 1.0000000
setengah separo 1.0000000
Bandung Bandung 1.0000000
pengingat pawitan 1.0000000
pedesaan pandesan 1.0000000
menggigit nyokot 1.0000000
digitalisasi digitalisasi 0.5000000
didigitalkan digitalisasi 0.2500000
mendigitalkan digitalisasi 0.2500000
legenda legenda 1.0000000
akal akal 1.0000000
hp hp 1.0000000
pagi enjang 1.0000000
halus alusan 1.0000000
pikir pikir 1.0000000
kandungan kandungan 1.0000000
karawitan karawitan 0.8571429
dan karawitan 0.1428571
melihatnya akeh 0.0112360
banyaknya akeh 0.0112360
banyak akeh 0.9662921
penggemar akeh 0.0112360
berlibur plancongan 1.0000000
Kedua kepindo 1.0000000
nenek kakung 1.0000000
merajut nyulam 1.0000000
sopan sopan 1.0000000
didukung kasengkuyung 0.6666667
dibantu kasengkuyung 0.3333333
asuhan asuhan 1.0000000
ditulis diandharake 1.0000000
semoga muga-muga 1.0000000
Barat Kulon 0.5000000
barat Kulon 0.2500000
. Kulon 0.2500000
sakit sakit 1.0000000
desa ndesa 1.0000000
sebagainya sapiturute 1.0000000
bahasa basane 0.3333333
bahasanya basane 0.6666667
tetesan tetesan 1.0000000
di di-scan 0.5000000
scan di-scan 0.5000000
tingkat tingkat 1.0000000
kancah ajang 1.0000000
tanpa tanpa 1.0000000
banyak Slamet 0.2000000
Riyadi Slamet 0.2000000
Jalan Slamet 0.2000000
Slamet Slamet 0.4000000
pegangan cekelan 1.0000000
radio radio 1.0000000
kotak kothakan 1.0000000
melantur nglantur 1.0000000
tiga telung 1.0000000
rock rock 1.0000000
Kabupaten Kecamatan 0.5000000
Kecamatan Kecamatan 0.5000000
Ainun Ainun 1.0000000
maknanya tegese 0.2000000
artinya tegese 0.2000000
berarti tegese 0.4000000
makna tegese 0.2000000
peraturan peraturan 1.0000000
sebuah sebutir 1.0000000
menarik kawigaten 0.5000000
perhatian kawigaten 0.5000000
sombong gumedhe 1.0000000
minum Ombe 1.0000000
sirna sirna 1.0000000
olah olah 1.0000000
cita-cita cita-cita 1.0000000
membawa mawa 0.4000000
membaca mawa 0.1000000
dengan mawa 0.2000000
melalui mawa 0.3000000
pariwisata pariwisata 1.0000000
sendok sendhok 1.0000000
Anita Anita 1.0000000
Aji Aji 1.0000000
berkunjung tilik 1.0000000
teh teh 1.0000000
Jayaatmaja Jayaatmaja 1.0000000
Scooter Skuter 1.0000000
agar supayasaya 0.5000000
semakin supayasaya 0.5000000
membuang guwang 1.0000000
dalam sakjroning 1.0000000
membayangkan mbayangke 1.0000000
akan mbakal 1.0000000
pengarang juru 1.0000000
menghafalkan ngapalke 1.0000000
Arin Arin 1.0000000
pedas pedhes 1.0000000
televisi televisi 1.0000000
Hoax hoax 1.0000000
lagunya lagune 1.0000000
perhitungan itungan 1.0000000
disuruh dikon 0.6666667
disuh dikon 0.3333333
Baru krasa 0.5000000
merasa krasa 0.5000000
Fave Fave 1.0000000
seharusnya sakudune 1.0000000
bergoyang jejogetan 1.0000000
jalan trabasan 0.5000000
pintasnya trabasan 0.5000000
penyebabnya sabab 1.0000000
menyebut ngarani 1.0000000
puluhan puluhan 1.0000000
dirusak dirusakne 1.0000000
mengeluh yen 0.0156250
saat yen 0.0156250
ruang yen 0.0156250
Vino yen 0.0156250
bahwa yen 0.0781250
jika yen 0.4843750
bagi yen 0.0156250
kalau yen 0.2343750
sedangkan yen 0.0156250
ketika yen 0.0781250
apabila yen 0.0312500
tiket tiket 1.0000000
digunakan digunakake 0.7777778
dimanfaatkan digunakake 0.2222222
1985 1985 1.0000000
hidup urip 1.0000000
menyirami nyirami 1.0000000
Sariawan sariawan 1.0000000
Cindy Cindy 1.0000000
menciptakan ngripta 0.7500000
menulis ngripta 0.2500000
fajar Fajar 1.0000000
Islam Negeri 0.5000000
Negri Negeri 0.5000000
pendirian tengere 1.0000000
komunitas komunitas 1.0000000
tidak rakaruan 0.5000000
beraturan rakaruan 0.5000000
Gubernur Gubernur 1.0000000
terlalu pati 1.0000000
metode metode 1.0000000
melestarikan sumrambyahe 1.0000000
ekonomi ekonomi 1.0000000
23 23 1.0000000
E E 1.0000000
kucing kucing 1.0000000
itu kae 1.0000000
disiapkan disiyapake 1.0000000
kata jarene 1.0000000
terkenal kondhang 0.5000000
lebih kondhang 0.5000000
mengairi ngoncori 1.0000000
menyukai marang 0.0163934
untuk marang 0.0163934
pada marang 0.0491803
terhdap marang 0.0163934
terhadap marang 0.0491803
dalam marang 0.0163934
dengan marang 0.1311475
kepada marang 0.7049180
halus lirih 0.3333333
sangat lirih 0.3333333
terdengar lirih 0.3333333
tertandingi madhani 1.0000000
Boreh Boreh 1.0000000
Jawanya Jawane 1.0000000
penggemarnya penggemare 1.0000000
hartanya bandhane 1.0000000
Abdul Abdul 1.0000000
berantakan bubrah 1.0000000
satunya sijining 1.0000000
kamu kowe 0.6000000
untukmu kowe 0.2000000
sepedamu kowe 0.2000000
Terlalu Saking 0.3333333
karena Saking 0.3333333
sangat Saking 0.3333333
Dodik Dodik 1.0000000
Prangwedan Prangwedan 1.0000000
mau pengin 0.0833333
ingin pengin 0.9166667
, NULL 0.4347826
mereka NULL 0.0217391
bagian NULL 0.0217391
dari NULL 0.0217391
baru NULL 0.0217391
telah NULL 0.0217391
tidak NULL 0.0217391
Bahasa NULL 0.0217391
para NULL 0.0217391
berasal NULL 0.0217391
sendiri NULL 0.0217391
yang NULL 0.1521739
itu NULL 0.0652174
untuk NULL 0.0217391
sebagai NULL 0.0434783
Diqin NULL 0.0217391
ada NULL 0.0217391
musik NULL 0.0217391
Prancis Perancis 1.0000000
lambang pralambang 1.0000000
penerapan ngetrapake 1.0000000
DKS DKS 1.0000000
turunan turunan 1.0000000
masyarakatnya masarakate 1.0000000
Nikita Nikita 1.0000000
asma asma 1.0000000
La La 1.0000000
berbincang sapatemon 1.0000000
jalan Jalan 1.0000000
Youtube Youtube 1.0000000
kecuali kajaba 1.0000000
menduduki nglenggahi 1.0000000
ucapan panemune 1.0000000
membutuhkan butuh 0.5000000
butuh butuh 0.5000000
Mengajarkan Ngajarake 1.0000000
foto foto 1.0000000
ini ki 0.3333333
itu ki 0.3333333
Ki ki 0.3333333
orang sekitar 0.2500000
dengan sekitar 0.2500000
sekitar sekitar 0.5000000
les les 1.0000000
agustus Agustus 0.2500000
Agustus Agustus 0.7500000
TK TK 1.0000000
anggota anggitane 0.5000000
karangan anggitane 0.5000000
1700-an 1700-an 1.0000000
lepas udhar 1.0000000
belum dhurung 1.0000000
cerita crita 0.6000000
menceritakan crita 0.2000000
bercerita crita 0.2000000
digital digital 1.0000000
Dewi Dewi 1.0000000
karet karet 1.0000000
makan nedha 1.0000000
dibelanjakan diblanjakake 1.0000000
siaran siaran 1.0000000
digunakan nggunakake 0.1428571
menggunakan nggunakake 0.5714286
memakai nggunakake 0.1428571
gunakan nggunakake 0.1428571
ditulis ditulis 1.0000000
keberadaanya anane 0.2000000
adanya anane 0.8000000
memudar luntur 1.0000000
online online 1.0000000
kata-kata omongane 1.0000000
kelompoknya kelompoke 1.0000000
bekas turah 0.3333333
sisa turah 0.3333333
menyapu turah 0.3333333
tulisan tulisan 0.8571429
solopos tulisan 0.1428571
pintu lawang 1.0000000
Polisi Polisi 1.0000000
membangun mangun 1.0000000
klinik klinik 1.0000000
motor motor 1.0000000
Kelinci Kelinci 1.0000000
: : 1.0000000
acara pambiwara 0.5000000
pembawa pambiwara 0.5000000
semak-semak semak-semak 1.0000000
hukum hukum 1.0000000
sampai kanti 1.0000000
kemerdekaan kamardikan 1.0000000
Malin Malin 1.0000000
sebelum Sadurung 1.0000000
jumat Jumuah 1.0000000
punyamu duwekmu 1.0000000
satu siji 1.0000000
apa apa-apa 0.2500000
apapun apa-apa 0.2500000
apa-apa apa-apa 0.2500000
saja apa-apa 0.2500000
alami alamiah 1.0000000
memperkuat ngrembakake 0.3333333
mengembangkan ngrembakake 0.3333333
Mempromosikan ngrembakake 0.3333333
Sunan Sunan 1.0000000
terkenal kawentar 0.6666667
dikenal kawentar 0.1666667
populer kawentar 0.1666667
sejak Ket 0.5000000
saat Ket 0.5000000
band black 0.5000000
black black 0.5000000
Tarsa Tarsa 1.0000000
gugur gugur 1.0000000
3WMP 3WMP 1.0000000
Ibrahim Ibrahim 1.0000000
Rahmat Rahmat 1.0000000
depannya mbesuke 1.0000000
tentram ayem 0.2500000
tenang ayem 0.5000000
damai ayem 0.2500000
Pranowo Pranowo 1.0000000
% % 1.0000000
Jebres Jebres 1.0000000
ditentukan ditemtokake 1.0000000
Idul Idul 1.0000000
tetangga tanggaku 0.5000000
saya tanggaku 0.5000000
kemanusiaan wiwit 0.0238095
sedari wiwit 0.0238095
kalangan wiwit 0.0238095
dari wiwit 0.0952381
semenjak wiwit 0.0952381
sejak wiwit 0.3571429
setelah wiwit 0.0238095
Riyadi wiwit 0.0238095
mulai wiwit 0.3333333
ide ide 1.0000000
dari saka 0.7685185
karena saka 0.0092593
sejak saka 0.0092593
oleh saka 0.0277778
RRI saka 0.0092593
asal saka 0.0370370
suka saka 0.0092593
yang saka 0.0092593
dar saka 0.0092593
pada saka 0.0092593
matahari saka 0.0092593
kejadian saka 0.0092593
NULL saka 0.0185185
saat saka 0.0555556
Lulusan saka 0.0092593
merambah sumrambah 0.5000000
dikenal sumrambah 0.5000000
bersebrangan nrajang 1.0000000
terlebih dhisik 0.5714286
dahulu dhisik 0.4285714
tanda pratandha 1.0000000
adalah karan 0.5000000
dikenal karan 0.5000000
berhenti buyar 1.0000000
Masjid Masjid 1.0000000
disiapkan disiapake 1.0000000
pertunjukan pagelaran 0.7500000
pementasan pagelaran 0.2500000
pemuda enom 0.2000000
muda enom 0.8000000
konsep konsep 1.0000000
Desi Desi 1.0000000
ajaran wewulang 1.0000000
sesepuh sesepuh 1.0000000
lain-lainnya sakliya-liyane 1.0000000
Borobudur Borobudur 1.0000000
jaringan jaringan 1.0000000
sampai kana 0.0909091
manuskrip kana 0.0909091
disana kana 0.5454545
sana kana 0.1818182
itu kana 0.0909091
beberapa pira-pira 1.0000000
cair cairan 1.0000000
menghidupkan nguripi 1.0000000
mempelajari kababar 1.0000000
keluhuran keluhuran 1.0000000
ada lagi 0.0416667
menderita lagi 0.0416667
baru lagi 0.0416667
berlibur lagi 0.0416667
sedang lagi 0.8333333
pilot pilot 1.0000000
2011 2011 1.0000000
dikuatkan dikuwatake 1.0000000
Australia Australia 1.0000000
bersih-bersih reresik 1.0000000
mandiri mandiri 1.0000000
bangsal Bangsal 1.0000000
diajarkan diwulangake 1.0000000
upaya upaya 1.0000000
daun Godhong 1.0000000
dentin dentin 1.0000000
yang cukup 0.2500000
cukup cukup 0.7500000
700-an 700-an 1.0000000
nama jeneng 1.0000000
di tani 0.5000000
desa tani 0.5000000
yang kang 1.0000000
Menak Menak 1.0000000
kamarku kamarku 1.0000000
melestarikan nguri-uri 0.8181818
menjaga nguri-uri 0.1818182
pemeran paragane 0.3333333
Pemerannya paragane 0.3333333
tokohnya paragane 0.3333333
jumlahnya jumlahe 1.0000000
Dilan Dilan 1.0000000
terkenal terkenal 1.0000000
halamannya jilidane 1.0000000
workshop workshop 1.0000000
s s 1.0000000
dituntut digugat 1.0000000
reggae reggae 1.0000000
penyanyi penyanyi 1.0000000
gedungnya gedhunge 1.0000000
karya karya 1.0000000
memimpikan ngimpi 1.0000000
Menyenangkan gayeng 0.5000000
berubah gayeng 0.5000000
sambil sinambi 1.0000000
Helikopter Helikopter 1.0000000
hari Dina 0.5000000
Dina Dina 0.5000000
Rabu Rabu 1.0000000
dasar dhasar 1.0000000
mendengarkan ngrungokake 1.0000000
Internasional Internasional 1.0000000
bank bank 1.0000000
Kancil Kancil 1.0000000
Tapi Tapi 1.0000000
bulat bunder 1.0000000
sehari-hari sadina-dina 1.0000000
Pararaton Pararaton 1.0000000
jemparing jemparing 1.0000000
memasak masak 1.0000000
ditinggalkan ditinggalke 1.0000000
besi wesi 1.0000000
bersyukur ngucapke 1.0000000
bahannya bahane 1.0000000
klenengan klenengan 1.0000000
kata tuture 1.0000000
terikat kaiket 1.0000000
pedasnya pedese 1.0000000
tempat kanggonan 1.0000000
jati jati 1.0000000
membuka ngancik 1.0000000
Sunda Sunda 1.0000000
mite mite 1.0000000
penting penting 0.9230769
sebuah penting 0.0769231
Selain Sakliyane 1.0000000
tujuannya pranyata 1.0000000
dibicarakan diomongake 0.5000000
dikatakan diomongake 0.5000000
jempu jempu 1.0000000
Music Music 1.0000000
bancaan bancaan 1.0000000
dihasilkan kaasilake 1.0000000
bertemu ditemoni 0.1000000
ditemui ditemoni 0.4000000
temui ditemoni 0.1000000
di ditemoni 0.3000000
ia ditemoni 0.1000000
seimbangnya ekosistem 0.5000000
ekosistem ekosistem 0.5000000
Losari Losari 1.0000000
Wonosobo Wonosobo 1.0000000
Isyak Isyak 1.0000000
wisata wisata 0.8000000
Wisata wisata 0.2000000
Pendopo Pendhapa 1.0000000
kepercayaan Kapercayan 1.0000000
sepanjang sakdawane 1.0000000
sebutan arane 1.0000000
semua sakehing 1.0000000
Soemirat Kusumo 0.1666667
Kusumo Kusumo 0.8333333
gejala gejala 1.0000000
mengapung ngambang 1.0000000
simpanannya simpenane 1.0000000
ada festival 0.5000000
festival festival 0.5000000
hadir Sapejagong 0.5000000
dimohon Sapejagong 0.5000000
sumurnya sumure 1.0000000
lain-lainnya sapanunggalane 1.0000000
20 20 1.0000000
Dina dina 0.0500000
Bhayangkara dina 0.0500000
hari dina 0.8000000
HUT dina 0.0500000
Jumat dina 0.0500000
makan pangan 0.5000000
makanan pangan 0.5000000
pemuda-pemudi mudha-mudhi 1.0000000
lentera lampion 1.0000000
Khusus Khusus 1.0000000
termasuknya mlebune 1.0000000
berbentuk wangune 1.0000000
35 35 1.0000000
bisnisnya bisnise 1.0000000
lemah ringkih 1.0000000
setengah separoh 1.0000000
ribuan ewon 1.0000000
diajarkan diajarke 0.8000000
dilatih diajarke 0.2000000
menolongnya nulungi 0.5000000
membantu nulungi 0.5000000
daging daging 1.0000000
SD SD 1.0000000
kelembagaan kelembagaan 1.0000000
Rukunnya Rukune 1.0000000
pembicaraan omongan 1.0000000
membuktikan mbuktekake 1.0000000
sifat sifat 1.0000000
malam malam 1.0000000
Dhagan Dhagan 1.0000000
belasan welasan 1.0000000
kue kue 1.0000000
lahir ana 0.0072993
ada ana 0.8832117
terjadi ana 0.0072993
ana ana 0.0145985
berkumpul ana 0.0072993
NULL ana 0.0218978
bertempat ana 0.0072993
tertandingi ana 0.0072993
pembiasan ana 0.0072993
berada ana 0.0145985
, ana 0.0072993
menempel ana 0.0072993
rasa ana 0.0072993
kamis kemis 1.0000000
adat adat 0.7500000
rasa adat 0.2500000
gula gula 1.0000000
cucu putu 1.0000000
positif positif 1.0000000
pada neng 0.1250000
di neng 0.8750000
takut wedi 1.0000000
alam alam 1.0000000
terbatas tan 1.0000000
royong gotong-royong 0.5000000
Gotong gotong-royong 0.5000000
pemerintahannya pamarintahane 1.0000000
akhirnya akhire 1.0000000
mendengarkan ngrungokne 1.0000000
menyapu nyapu 0.7500000
makanan nyapu 0.2500000
Randha Randha 1.0000000
penduduknya nyumet 0.2000000
menyalakan nyumet 0.8000000
kuno kuna 1.0000000
ciri tetenger 1.0000000
Burj Burj 1.0000000
membangun mbangun 1.0000000
sikap sikap 1.0000000
kodratnya pitrahe 1.0000000
Doni Doni 1.0000000
kesaktian kasektene 1.0000000
budaya kabudayaan 0.2500000
kebudayaan kabudayaan 0.7500000
memberikan menehake 1.0000000
Menteri Menteri 1.0000000
dibawa dipapah 1.0000000
Gino Gino 1.0000000
mengungkapkan ndhudhah 1.0000000
menari tari 0.1470588
tari tari 0.3235294
tarian tari 0.5294118
2014 2014 1.0000000
alat piranti 0.6000000
peralatan piranti 0.2000000
alat-alat piranti 0.2000000
kesuksesan kasuksesan 1.0000000
cenderung rodo 1.0000000
wanita wanita 1.0000000
satu sakjam 0.5000000
jam sakjam 0.5000000
lewat liwat 1.0000000
restu berkah 1.0000000
Negara Negara 1.0000000
Langit Langit 1.0000000
buktinya buktine 1.0000000
lidahnya ilate 1.0000000
promosi brandhing 1.0000000
Wiwid Wiwid 0.5000000
bersamaWiwid Wiwid 0.5000000
sekali blas 0.7500000
sama blas 0.2500000
selamat sugeng 1.0000000
Nana Nana 1.0000000
aneh aeng 1.0000000
masing-masing beda-beda 0.1666667
berbeda-beda beda-beda 0.6666667
berbeda beda-beda 0.1666667
Ki Ki 1.0000000
emping emping 1.0000000
dua rong 1.0000000
Terdaftar Terdaftar 1.0000000
dosen dosen 1.0000000
Piring Piring 1.0000000
penjelasan piterange 1.0000000
diserap dileboni 1.0000000
Gofani Gofani 1.0000000
kandungan guwa 1.0000000
memperkuat nguwatake 0.5000000
menguatkan nguwatake 0.5000000
dibicarakan dikandhakake 1.0000000
Bintan Bintan 1.0000000
sesuai trep 1.0000000
menangani nangani 1.0000000
ribuan ewunan 1.0000000
khusus mligi 0.7500000
tersendiri mligi 0.1250000
khas mligi 0.1250000
kemauan krenteg 0.6666667
bertekad krenteg 0.3333333
TNI TNI 1.0000000
sepantarannya sepantaran 1.0000000
jempol jempol 1.0000000
bersih resik 1.0000000
sejalan jumbuh 1.0000000
asli asli 1.0000000
tampil maju 0.3333333
maju maju 0.6666667
jaya Jaya 1.0000000
keras banter 0.5000000
cepat banter 0.5000000
1980-an 1980-an 0.5000000
pada 1980-an 0.5000000
kemarin wingi 1.0000000
pilihan pilihan 1.0000000
00 00 1.0000000
urban urban 1.0000000
beberapa pirang 1.0000000
dianggap dianggep 1.0000000
ingin kepenging 1.0000000
Wayangnya Wayange 1.0000000
bergabung gabung 1.0000000
Jadi Dadi 1.0000000
lari mlayu 0.6666667
berlari mlayu 0.3333333
belum durung 0.8750000
tidak durung 0.1250000
hasil pakoleh 1.0000000
GBK GBK 1.0000000
terkandung kakandhut 1.0000000
hanya jlag-jlug 1.0000000
mendoakan ndongani 1.0000000
bagaimana kepriye 1.0000000
Singkatnya sak-sake 0.3333333
asal-asalan sak-sake 0.3333333
sembarangan sak-sake 0.3333333
pinjam nyilih 1.0000000
gambar gambar 1.0000000
hadiah hadiah 1.0000000
tersebar sumebar 1.0000000
menunjukkan nuduhake 1.0000000
biasa biyasa 0.6666667
terbiasa biyasa 0.3333333
setiap saben 0.9545455
tiap saben 0.0227273
snagat saben 0.0227273
pagi enjing 1.0000000
Suka Seneng 0.3333333
Senang Seneng 0.3333333
ketika Seneng 0.3333333
minum ngombe 0.6666667
minumlah ngombe 0.3333333
tradisional tradisional 1.0000000
warisan awisan 1.0000000
daripada tinimbang 1.0000000
HP HP 1.0000000
untuk ngesuhi 0.5000000
berwenang ngesuhi 0.5000000
berkeringat kemringet 1.0000000
terjadinya nyebabake 0.2500000
menyebabkan nyebabake 0.2500000
memicu nyebabake 0.2500000
mengakibatkan nyebabake 0.2500000
berdiri jugrug 1.0000000
kekacauan Kekacauan 1.0000000
menurut miturut 0.7857143
menurutnya miturut 0.0357143
menggunakan miturut 0.0357143
sesuai miturut 0.0714286
berdasarkan miturut 0.0714286
dibaca diwaca 1.0000000
April April 1.0000000
sedikit sethithik 1.0000000
moyang leluhure 0.5000000
nenek leluhure 0.5000000
nomer nomer 1.0000000
diingatkan dielingake 1.0000000
begitu semana 1.0000000
pekerjaannya pagaweyane 1.0000000
besar suk 0.5000000
saat suk 0.5000000
sekitar 250-an 0.5000000
250-an 250-an 0.5000000
video video 1.0000000
pohon-pohon wit-witan 0.5000000
pepohonan wit-witan 0.2500000
pohon wit-witan 0.2500000
menjelang nyedhak 1.0000000
salah salah 0.9729730
ada salah 0.0270270
kesalahan kedaden 1.0000000
karya pakaryan 0.3333333
tangan pakaryan 0.3333333
kerajinan pakaryan 0.3333333
laki-laki mas 0.5000000
mas mas 0.5000000
hujan rendheng 0.6666667
musim rendheng 0.3333333
pertahanan kuwawan 1.0000000
Ha Ha 1.0000000
mengucapkan Ngaturake 1.0000000
mobil mobil 1.0000000
Nusantara Nusantara 1.0000000
sesuai cocog 1.0000000
terampil wis 0.0126582
diajarkan wis 0.0126582
telah wis 0.3037975
sudah wis 0.6708861
Gadjah Gadjah 1.0000000
diterima ditampa 1.0000000
Nomor No 1.0000000
bantuan pitulung 1.0000000
tembok tembok 1.0000000
lagu tembang 0.8571429
Lagu tembang 0.0285714
menyanyi tembang 0.1142857
lelah kesel 1.0000000
pemuda Pemudha 1.0000000
Keris Keris 1.0000000
Sebagai Minangka 1.0000000
menemukan nemu 1.0000000
informasi informasi 1.0000000
mengajar ajar 0.1428571
belajar ajar 0.8571429
Kerja Kerja 1.0000000
agar nguri-nguri 1.0000000
barongsai barongsai 1.0000000
yaitu yaitu 1.0000000
mengumpulkan nglumpukake 1.0000000
meneruskan Nerusake 1.0000000
warnanya warnane 1.0000000
pelajaran ajaran 0.2500000
ajaran ajaran 0.7500000
University Pascasarjana 1.0000000
kuat kuwat 1.0000000
diperlukan perlu 0.3333333
perlu perlu 0.6666667
diam angger 0.5000000
sekedar angger 0.5000000
UGM UGM 1.0000000
dilakukan diterak 1.0000000
Yasmiran Yasmiran 1.0000000
diakibatkan diakibatake 1.0000000
sedikit-sedikit sithik-sithik 1.0000000
keislaman keislaman 1.0000000
Yuli Yuli 1.0000000
mengurus ngurusi 0.5000000
yang ngurusi 0.5000000
Aqua Aqua 1.0000000
kuno Kuna 1.0000000
kuning kuning 0.5000000
hijau kuning 0.5000000
betina buruh 0.5000000
lebah buruh 0.5000000
pandai pinteer 1.0000000
daerahnya dhaerahe 1.0000000
pengunjung pengunjung 1.0000000
atau lan 0.0043103
serta lan 0.0086207
dan lan 0.9870690
kepercayaan kaprecayan 1.0000000
PAUD PAUD 1.0000000
pergi lunga 1.0000000
Republik Republik 1.0000000
bukunya bukune 1.0000000
simbol simbol 1.0000000
dua kagem 1.0000000
hidupnya sungsum 1.0000000
ini ngene 0.6000000
Berikut ngene 0.2000000
seperti ngene 0.2000000
pencinta pandhemen 0.5000000
penggemar pandhemen 0.5000000
dijaga diati-ati 1.0000000
bersemangat semangat 0.6666667
semangat semangat 0.3333333
mana endi 1.0000000
perpustakaan perpustakaan 1.0000000
menanam nandur 1.0000000
Warga Warga 1.0000000
budaya kabudayan 0.4210526
kebudayaan kabudayan 0.5526316
Budaya kabudayan 0.0263158
the the 1.0000000
Besar Besar 1.0000000
mengaku ngaku 1.0000000
promosi promosi 1.0000000
orangnya wonge 1.0000000
ulang tanggap 1.0000000
benar pener 1.0000000
lima lima 1.0000000
minuman wedang 1.0000000
media-media medhia-medhia 1.0000000
cabai lombok 0.5000000
cabe lombok 0.5000000
Soeryo Soeryo 1.0000000
RT RT 1.0000000
disamakan dipadakne 1.0000000
santai santai 1.0000000
persilangan nyebrang 1.0000000
manfaat mupangat 1.0000000
dan utawa 0.0185185
atau utawa 0.9629630
goyang utawa 0.0185185
K K 1.0000000
kasih maring 0.5000000
kepada maring 0.5000000
peluang kalodhangan 1.0000000
masakan masakan 1.0000000
berani wani 1.0000000
keranjang kranjang 1.0000000
diselenggarakan diadani 0.2307692
Dipandu diadani 0.0769231
dilakukan diadani 0.0769231
diadakan diadani 0.6153846
kekuasaan panguwasa 1.0000000
Sembada Sembada 1.0000000
sibuk regeng 0.5000000
meriah regeng 0.5000000
sarapan sarapan 1.0000000
anakku anakku 1.0000000
begitu semono 1.0000000
dimasak dimangsak 1.0000000
jalan dalan 0.2000000
untuk dalan 0.2000000
Perjalanan dalan 0.2000000
jalanan dalan 0.2000000
Jalan dalan 0.2000000
berbohong ngapusi 1.0000000
Tholib Tholib 1.0000000
pidato pidato 1.0000000
Amongraga Amongraga 1.0000000
artikel ariwati 1.0000000
mahir wasis 0.1428571
berpengalaman wasis 0.1428571
pandai wasis 0.5714286
ahli wasis 0.1428571
karnaval karnaval 1.0000000
bagian bagean 1.0000000
ditelan katrajang 1.0000000
Dafa Dafa 1.0000000
A A 1.0000000
duduk lungguh 1.0000000
keluarganya kulawargane 1.0000000
terbahak-bahak ger-geran 1.0000000
KKI KKI 1.0000000
Jurusan Jurusan 1.0000000
Kuncoro Kuncoro 1.0000000
cm cm 1.0000000
berubah ganti-ganti 1.0000000
Rasyap Rasyapustaka 0.5000000
perpustakaan Rasyapustaka 0.5000000
enak penak 1.0000000
contohnya mligine 0.2500000
khususnya mligine 0.7500000
Cakupan cakepan 0.5000000
pemandangan cakepan 0.5000000
sendirian dhewean 1.0000000
Dosen Dosen 1.0000000
Maiyah Maiyah 1.0000000
merespon nanggap 1.0000000
menujukkan nduduhi 1.0000000
solo Solo 0.0263158
Tunggal Solo 0.0131579
Solo Solo 0.9605263
othok-othok othok-othok 1.0000000
koleksi koleksi 1.0000000
Lesehan lesehan 0.5000000
duduk lesehan 0.5000000
blusukan blusukan 1.0000000
Gempa Gempa 1.0000000
besarnya besare 1.0000000
manis manis 1.0000000
rapi rapi 1.0000000
AMI AMI 1.0000000
kesuksesannya kesuksesane 1.0000000
sewaktu-waktu sawektu 1.0000000
tante bulik 1.0000000
perlu kudu 0.0533333
harus kudu 0.9333333
penting kudu 0.0133333
Ami Ami 1.0000000
menemukan nemokake 1.0000000
lalu nuli 1.0000000
Tasya Tasya 1.0000000
Ibunya ibune 0.1250000
ibunya ibune 0.8750000
kehilangan ilang 0.2000000
sifat ilang 0.2000000
hilang ilang 0.6000000
matematika matematika 1.0000000
campuran campuran 1.0000000
bermutunya adiluhunge 1.0000000
11 11 1.0000000
sejahtera santosa 1.0000000
tajam landhep 1.0000000
lontar lontar 1.0000000
keraton keraton 1.0000000
perintah dhawuhe 1.0000000
menjadi swasana 0.1250000
suasana swasana 0.8750000
hufuf urutane 0.5000000
urutan urutane 0.5000000
media media 1.0000000
berbentuk bentuke 0.5000000
subtropis bentuke 0.5000000
dinas dinas 1.0000000
Teguh Teguh 1.0000000
agamanya agamane 1.0000000
hormat istiadat 0.5000000
istiadat istiadat 0.5000000
lahirnya laire 1.0000000
Bu bu 1.0000000
sifat watake 1.0000000
gesit cukat 1.0000000
meningkatkan ndhuwuri 1.0000000
mengkonsumsi manawa 0.1666667
bahwa manawa 0.5000000
ia manawa 0.1666667
hubungannya manawa 0.1666667
milenial millenial 1.0000000
dekat cedhak 1.0000000
RUU RUU 1.0000000
telah sengkut 1.0000000
kecilku cilikku 1.0000000
21 21 1.0000000
sifat sipat 1.0000000
bunganya kembange 1.0000000
mendapat nampa 0.5000000
menerima nampa 0.5000000
seenaknya sakarepe 1.0000000
Kridha Kridha 1.0000000
panas panas 1.0000000
Karanganyar Karanganyar 1.0000000
sangatlah pancen 0.0232558
sangat pancen 0.1162791
benar-benar pancen 0.0232558
tersandung pancen 0.0232558
memang pancen 0.8139535
adanya ditutup 0.2500000
tutup ditutup 0.2500000
ditutup ditutup 0.5000000
petugas petugas 1.0000000
sayap suwiwi 1.0000000
pedas pedes 1.0000000
terlalu ganteng 0.3333333
tampan ganteng 0.6666667
gerakan ukel 0.5000000
ukel ukel 0.5000000
bengal Bengal 1.0000000
menangnya menange 0.5000000
menang menange 0.5000000
memakan mangan 0.0555556
makan mangan 0.8333333
mengkonsumsi mangan 0.1111111
gunung gunung 1.0000000
Aditama Aditama 1.0000000
terpaksa kepeksa 1.0000000
guru-guru guru 0.0500000
Guru guru 0.0500000
guru guru 0.9000000
terdengar keprungu 1.0000000
diajarkan diwulang 1.0000000
sepele sepela 1.0000000
undangan undhangan 1.0000000
gambuh gambuh 1.0000000
diundang ditanggap 1.0000000
berpengaruh pengaruh 0.5000000
pengaruh pengaruh 0.5000000
bangsa bangsa 1.0000000
dihadiahi dibebungahi 1.0000000
hanya mung 0.9661017
hanyalah mung 0.0169492
NULL mung 0.0169492
terlantar terdampar 1.0000000
terjaga kejaga 1.0000000
sejatinya sejatine 0.6666667
sebenarnya sejatine 0.3333333
penanganan penanganan 1.0000000
tarian Tari 0.1000000
Tari Tari 0.8000000
tari Tari 0.1000000
. . 1.0000000
kaitannya rapete 1.0000000
sinar cahya 1.0000000
4 4 1.0000000
tuanya tuwane 1.0000000
pemakaiannya makake 1.0000000
disukai disenengi 0.7500000
digemari disenengi 0.2500000
Kutipan Kutipan 1.0000000
dimasukkan dilebokake 0.6000000
diletakkan dilebokake 0.2000000
ke dilebokake 0.2000000
Disamping Sesandhingane 1.0000000
Prancis Prancis 1.0000000
roti roti 1.0000000
Kusumo Herwasto 0.1666667
Herwasto Herwasto 0.6666667
Herwanto Herwasto 0.1666667
tutorial tutorial 1.0000000
diumpamakan kayadene 1.0000000
urusan urusan 1.0000000
Center Center 1.0000000
bukan dudu 1.0000000
Sris Sanggar 0.1428571
Sanggar Sanggar 0.5714286
sanggar Sanggar 0.2857143
Ayah bapak 0.5000000
bapak bapak 0.5000000
baik tliti 1.0000000
ketiga Katelu 1.0000000
harapan pangajap 1.0000000
kiri sakiwa 1.0000000
merupakan ngrupakne 1.0000000
zat zat 1.0000000
kesalahan kaluputan 1.0000000
gitar gitare 0.5000000
nya gitare 0.5000000
Dito Dito 1.0000000
sama-sama padha-padha 1.0000000
tradisional tradhisional 0.8888889
Tradisional tradhisional 0.1111111
diseluruh saindenge 1.0000000
Azis Azis 1.0000000
sering asring 1.0000000
Biologi Biologi 1.0000000
mengisi ngisi 1.0000000
Risyani 16 0.3333333
16 16 0.6666667
mengaku ngakoni 1.0000000
menyiapkan nyiapake 1.0000000
dibeli dituku 1.0000000
kosmetik kosmetik 1.0000000
diperbarui diperbarui 1.0000000
dicubit dijiwit 1.0000000
kebanyakan kakehan 1.0000000
seperti kayata 0.9142857
misalnya kayata 0.0571429
contohnya kayata 0.0285714
pencinta sutresna 0.8000000
para sutresna 0.2000000
Break Break 1.0000000
penyedap pangenak 1.0000000
bertengkar gelut 1.0000000
penyakit pirang-pirang 0.1428571
beberapa pirang-pirang 0.7142857
berbagai pirang-pirang 0.1428571
penyimpanan panyimpenan 1.0000000
IV IV 1.0000000
bertambah nambah 0.4000000
menambah nambah 0.4000000
meningkat nambah 0.2000000
dibenci digenthingi 1.0000000
acara-acara adicara-adicara 1.0000000
pencemaran polusi 1.0000000
Kodam Kodam 1.0000000
NULL ta 0.3333333
subtropis ta 0.3333333
nektar ta 0.3333333
kenyatanya saknyatane 1.0000000
Ilham Ilham 1.0000000
W W 1.0000000
tanggal tanggal 1.0000000
kok kok 1.0000000
membersihkan misuh 1.0000000
arit arit 1.0000000
tentang bab 0.6304348
hal bab 0.1956522
pelajaran bab 0.0217391
bagian bab 0.0869565
bab bab 0.0217391
pengetahuan bab 0.0217391
ISI bab 0.0217391
tepat ngepasi 1.0000000
termasuk Diqin 0.1666667
Diqin Diqin 0.8333333
Atas Atas 1.0000000
penonton penontone 0.5000000
penontonnya penontone 0.5000000
Singgih Singgih 1.0000000
adegan adegan 1.0000000
Mentimun Timun 0.5000000
Timun Timun 0.5000000
indonesia Indonesia 0.0243902
Indonesia Indonesia 0.9756098
lama suwe 0.8571429
kemudian suwe 0.1428571
Tambangraras Tambangraras 1.0000000
ketua pimpinan 0.2500000
pemimpin pimpinan 0.7500000
Vita Vita 1.0000000
sangat unik 0.3333333
unik unik 0.6666667
berprestasi berprestasi 1.0000000
wanita wadon 0.5000000
yang wadon 0.5000000
rezeki rezeki 0.5000000
nafkah rezeki 0.5000000
tertandingi tandhing 0.5000000
tak tandhing 0.5000000
B6 B6 1.0000000
cinta tresna 1.0000000
setelah sakwise 1.0000000
Ketua Ketua 0.5000000
Kepala Ketua 0.5000000
Iya Iya 1.0000000
puluh puluh 1.0000000
Bhayangkara Bhayangkara 1.0000000
Rajamala Rajamala 1.0000000
si si 1.0000000
ceritanya ceritane 1.0000000
adigang adigang 1.0000000
motif motif 1.0000000
beraktivitas kegiyatan 0.2500000
diluar kegiyatan 0.2500000
kegiatan kegiyatan 0.2500000
aktivitas kegiyatan 0.2500000
berbicara omong 1.0000000
teman-teman kanca-kanca 0.7500000
teman-temannya kanca-kanca 0.2500000
Komunitas adeging 0.3333333
berdirinya adeging 0.6666667
Sewu Sewu 1.0000000
Institut Institut 1.0000000
mengadakan nggelar 1.0000000
Jawab-menjawab Saut-sautan 1.0000000
lepas ucul 1.0000000
tersebut kesebut 1.0000000
dihilangkan diilangna 0.6666667
akan diilangna 0.3333333
pernikahan pawiwahan 1.0000000
bertarung padudon 0.5000000
diadu padudon 0.5000000
berdoa ndonga 1.0000000
pernah tau 1.0000000
kesini mrene 1.0000000
pernyataannya pratelane 0.5000000
pernyataan pratelane 0.5000000
motifnya motife 1.0000000
reaper reaper 1.0000000
ditiru nuladha 1.0000000
Zainudin Zainudin 1.0000000
mewakili makili 1.0000000
cadangan carangan 1.0000000
lagu-lagu lagu-lagu 1.0000000
balado balado 1.0000000
ditemukan njalari 0.5000000
menyebabkan njalari 0.5000000
roti Ora 0.3333333
Tidak Ora 0.3333333
tidak Ora 0.3333333
menyanyi nembang 0.4000000
bernyanyi nembang 0.3000000
lagu nembang 0.3000000
Annisa Annisa 1.0000000
mengobati ngobati 1.0000000
misalnya contone 0.2500000
contohnya contone 0.7500000
reformasi reformasi 1.0000000
Pangkur Pangkur 1.0000000
Tono Tono 1.0000000
dicuci dikumbah 1.0000000
twitter twitter 1.0000000
diinginkan dikarepake 0.2500000
inginkan dikarepake 0.2500000
oleh dikarepake 0.2500000
kita dikarepake 0.2500000
meneliti neliti 1.0000000
Adila Adila 1.0000000
dijelaskan dijlentrehake 1.0000000
menjelek-jelekan ngelek-elek 1.0000000
imigran pendatang 0.6666667
para pendatang 0.3333333
Kalimantan Kalimantan 1.0000000
diikuti tut 1.0000000
rayap renget 1.0000000
diwawancarai diwawancara 0.6250000
diwawancara diwawancara 0.3750000
tumis tumis 1.0000000
sampah wuh 0.5000000
sembarangan wuh 0.5000000
sopan tata 0.1250000
tata tata 0.5000000
, tata 0.1250000
untuk tata 0.1250000
tertib tata 0.1250000
libur libur 1.0000000
kerja kerja 0.6000000
berkerja kerja 0.2000000
Kerja kerja 0.2000000
macapat macapat 1.0000000
memasak , 0.0012658
NULL , 0.0189873
emping , 0.0012658
campur , 0.0012658
Sris , 0.0012658
dan , 0.0012658
pertolongan , 0.0012658
, , 0.9721519
twitter , 0.0012658
lemon lemon 1.0000000
penelitiannya riset 1.0000000
Intinya Dhasare 1.0000000
menu menu 1.0000000
Baskoro Baskoro 1.0000000
Tina Tina 1.0000000
dianggap nganggep 0.5000000
menganggap nganggep 0.5000000
melamar nglamar 1.0000000
enggan wegah 1.0000000
diberi paring 1.0000000
terima suwun 0.3333333
kasih suwun 0.6666667
biasanya biyasane 1.0000000
sedikit sithik 1.0000000
cara cara 1.0000000
perhatian kawigatene 1.0000000
empat patang 1.0000000
minyak lenga 1.0000000
sejuk adhem 1.0000000
dibutuhkan dibutuhake 1.0000000
dijual didol 1.0000000
nenek simbah 0.5000000
atau simbah 0.5000000
Lagu Lagu 1.0000000
dipenjara dipenjara 1.0000000
tangguh greget 1.0000000
menyelaraskan nyelarasake 1.0000000
in in 1.0000000
Kerja Pekerjaan 1.0000000
elaborasi elaborasi 1.0000000
bertempat dumunung 1.0000000
dilestarikan dilestarikake 1.0000000
Benawa Benawa 1.0000000
bagaimana kupiya 0.2000000
upaya kupiya 0.2000000
berusaha kupiya 0.2000000
usaha kupiya 0.4000000
kekiri ngiwa 1.0000000
pantas kuwawa 0.5000000
selalu kuwawa 0.5000000
bumi bumi 0.5000000
sebesar bumi 0.5000000
memberikan menehi 0.4285714
memberi menehi 0.5714286
mengkonsumsi ngonsumsi 1.0000000
terpenting paling 0.0555556
tertinggi paling 0.0555556
terbesar paling 0.0555556
terbarunya paling 0.0555556
NULL paling 0.0555556
setidaknya paling 0.0555556
terbaru paling 0.0555556
dipegang paling 0.0555556
masih paling 0.0555556
paling paling 0.5000000
sepertinya Kayane 1.0000000
jiwa jiwa 1.0000000
Manu Manu 1.0000000
didasarkan adhedhasar 0.2500000
berdasarkan adhedhasar 0.7500000
66 66 1.0000000
pergantian alihan 1.0000000
diikuti disusul 0.5000000
oleh disusul 0.5000000
Wedhatama Wedhatama 1.0000000
murid-muridnya murid-muride 1.0000000
kebudayaan kabudayane 1.0000000
melestarikan nglestarikake 1.0000000
indah endah 1.0000000
kebaikan kabecikan 0.8333333
baik kabecikan 0.1666667
sejarahnya sujarahe 1.0000000
Selamanya Selamanya 1.0000000
pahlawan Pahlawan 1.0000000
membelikan mundhutake 1.0000000
menyelamatkan nylametke 1.0000000
diganti diganti 1.0000000
bapang bapang 1.0000000
alasannya alesan 1.0000000
seorang sawijine 1.0000000
dengan nganggi 0.3333333
dihilangkan nganggi 0.3333333
menggunakan nganggi 0.3333333
Siti Siti 1.0000000
mengucapkan ngaturake 0.5000000
membuat ngaturake 0.5000000
dipraktikkan dipraktekake 1.0000000
serba sarwa 0.2500000
cemerlang sarwa 0.5000000
sesuai sarwa 0.2500000
bertanya takon-takon 1.0000000
segala kabeh 0.0256410
orang kabeh 0.0256410
semuanya kabeh 0.0256410
sepenuhnya kabeh 0.0256410
semua kabeh 0.8974359
Bella Bella 1.0000000
teratur rutin 1.0000000
Asia Asia 1.0000000
memamerkan pamer 0.5000000
menunjukkan pamer 0.5000000
tengah tengahan 0.3333333
sedang tengahan 0.6666667
patuhi netepi 0.5000000
mematuhi netepi 0.5000000
manuskrip manuskrip 1.0000000
maknanya werdine 1.0000000
mengatakan ngandhakake 1.0000000
disuruh dikongkon 1.0000000
susah-susah angel-angel 1.0000000
kosong kosong 1.0000000
keripik keripik 1.0000000
bulu minton 0.5000000
tangkis minton 0.5000000
dalam minanga 1.0000000
manis legi 1.0000000
penyebab penyebab 1.0000000
FX FX 1.0000000
tahu maksude 0.5000000
artinya maksude 0.5000000
kunyit kunir 1.0000000
lengkap pepak 1.0000000
kuat kuas 1.0000000
pelajar pelajar 1.0000000
mencari golek 1.0000000
lagunya Tembange 1.0000000
kreatif kreatif 1.0000000
Arab Arab 1.0000000
Balekambang Balekambang 1.0000000
utamanya utamane 1.0000000
Sukuh Sukuh 1.0000000
keduanya temene 1.0000000
mengacungi ngacungi 1.0000000
memiliki nduweni 0.8461538
mempunyai nduweni 0.1538462
wawasan pemahaman 1.0000000
sinden pesinden 1.0000000
korban korban 1.0000000
dupa menyan 0.5000000
Tampaknya menyan 0.5000000
tentu tentu 1.0000000
pria Priya 1.0000000
Bj BJ 1.0000000
Hadi Hadi 1.0000000
masakan Mangsakan 1.0000000
kritikan kritik 1.0000000
membawa nggawa 1.0000000
sedih sedhih 1.0000000
menentukan nemtokake 1.0000000
Dewan Dewan 1.0000000
Bay Bay 1.0000000
MGMP MGMP 1.0000000
ditawari diwarai 1.0000000
main dolan 1.0000000
jazz jaz 0.5000000
jaz jaz 0.5000000
musimnya musime 1.0000000
dirayakan dipengeti 1.0000000
menjenguk niliki 1.0000000
disapu disapu 1.0000000
memasukkan nglebokake 1.0000000
dilakukan diayahi 1.0000000
membelinya tuku 0.1666667
membeli tuku 0.8333333
Ponorogo Ponorogo 1.0000000
persis persis 1.0000000
Gardens Gardens 1.0000000
pegawai pegawe 0.3333333
Sipil pegawe 0.3333333
Negeri pegawe 0.3333333
senior senior 1.0000000
Car Car 1.0000000
Aduk Aduk 1.0000000
Novel Novel 1.0000000
solopos solopos 1.0000000
memotong negor 1.0000000
memasukkan mlebokake 1.0000000
merebus nggodhog 1.0000000
mendirikan ngedegake 1.0000000
kampung desa 0.0666667
Setu desa 0.0666667
desa desa 0.8666667
aturan pakem 1.0000000
mengotak-atik gothak 1.0000000
seminggu seminggu 1.0000000
Nusantara Nuswantara 0.3333333
Nusantaran Nuswantara 0.1666667
nusantara Nuswantara 0.1666667
Nuswantara Nuswantara 0.3333333
biasanya biasane 1.0000000
Jawa-Cina Jawa 0.0075188
jawa Jawa 0.0526316
Jawa Jawa 0.9398496
seharusnya Samesthine 1.0000000
bijak wicaksana 1.0000000
hilang angslup 1.0000000
mengutamakan ngendelake 1.0000000
indahnya endahe 0.5000000
keindahan endahe 0.5000000
melainkan Ngliyakne 1.0000000
bulan wulan 1.0000000
Inggris Inggris 1.0000000
tempat-tempat papan-papan 1.0000000
meninggikan ngongsakake 1.0000000
dongeng dongenge 0.3333333
dongengnya dongenge 0.3333333
Jenis dongenge 0.3333333
nasehat pitutur 0.3333333
saran pitutur 0.6666667
, keluwarga 0.5000000
keluarga keluwarga 0.5000000
mengatakan kandha 0.6666667
akan kandha 0.3333333
Risyani Risyani 1.0000000
madu madu 1.0000000
terhadap tumrap 0.5000000
lambang tumrap 0.2500000
untuk tumrap 0.2500000
dokumen dokumen 1.0000000
warisan warisan 1.0000000
berdesakan suk-sukan 1.0000000
peran paraga 0.1000000
peraga paraga 0.3000000
pemeran paraga 0.6000000
Darweni Darweni 1.0000000
1964 1964 1.0000000
mencontoh nyonto 1.0000000
pengamat pamerdi 1.0000000
Patung Patung 1.0000000
Arkanda Arkanda 1.0000000
DPR DPR 1.0000000
diceritakan dicritakake 1.0000000
mengajar ngajari 0.3000000
dirinya ngajari 0.1000000
mengajarkan ngajari 0.3000000
mengajari ngajari 0.3000000
mengisap nyesep 1.0000000
membacakan ndongengi 0.4000000
dongeng ndongengi 0.4000000
kepada ndongengi 0.2000000
tempat panggon 0.5000000
dengan panggon 0.5000000
tunangannya tunangane 1.0000000
yang Sing 0.2500000
Yang Sing 0.7500000
pendek cendhak 1.0000000
jangan aja 1.0000000
reog reyog 1.0000000
diambil diciduk 1.0000000
punah pupus 1.0000000
sembelit sembelit 1.0000000
pertolongan sambatan 0.5000000
kali sambatan 0.5000000
saudara sedulur 1.0000000
kesehatan kawarasan 1.0000000
muda nom 1.0000000
Mangkunegara Mangkunegara 0.5000000
Mangkunegoro Mangkunegara 0.5000000
sementara sementara 1.0000000
mendongeng ndongeng 0.0769231
dongeng ndongeng 0.4615385
membaca ndongeng 0.3846154
membacakan ndongeng 0.0769231
hotman Hotman 1.0000000
hubungan sesambungan 0.6666667
sebuah sesambungan 0.3333333
belajar sinau 0.8906250
studi sinau 0.0156250
mempelajari sinau 0.0937500
pertemuan pertemuan 1.0000000
lain-lainnya liya-liyane 1.0000000
Berawal Wiwitane 1.0000000
masa mangsa 0.6000000
musim mangsa 0.2000000
periode mangsa 0.2000000
terang padhang 1.0000000
itu mengkana 0.6666667
begitu mengkana 0.3333333
Cat Cat 1.0000000
sedang sedheng 1.0000000
Megasari Megasari 1.0000000
dimasak dimasak 1.0000000
Pesertanya Pasartane 0.5000000
pesertanya Pasartane 0.5000000
membuka mbuka 1.0000000
Dinas Dinas 0.5000000
Departemen Dinas 0.5000000
bulan sasi 1.0000000
artikel ariwarti 1.0000000
bayi bayi 1.0000000
sikat nyikat 0.5000000
Menyikat nyikat 0.5000000
digabungkan digabungke 1.0000000
utama utama 1.0000000
diakui dingerteni 0.5000000
dimengerti dingerteni 0.5000000
tambah samsaya 0.2500000
semakin samsaya 0.7500000
Suluk Suluk 0.8333333
Sulphur Suluk 0.1666667
langka langka 1.0000000
agar supaya 0.6250000
supaya supaya 0.3437500
untuk supaya 0.0312500
Setiap Saben 1.0000000
Termuat Kacapak 1.0000000
cacing cacing 1.0000000
Gendut Gendut 1.0000000
Disbudpar Disbudpar 1.0000000
sholat Sholat 1.0000000
dikirimkan dikirimake 1.0000000
Sinta Sinta 1.0000000
lapangan lapangan 1.0000000
kandungan garbane 1.0000000
terkadang kadangkala 1.0000000
Pasar Pasar 1.0000000
kematian tilar 1.0000000
di di 0.5000000
dialih di 0.1666667
mulutku di 0.1666667
atas di 0.1666667
semakin luwih 0.0454545
sebaiknya luwih 0.0227273
kurang luwih 0.0227273
lebih luwih 0.8863636
alangkah luwih 0.0227273
membakar mbakar 1.0000000
Hewan Hewan 1.0000000
yang nggunakne 0.3333333
menggunakan nggunakne 0.6666667
terlihat ketok 1.0000000
Laksita Laksita 1.0000000
daerah-daerah dhaerah-dhaerah 1.0000000
Makanannya Panganane 1.0000000
keseluruhan sakabehane 0.5000000
seluruhnya sakabehane 0.5000000
simbol-simbol simbol-simbol 1.0000000
tandanya tandha 0.5000000
tanda tandha 0.5000000
tidur turu 1.0000000
kuburan kuburan 0.5000000
nisan kuburan 0.5000000
syukur sukur 1.0000000
nasi sega 1.0000000
nanti mengko 1.0000000
pendongeng tukang 0.3333333
logistik tukang 0.3333333
pembuat tukang 0.3333333
laki-lakinya lanange 1.0000000
ada kondangan 0.5000000
yang kondangan 0.5000000
Agusta Agusta 1.0000000
Bahasanya Basane 1.0000000
aljabar aljabar 1.0000000
balap balap 1.0000000
hafalan apalan 1.0000000
285 285 1.0000000
Ta Ta 1.0000000
jumlah cacahing 1.0000000
membaca maca 1.0000000
persis plek 1.0000000
tubuh awake 0.1000000
Badannya awake 0.1000000
depan awake 0.1000000
kita awake 0.7000000
ratusan atusan 1.0000000
memperkenalkan ngenalake 1.0000000
keras atos 1.0000000
Kundang Kundang 1.0000000
lubang bolongan 1.0000000
sirih sirih 1.0000000
membunuh gumantekne 1.0000000
politik politik 1.0000000
pembukaan pambukaning 1.0000000
sejarah sejarah 0.6666667
bersejarah sejarah 0.3333333
besar agung 0.5000000
bersama agung 0.5000000
menempatkan mapanake 1.0000000
biasa lumrah 1.0000000
saat tekan 0.3157895
ke tekan 0.2105263
hingga tekan 0.0526316
sampai tekan 0.3157895
kemana-mana tekan 0.0526316
datang tekan 0.0526316
B1 B1 1.0000000
pohon wit 1.0000000
studi pasinaon 0.5000000
pembelajaran pasinaon 0.5000000
Kolam Kolam 1.0000000
Wa Wa 1.0000000
sosial sosial 0.6666667
distancing sosial 0.3333333
bau ambu 1.0000000
keluarganya keluargane 1.0000000
diluar njaba 0.5000000
luar njaba 0.5000000
statistik statistik 1.0000000
masuk manjing 1.0000000
Keterangan Keterangan 1.0000000
bahwa menawa 0.7500000
jika menawa 0.2500000
Mbak Mbak 1.0000000
diintegrasikan dibarengi 1.0000000
ini loro 0.2500000
dua loro 0.7500000
berwibawa pangribawa 1.0000000
Zamani Zamani 1.0000000
Ibu Bu 1.0000000
adigung adigung 1.0000000
bosan bosen 1.0000000
Harsoyo Harsoyo 1.0000000
daftar pratelaning 1.0000000
seseoran pawongan 0.5000000
setiap pawongan 0.5000000
5 5 1.0000000
sebelumnya durunge 1.0000000
gaya angkah 1.0000000
Lahan Palemahan 1.0000000
malu isin 1.0000000
menjaga jinaga 1.0000000
bercampur awit 0.1111111
karena awit 0.1111111
sejak awit 0.7777778
antagonis antagonis 1.0000000
difoto dipoto 1.0000000
Kemendikbud Kemendikbud 1.0000000
dihampiri diparani 1.0000000
anak-anak anak-anakku 1.0000000
tercemari tercemar 1.0000000
Sekolah Sekolah 0.4285714
Kelas Sekolah 0.1428571
sekolah Sekolah 0.4285714
ke kalih 1.0000000
Hindu Hindu 1.0000000
Brawijaya Brawijaya 1.0000000
benar sakpenere 0.5000000
paling sakpenere 0.5000000
untuk latihan 0.2500000
latihan latihan 0.7500000
menghadapi ngadepi 1.0000000
Berbahasa Berbahasa 1.0000000
Jagalan Jagalan 1.0000000
jelas gamblang 1.0000000
dibacakan didongengi 0.5714286
dongeng didongengi 0.4285714
Cak Cak 0.8750000
NULL Cak 0.1250000
Sebaliknya Suwalike 1.0000000
tersedia cawis 1.0000000
album album 0.5000000
dalam album 0.2500000
Koleksi album 0.2500000
korupsi korupsi 1.0000000
Gede Gede 1.0000000
berakhir purna 1.0000000
berdampingan sesandhingan 1.0000000
videonya videone 1.0000000
disukai ditresnani 1.0000000
Februari Februari 1.0000000
enak enak 1.0000000
2019 2019 1.0000000
isolasi isolasi 1.0000000
mendoakan ndongakake 1.0000000
rami rame 0.2000000
ramai rame 0.8000000
B9 B9 1.0000000
kencang pilih 1.0000000
, katelune 0.5000000
ketiganya katelune 0.5000000
menjadikan ndadekake 0.5000000
membuat ndadekake 0.5000000
tenang anteng 1.0000000
pernah nyantrik 0.5000000
belajar nyantrik 0.5000000
komputer komputer 1.0000000
penjahat penjahat 1.0000000
teater teater 1.0000000
diwawancarai diwawancarai 1.0000000
seimbangnya njomplange 0.3333333
ketidakseimbangan njomplange 0.3333333
tidak njomplange 0.3333333
suka dhemen 1.0000000
dibuat digawe 1.0000000
penasaran pamasaran 1.0000000
mayat Mayit 1.0000000
Industri Industri 1.0000000
kaum nom-noman 0.0566038
remaja nom-noman 0.0377358
muda nom-noman 0.4716981
kalangan nom-noman 0.0188679
anak nom-noman 0.3773585
pemuda nom-noman 0.0188679
anak-anak nom-noman 0.0188679
terlibat melu 0.1111111
turut melu 0.0555556
NULL melu 0.0555556
mengikuti melu 0.2222222
yang melu 0.0555556
ikut melu 0.5000000
Bidang Bidang 1.0000000
berupa rupa 0.3333333
ragam rupa 0.3333333
macam rupa 0.3333333
kerusuhan rusuh 0.5000000
kekacauan rusuh 0.5000000
dalang dalang 1.0000000
harum wangi 0.3333333
parfum wangi 0.3333333
wangi wangi 0.3333333
menyerap nyerep 1.0000000
makanan manganan 1.0000000
Banjarsari Banjarsari 1.0000000
mengesankan nyengsemake 0.5000000
karyanya nyengsemake 0.5000000
tegang spaneng 1.0000000
Humaira Humaira 1.0000000
Ramadhani Ramadhani 1.0000000
Ds Ds 1.0000000
Gema Gema 1.0000000
kesukaan klangenane 1.0000000
mematikan mateni 0.5000000
membunuh mateni 0.5000000
reggae reaggae 1.0000000
Polda Polda 1.0000000
termasuk kabiji 1.0000000
atas dhuwur 0.1250000
tinggi dhuwur 0.6250000
nutrisi dhuwur 0.1250000
tertinggi dhuwur 0.1250000
Gambuh Gambuh 1.0000000
keindahan pasren 1.0000000
Sabtu Sabtu 1.0000000
ditebang ditegor 1.0000000
Nasyir Nasyir 1.0000000
Loker Loker 1.0000000
Hasta Hasta 1.0000000
jika nek 1.0000000
akulturasi akulturasi 1.0000000
menikah kawin 1.0000000
UNS UNS 1.0000000
belajar seng 1.0000000
digabungkan digandhengake 1.0000000
berbicara ngomong 0.5000000
bisa ngomong 0.1000000
membicarakannya ngomong 0.1000000
mengatakan ngomong 0.1000000
bilang ngomong 0.2000000
Sumatera Sumatra 0.6000000
Sumatra Sumatra 0.2000000
sumatera Sumatra 0.2000000
kebun Kebun 1.0000000
Bali Bali 1.0000000
melalui lumantar 1.0000000
mimpi impian 1.0000000
pelancong musafir 1.0000000
barunya anyare 1.0000000
Kuta Kuta 0.7500000
kuta Kuta 0.2500000
anak-anak bocah-bocah 1.0000000
satunya sawijining 0.2000000
seseorang sawijining 0.0500000
satunnya sawijining 0.0500000
satu sawijining 0.6500000
salah sawijining 0.0500000
Lisa Lisa 1.0000000
bekerja ngenger 1.0000000
tujuh pitung 1.0000000
sengat wisane 0.5000000
setelahnya wisane 0.5000000
dynamite dynamite 1.0000000
berkumpul kumpul 1.0000000
akibat amarga 0.0212766
karena amarga 0.8723404
menyesal amarga 0.0212766
diakibatkan amarga 0.0212766
dikarenakan amarga 0.0425532
dengan amarga 0.0212766
begitu gathuk 0.5000000
mengotak-atik gathuk 0.5000000
meluluskan nglulusake 1.0000000
Diqin Dikin 1.0000000
lereng pereng 1.0000000
akhir pungkasane 1.0000000
pengingat pangeling-eling 1.0000000
Muhammadiyah Muhammadiyah 1.0000000
Bangalore Bangalore 1.0000000
memperhatikan nggatekake 1.0000000
gambus nggambus 1.0000000
milik duweke 1.0000000
buku buku 1.0000000
buah-buahan buah-buahan 1.0000000
depan ngarepe 1.0000000
Vietnam Vietnam 1.0000000
campursari campursari 1.0000000
Heritage Heritage 1.0000000
perlahan-lahan ngendhih 0.5000000
bahkan ngendhih 0.5000000
kehidupan kuripan 1.0000000
cantik ayu 1.0000000
Nga Nga 1.0000000
semakin saya 0.8571429
bertambahnya saya 0.0714286
terus saya 0.0714286
selama sasuwene 1.0000000
susu susu 1.0000000
Lita Lita 1.0000000
orang abdi 0.3333333
penyanyinya abdi 0.3333333
pembantu abdi 0.3333333
Louhan Louhan 1.0000000
tujuh kaentup 0.5000000
orang kaentup 0.5000000
seluruh saindhenge 1.0000000
dipakai diugemi 0.2000000
teguh diugemi 0.2000000
digunakan diugemi 0.2000000
oleh diugemi 0.2000000
dinikmati diugemi 0.2000000
cara carane 0.2857143
caranya carane 0.7142857
Jakarta Jakartan 1.0000000
yayasan yayasan 1.0000000
Rock Rock 1.0000000
sejahtera raharja 1.0000000
menempel nempel 1.0000000
jumlah jumlah 0.5000000
angka jumlah 0.5000000
Usia Usia 1.0000000
cipta cipta 1.0000000
bunga-bunga kembang-kembang 1.0000000
buruknya eleke 1.0000000
Kegagalan Kewurungan 1.0000000
rekaman rekaman 1.0000000
FIB FIB 1.0000000
bahkan kepara 0.5000000
mematikan kepara 0.5000000
menggoreng nggoreng 1.0000000
kebaikan Kebecikan 1.0000000
desa Kampung 0.5000000
Desa Kampung 0.5000000
diajarkan diajari 0.5000000
diajari diajari 0.5000000
mengatur nata 1.0000000
sama babar 1.0000000
dongeng carita 0.1250000
cerita carita 0.7500000
kisah carita 0.1250000
Twitter Twitter 1.0000000
rumah griya 1.0000000
Prodi Prodi 1.0000000
shopee shopee 1.0000000
Rekor Rekor 1.0000000
membuatnya gawene 1.0000000
itu mau 1.0000000
diajak diajak 1.0000000
kekuatan kekuwatan 1.0000000
berkembang kekembangan 0.3333333
sedang kekembangan 0.3333333
yang kekembangan 0.3333333
digantung nggantung 0.5000000
cara nggantung 0.5000000
pukul tabuh 1.0000000
menunjuk nuding 1.0000000
detik detik 1.0000000
memang jane 1.0000000
Cak dheweke 0.0126582
menolongnya dheweke 0.0126582
dirinya dheweke 0.1012658
menggantikannya dheweke 0.0126582
menyambutnya dheweke 0.0126582
mengganggu dheweke 0.0126582
ia dheweke 0.0379747
mengaku dheweke 0.0126582
disukai dheweke 0.0126582
membicarakannya dheweke 0.0126582
mereka dheweke 0.0126582
menurutnya dheweke 0.0126582
dia dheweke 0.7341772
10 10 1.0000000
Kabupaten Kabupaten 1.0000000
msyarakat masarakat 0.0400000
rakyat masarakat 0.0400000
masyrakat masarakat 0.0400000
masyarakat masarakat 0.8000000
penduduk masarakat 0.0800000
Mojosongo Wisata 1.0000000
tanya takon 1.0000000
jodoh jodho 1.0000000
Mustanto Mustanto 1.0000000
Pendapa Pendapa 1.0000000
remaja nganti 0.0169492
sampai nganti 0.4067797
entah nganti 0.0169492
hingga nganti 0.5254237
mencapai nganti 0.0338983
kambing wedhus 0.5000000
kambingnya wedhus 0.5000000
babad babad 1.0000000
Taiwan Taiwan 1.0000000
mendeteksi ndeteksi 1.0000000
kata gathik 1.0000000
benarnya penere 1.0000000
cemberut mbesengut 1.0000000
yang iku 0.0070423
itu iku 0.7816901
muncul iku 0.0070423
Heru iku 0.0070423
yaitu iku 0.0070423
tersebut iku 0.0281690
ini iku 0.0633803
kekanan iku 0.0070423
diadakan iku 0.0070423
adalah iku 0.0352113
sebelum iku 0.0070423
NULL iku 0.0281690
sangatlah iku 0.0070423
sangat iku 0.0070423
ular ula 1.0000000
ditetapkan disahke 1.0000000
tempat obyek 1.0000000
tropis tropis 1.0000000
hujan udan 1.0000000
keluarga kulawarga 1.0000000
berpasangan pasang-pasangan 1.0000000
tegak mujur 1.0000000
berbicara ngobrol 1.0000000
Pewarna Pewarnaan 1.0000000
kasih nuwun 0.7500000
NULL nuwun 0.2500000
belajarnya sinaune 0.3333333
Pembelajarannya sinaune 0.3333333
Studinya sinaune 0.3333333
menjadikan dadine 0.2500000
sehingga dadine 0.7500000
desa dhesa 1.0000000
Lina Lina 1.0000000
Singapore Singapura 1.0000000
Kota Kutha 0.8333333
kota Kutha 0.1666667
Oktober Oktober 0.5000000
oktober Oktober 0.5000000
sambal sambel 1.0000000
menikah rabi 1.0000000
hadiah bebungah 1.0000000
mengailiri ngocori 1.0000000
BK konseling 1.0000000
barang barang 0.4000000
sepele barang 0.2000000
hal barang 0.2000000
juga barang 0.2000000
kamu awakmu 1.0000000
dulu mbiyen 0.5000000
dahulu mbiyen 0.5000000
teks teks 1.0000000
telah nate 0.1666667
pernah nate 0.6666667
ia nate 0.1666667
kerupuk krupuk 1.0000000
jurusan jurusan 1.0000000
tas tas 1.0000000
per siji-siji 0.3333333
satu siji-siji 0.6666667
Pemerhati Pamerti 0.5000000
pengamat Pamerti 0.5000000
ingin kepingin 0.5000000
mau kepingin 0.5000000
tinggal mapan 1.0000000
mengandung ngemu 0.4000000
memiliki ngemu 0.2000000
pengajaran ngemu 0.2000000
Berkumur ngemu 0.2000000
aula aula 1.0000000
tertarik seneng 0.0172414
menyenangkan seneng 0.0344828
pengendalian seneng 0.0172414
menyukai seneng 0.0517241
bahagia seneng 0.0517241
suka seneng 0.2586207
senang seneng 0.5517241
mencintai seneng 0.0172414
kepala ketua 0.1818182
ketua ketua 0.7272727
ketu ketua 0.0909091
penontonnya penonton 0.1000000
penonton penonton 0.9000000
melancarkan nggampangake 0.3333333
menganggap nggampangake 0.3333333
memudahkan nggampangake 0.3333333
anak anak 1.0000000
Departemen Kementerian 0.6666667
Kementerian Kementerian 0.3333333
membeda-bedakan mbedak-bedakake 1.0000000
bertukar ijol-ijolan 1.0000000
diselamatkan diselametke 1.0000000
kebudayaan kebudayaan 1.0000000
kita dewe 1.0000000
setuju sarujuk 0.7500000
menyetujui sarujuk 0.2500000
jalan lakune 1.0000000
pahit pait 1.0000000
membuat nggawe 0.8750000
menjalin nggawe 0.0416667
jamu nggawe 0.0416667
sebuah nggawe 0.0416667
barangnya barange 1.0000000
kemampuannya keprigelane 0.5000000
ketrampilan keprigelane 0.5000000
kecantikan kecantikan 1.0000000
miliki diduweni 0.2500000
dimiliki diduweni 0.5000000
kita diduweni 0.2500000
mematuhi tundhuk 1.0000000
jamu jamu 0.6666667
jami jamu 0.3333333
Jalan Riyadi 1.0000000
Timur Timur 1.0000000
disetrika nyetrika 1.0000000
tertentu tinamtu 0.5000000
saja tinamtu 0.5000000
temannya sakanca 0.5000000
bersama sakanca 0.5000000
Budi Budi 1.0000000
persiapan persiapan 0.5000000
apapun persiapan 0.5000000
Masa ya 0.0142857
besok ya 0.0142857
pun ya 0.0142857
yaitu ya 0.0142857
maka ya 0.0285714
adalah ya 0.0714286
adiguna ya 0.0285714
juga ya 0.0142857
akan ya 0.0142857
urusan ya 0.0142857
biasanya ya 0.0142857
ya ya 0.7428571
besi ya 0.0142857
menghawatirkan kuwatir 0.3333333
khawatir kuwatir 0.6666667
baksonya baksone 1.0000000
berumur umur 0.3333333
usia umur 0.3333333
umur umur 0.3333333
ditujukan dimaksudake 1.0000000
baru anyaran 1.0000000
Kiki Kiki 1.0000000
Malam mletheke 0.5000000
merayakan mletheke 0.5000000
Ganjar Ganjar 1.0000000
ludruk ludruk 1.0000000
dipercaya diprecaya 1.0000000
telah 7 0.5000000
7 7 0.5000000
keterkaitan rakete 0.3333333
eratnya rakete 0.3333333
kaitannya rakete 0.3333333
gedung gedhong 1.0000000
Maneka Aneka 1.0000000
agar amrih 0.2000000
Negara amrih 0.2000000
kepada amrih 0.2000000
bermanfaat amrih 0.2000000
untuk amrih 0.2000000
anggap didaku 1.0000000
main dolanan 0.2000000
bermain dolanan 0.2000000
permainan dolanan 0.4000000
mainan dolanan 0.2000000
kita dhewe 0.7272727
sendiri dhewe 0.2727273
dalam njero 0.7500000
kue njero 0.2500000
paling wigati 0.0909091
diminati wigati 0.0909091
penting wigati 0.8181818
marahi seneni 1.0000000
sumber sumber 1.0000000
sayur sayur 1.0000000
bukan non-pamarentah 0.5000000
pemerintah non-pamarentah 0.5000000
sifat sipating 1.0000000
judul irah-irahan 1.0000000
daerah subtropika 1.0000000
kata andharane 0.5000000
hotman andharane 0.5000000
Berbahaya Bebaya 1.0000000
terlewat keliwat 1.0000000
tujuan karep 0.5000000
keinginan karep 0.5000000
garapan Garapan 1.0000000
terbakar kobong 1.0000000
Latin latin 1.0000000
mengubah ngowahi 1.0000000
meneruskan nerusa 1.0000000
baru nembe 1.0000000
penting nggeret 0.5000000
sangat nggeret 0.5000000
sembarangan sembrono 1.0000000
membawa ngusung 1.0000000
ndesa Pendhudhuk 0.5000000
warga Pendhudhuk 0.5000000
Purnama Purnama 1.0000000
kelapa klapa 1.0000000
mengenai jarak 0.1666667
jarak jarak 0.6666667
sosial jarak 0.1666667
praktis praktis 1.0000000
tetap tetep 0.6428571
terus tetep 0.1428571
masih tetep 0.2142857
kebaikan becik 0.1250000
gunakan becik 0.1250000
baik becik 0.5000000
baiknya becik 0.1250000
indah becik 0.1250000
hasil asil 0.6666667
asli asil 0.3333333
memanggil ngundang 0.5000000
mengundang ngundang 0.5000000
tonil tonil 1.0000000
pisau peso 1.0000000
sebagian saperangan 1.0000000
pengajaran wedha 1.0000000
seseorang pangon 1.0000000
lahir dilairake 1.0000000
sedikit rada 1.0000000
cocok cocok 1.0000000
Sukoharjo Sukoharjo 1.0000000
dunia donya 1.0000000
merayakan ngregengake 0.3333333
meramaikan ngregengake 0.6666667
kepada diteruske 0.5000000
diteruskan diteruske 0.5000000
meminta njaluk 1.0000000
umat umat 1.0000000
membantu mbiyantu 1.0000000
efektif efektif 1.0000000
Menengah Menengah 1.0000000
pentingnya Pentinge 1.0000000
sensor sensor 1.0000000
keajaiban keajaiban 1.0000000
New New 1.0000000
perburuan moro 1.0000000
Arief Arief 1.0000000
terakhir keri 1.0000000
dijemur dipepe 1.0000000
Lanka Lanka 1.0000000
sebangsa sabangsa 1.0000000
jumat Jemuwah 1.0000000
Tenggara Tenggara 1.0000000
gugup gugup 1.0000000
Raihan Raihan 1.0000000
dibagi diperang 0.6666667
diterjemahkan diperang 0.3333333
biji winih 1.0000000
mengherankan nggumun 1.0000000
mengendarai nyetir 1.0000000
menyediakan nyumadyakake 1.0000000
hal perkara 1.0000000
tinggi tinggi 1.0000000
struktur struktur 1.0000000
kethoprak kethopak 1.0000000
kedelai dele 1.0000000
Alya Alya 1.0000000
bersamaan bebarengan 0.3333333
mendukung bebarengan 0.1666667
berdampingan bebarengan 0.1666667
bersama bebarengan 0.3333333
tokohnya Lakone 1.0000000
terbakar keobong 1.0000000
York York 1.0000000
minyak minyak 1.0000000
hampir meh 1.0000000
dengan dene 0.0476190
sedang dene 0.0476190
jika dene 0.0952381
bahwa dene 0.2380952
sedangkan dene 0.2380952
meskipun dene 0.0476190
kethoprak dene 0.0476190
mengatakan dene 0.0476190
tetapi dene 0.0476190
sementara dene 0.0952381
berasal dene 0.0476190
bahan bahan 0.7500000
berbahan bahan 0.2500000
menjaga ngrumat 1.0000000
Covid Covid 0.3333333
covid Covid 0.6666667
Mahabharata Mahabarata 1.0000000
kursinya kursine 1.0000000
pribadi kepribadian 1.0000000
berkunjung kunjung 1.0000000
Mr Mr 1.0000000
dietnya diet 1.0000000
mengalahkan ngalahake 1.0000000
perkembangan kemajuwaning 0.5000000
memajukan kemajuwaning 0.5000000
Sarang Susuh 1.0000000
fasih fasih 0.6666667
dia fasih 0.3333333
keluhan keluhan 1.0000000
VIII VIII 1.0000000
Lia Lia 1.0000000
Hanya Mung 1.0000000
Lihatlah Deleng 1.0000000
pindah pindhah 1.0000000
bisa isa 1.0000000
Pembagian Distribusi 1.0000000
gerak tandang 1.0000000
diadakan dianakne 1.0000000
Kebhinekaan Kebhinekaan 1.0000000
Pepatah Unen-unen 1.0000000
Tali Tali 1.0000000
luar mancanagara 0.5000000
negeri mancanagara 0.5000000
Sebenarnya Janjane 1.0000000
mata mili 1.0000000
Kementerian Pusat 1.0000000
tahayul tahayul 1.0000000
negeri negera 1.0000000
Digitalisasi Digitalisasi 1.0000000
pusatnya punjere 1.0000000
Fina Fina 1.0000000
Jumat Jemuah 1.0000000
KM KM 1.0000000
lahir lair 1.0000000
viral viral 1.0000000
seni seni 1.0000000
kebutuhannya kabutuhane 1.0000000
kesejahteraan nyejahteraake 1.0000000
Palawan Palawan 1.0000000
tolong tulung 1.0000000
Pariwisata Sadar 1.0000000
kelahirannya kelairane 1.0000000
dalam jero 1.0000000
harimau macan 1.0000000
sebagainya sapiturue 1.0000000
nilai biji 1.0000000
awet awet 1.0000000
berpenghuni malati 1.0000000
Sentana Sentana 1.0000000
halaman pekarangane 1.0000000
kriya kriya 1.0000000
Harus Kudu 1.0000000
akademisi akademisi 1.0000000
kali pindho 0.6666667
kedua pindho 0.3333333
laku payu 1.0000000
jelas jelas 1.0000000
Umurnya Umure 1.0000000
langsung langsung 1.0000000
seperti awujud 0.5000000
berupa awujud 0.5000000
tempe pethek 0.5000000
asin pethek 0.5000000
hatinya atine 1.0000000
Rizal Rizal 1.0000000
Pancasila Pancasila 1.0000000
Stefani Stefani 1.0000000
ndesa Setu 0.5000000
Sabtu Setu 0.5000000
pemerintah pamarentah 1.0000000
bermonolog monolog 1.0000000
sanksinya sanksine 1.0000000
besar ngising 0.3333333
air ngising 0.3333333
buang ngising 0.3333333
asing manca 0.3333333
negara manca 0.3333333
luar manca 0.3333333
40 40 1.0000000
melakukan nglakoke 1.0000000
permintaan pangandikan 1.0000000
University Sebelas 0.1666667
Sebelas Sebelas 0.8333333
dikeluarkan dimetokake 1.0000000
memperkenalkan nepungake 1.0000000
Anugerah Anugerah 1.0000000
pendopo pendhapa 1.0000000
bagusnya apike 0.5000000
sebaiknya apike 0.5000000
Jerman Jerman 1.0000000
keputusan keputusan 1.0000000
dibangun dibangun 1.0000000
lugu polos 1.0000000
Putri Putri 1.0000000
termasuk kalebu 1.0000000
dipenuhi dikebeki 1.0000000
dinamakan dijenengake 1.0000000
coraknya corake 1.0000000
satunya sawijing 0.3333333
satu sawijing 0.6666667
peserta peserta 1.0000000
KBM KBM 1.0000000
canting canthing 1.0000000
dana dana 1.0000000
daerah laladan 1.0000000
adiknya adhine 1.0000000
bunga kembang 0.1428571
kembang kembang 0.1428571
menyalakan kembang 0.1428571
petasan kembang 0.5714286
noda noda 1.0000000
lucu lucu 1.0000000
untuk murih 1.0000000
takutnya wedine 1.0000000
wujud wujud 0.2000000
bentuk wujud 0.8000000
Retno Retno 1.0000000
Pengembangan Pemajuan 1.0000000
pembangunan wewangunan 1.0000000
terengah-engah megap-megap 1.0000000
pencegahan panyedhakan 1.0000000
Namun Nanging 0.6666667
Tapi Nanging 0.3333333
praktisi praktisi 1.0000000
tujuannya ancase 1.0000000
boneka boneka 1.0000000
ditimbun ditumpuk 1.0000000
terlacak kadulu 1.0000000
macam-macam macem-macem 1.0000000
percaya ngandel 1.0000000
bekerjasama tembayatan 1.0000000
sedangkan Wondene 1.0000000
ketakutan keweden 1.0000000
ditetapkan dibiwarakake 1.0000000
batik mbathik 0.3333333
membatik mbathik 0.3333333
membuat mbathik 0.3333333
termasuk jangkep 1.0000000
bagi kanggone 0.3333333
efektif kanggone 0.1666667
untuk kanggone 0.3333333
puisi kanggone 0.1666667
entah embuh 1.0000000
1 1 1.0000000
dimenangkan dimenangna 1.0000000
menjadi ndadi 1.0000000
kajian kajian 1.0000000
sembarang sembarangan 1.0000000
dana danane 1.0000000
virus virus 1.0000000
terhadap adhep 1.0000000
Berhati-hatilah ngati-ati 0.5000000
berhati-hati ngati-ati 0.5000000
pemain pemain 1.0000000
ingin kepengin 1.0000000
panjang dawa 0.5000000
memanjang dawa 0.5000000
Kelompok Kelompok 0.5000000
Pariwisata Kelompok 0.5000000
ditulis katulis 0.5000000
tertulis katulis 0.5000000
siswanya muride 1.0000000
Oesman Oesman 1.0000000
quinine quinine 1.0000000
Presiden Presiden 1.0000000
Suryanto Suryanto 1.0000000
penghuninya pepundhen 0.2000000
dianggap pepundhen 0.2000000
tempat pepundhen 0.2000000
yang pepundhen 0.2000000
ada pepundhen 0.2000000
keturunan turune 1.0000000
makna maksud 0.3333333
tujuan maksud 0.3333333
dengan maksud 0.3333333
Zidan Zidan 1.0000000
Karya Karya 1.0000000
Cirebon Cirebon 1.0000000
kulit kuli 1.0000000
memukul nabuh 0.5000000
memainkan nabuh 0.5000000
trauma trauma 1.0000000
damai guyub 1.0000000
Sesajen Sesajen 1.0000000
Anggota Majelis 1.0000000
dimakan dipangan 1.0000000
menanggapi nanggapi 1.0000000
istimewa istimewa 1.0000000
Maskumambang Maskumambang 1.0000000
karena amargi 0.6666667
dikarenakan amargi 0.3333333
percaya precaya 1.0000000
bola bola 1.0000000
muda nom-nomane 0.5000000
anak nom-nomane 0.5000000
psikologi psikologi 1.0000000
membawa nintingi 1.0000000
pantai pantai 1.0000000
panggung panggung 1.0000000
agama agama 1.0000000
Vivi Vivi 1.0000000
gudang gudang 1.0000000
favorit favorit 1.0000000
pencegahan Pencegahan 1.0000000
ditulis diserat 1.0000000
Warayagya Warayagya 1.0000000
melalui sarana 0.1111111
sarana sarana 0.8888889
Cabang Cabang 1.0000000
di didu 0.5000000
adu didu 0.5000000
berkunjung nyadran 1.0000000
kuat kuat 1.0000000
pernyataan Pratelan 1.0000000
dikerjakan digarap 0.3333333
dibuat digarap 0.3333333
dilakukan digarap 0.3333333
menari njoged 1.0000000
lewat lewat 1.0000000
Andika Andika 1.0000000
dibandingkan ketimbang 1.0000000
melahirkan nglairake 1.0000000
bagi pepati 0.5000000
kematian pepati 0.5000000
Korea Korea 0.5000000
korea Korea 0.5000000
Ca Ca 1.0000000
Karena Soale 1.0000000
kepandaian kapinteran 1.0000000
Budaya Kebudayaan 0.1250000
Kebudayaan Kebudayaan 0.8750000
abad abad 1.0000000
Campursari Campursari 1.0000000
lulus lulus 1.0000000
aturan-aturan aturan-aturan 1.0000000
tapi nanging 0.0163934
namun nanging 0.6065574
Tapi nanging 0.0163934
tetapi nanging 0.3606557
yaitu yakuwi 1.0000000
rumus formula 1.0000000
menurut kandhane 0.0163934
ucapan kandhane 0.0163934
pernyataannya kandhane 0.0163934
katanya kandhane 0.6721311
kata kandhane 0.2622951
Kata kandhane 0.0163934
beberapa sacacah 1.0000000
kebunnya kebone 1.0000000
manual manual 1.0000000
kain Jarik 1.0000000
melarang nglarang 1.0000000
pasangannya pasangane 1.0000000
macam-macam uba 1.0000000
Sari Sari 1.0000000
kadang kadhangkala 0.2500000
terkadang kadhangkala 0.5000000
Kadang-kadang kadhangkala 0.2500000
wartawan wartawan 0.6666667
sudah wartawan 0.3333333
Agasta Agasta 1.0000000
Katak Kodhok 1.0000000
tengah tengah 1.0000000
sutradara penyutradaraan 1.0000000
120 120 1.0000000
Jadwal Jadwal 1.0000000
watak angsar 1.0000000
seluruh saindhenging 1.0000000
sedang pindhah-pindhah 0.3333333
jika pindhah-pindhah 0.3333333
mereka pindhah-pindhah 0.3333333
menampilkan ngepyakake 1.0000000
Fakultas Fakultas 1.0000000
catatan cathetan 1.0000000
terlanjur kadhung 1.0000000
sesuai manut 0.5000000
mematuhi manut 0.5000000
anak para 0.1212121
leluhur para 0.0303030
pencinta para 0.0606061
para para 0.6666667
murid-muridnya para 0.0303030
, para 0.0303030
kaum para 0.0303030
kepada para 0.0303030
dijaga dijaga 1.0000000
aturan aturan 1.0000000
Si Si 1.0000000
saat waktu 1.0000000
2018 2018 1.0000000
mendidik ndhidhik 1.0000000
pewarnanya pewarnane 1.0000000
Ambathik Ambathik 1.0000000
merokok udud 1.0000000
Karena Amarga 1.0000000
itu ancas 1.0000000
panutan panutan 1.0000000
sudah yawis 1.0000000
paling palingan 1.0000000
100 100 1.0000000
diarahkan diarahake 1.0000000
melewati ngliwati 1.0000000
Guci Guci 1.0000000
diambil Kajupuk 1.0000000
cepat cepet 1.0000000
berpikir mikir 1.0000000
jalan-jalan mlaku-mlaku 0.5000000
berjalan mlaku-mlaku 0.5000000
Congwayndut Congwayndut 1.0000000
Nah Nah 1.0000000
meja meja 1.0000000
selalu terus 0.2000000
terus terus 0.8000000
CCI CCI 1.0000000
Amerika Amerika 1.0000000
hamil meteng 1.0000000
menular ditularake 1.0000000
tergantung gumantung 1.0000000
melihat nyawang 1.0000000
dokumennya dokumene 1.0000000
Yogyakarta yogyakarta 1.0000000
19 19 1.0000000
DJ DJ 1.0000000
diumpamakan dipadhakake 1.0000000
dipenuhi dikebaki 1.0000000
merekam ngrekam 1.0000000
Rendra Rendra 0.8000000
Renda Rendra 0.2000000
kepala endhas 0.8571429
Kepala endhas 0.1428571
Srikandi Srikandhi 0.3333333
Srikandhi Srikandhi 0.6666667
hidangan pasuguhan 1.0000000
Burma Burma 1.0000000
jemput jemput 1.0000000
ketika Orde 0.5000000
Orde Orde 0.5000000
Mas Mas 1.0000000
ruang ruang 1.0000000
wilayah wilayah 1.0000000
kekuatan daya 1.0000000
Walikota Kota 0.2500000
Kota Kota 0.7500000
sedikit sumadya 1.0000000
Awards Awards 1.0000000
Tak Tak 1.0000000
alami alami 1.0000000
bukti bukti 0.6666667
buktikan bukti 0.3333333
dari fiksi 0.3333333
fiksi fiksi 0.6666667
begitu mengkono 1.0000000
yang bocah 0.0333333
kecil bocah 0.0666667
menyampaikan bocah 0.0333333
pemuda bocah 0.0333333
kepada bocah 0.0333333
anak-anaknya bocah 0.0333333
anak-anak bocah 0.1000000
anak bocah 0.6666667
kepada Ibu 0.3333333
ibu Ibu 0.3333333
Ibu Ibu 0.3333333
itu Mulane 0.5000000
Sebab Mulane 0.5000000
suaranya suwarane 1.0000000
Telkom Telkom 1.0000000
sepertinya janjane 1.0000000
Gusti Gusti 0.3333333
Tuhan Gusti 0.6666667
bersumber asumber 1.0000000
ayam iwak 0.5000000
ikan iwak 0.5000000
kekuatan kekuwataning 1.0000000
melanggar nglanggar 1.0000000
Alasannya Alasane 0.5000000
 Alasane 0.5000000
dicegah dileremake 1.0000000
bentuk bentuk 1.0000000
kabupaten kabupaten 1.0000000
mencuci mbasuh 1.0000000
sikap patrap 0.6666667
yang patrap 0.3333333
tutur tutur 1.0000000
kalori kalori 1.0000000
di syukur 0.5000000
bersyukur syukur 0.5000000
Disitu kono 1.0000000
diisi diisi 1.0000000
sastra sastra 1.0000000
Soerya Soerya 0.5000000
Sanggar Soerya 0.5000000
penulisnya penulise 1.0000000
keadilan keadilan 1.0000000
oleh tinunggu-tunggu 0.3333333
sangat tinunggu-tunggu 0.3333333
ditunggu-tunggu tinunggu-tunggu 0.3333333
secara kanthi 0.0232558
berbentuk kanthi 0.0232558
harus kanthi 0.0232558
sampai kanthi 0.0232558
dikenal kanthi 0.0232558
dengan kanthi 0.7906977
sangat kanthi 0.0232558
matahari kanthi 0.0232558
hingga kanthi 0.0465116
masa rencana 1.0000000
Puspita Puspita 1.0000000
Mencuri Nyolong 1.0000000
sawah sawah 1.0000000
Puntadewa Puntadewa 1.0000000
saingannya tandhingane 1.0000000
ramai mampyor 1.0000000
level level 1.0000000
perasaan perasaan 1.0000000
disusun ditata 1.0000000
contoh tuladha 1.0000000
Grup grup 0.2000000
grup grup 0.8000000
diganggu diganggu 1.0000000
Ba Ba 1.0000000
biasanya lumrahe 1.0000000
sempoyongan terhuyung-huyung 1.0000000
dihafal diapali 1.0000000
ditambahkan ditambahi 0.5000000
diperbanyak ditambahi 0.5000000
longsor longsor 1.0000000
tua tuwa 1.0000000
sejauh seadoh 1.0000000
bahan Bahan-bahan 1.0000000
mempersilahkan nyumanggakake 1.0000000
pertama kapisan 1.0000000
Millen Millen 1.0000000
berjudul judhule 0.3333333
Judulnya judhule 0.6666667
mengambil nyandhak 1.0000000
dengan dipadhakke 0.5000000
disamakan dipadhakke 0.5000000
pasien pasien 1.0000000
pemutih pamutih 1.0000000
modal paitan 1.0000000
Harapannya pangajabe 0.5000000
harapan pangajabe 0.5000000
pinang pinang 1.0000000
sekolahan sekolahan 0.5000000
sekolah sekolahan 0.5000000
iklim iklim 1.0000000
jus jus 1.0000000
menghadapi gadhepi 1.0000000
bioskop bioskop 1.0000000
benar-benar bener-bener 1.0000000
santun santun 1.0000000
Studio Studio 1.0000000
yang kaancam 0.5000000
terancam kaancam 0.5000000
tahun warsa 0.5000000
ulang warsa 0.5000000
ditambah ditambah 1.0000000
roh dening 0.0270270
oleh dening 0.9189189
dibantu dening 0.0270270
diterima dening 0.0270270
krama krama 0.6666667
santun krama 0.3333333
Nia Nia 1.0000000
festival pesta 1.0000000
halus alus 0.5000000
lembut alus 0.5000000
40 42 1.0000000
pegunungan panggunungan 1.0000000
anaknya anake 1.0000000
kolosal kolosal 1.0000000
dipadukan dicampur 1.0000000
Garuda Garuda 1.0000000
sepuluh sepuluh 1.0000000
dirangkul dirangkul 1.0000000
menghabiskan ngentengna 1.0000000
digoreng digoreng 1.0000000
pesawat pesawat 1.0000000
Tionghoa Tionghoa 0.1666667
tionghoa Tionghoa 0.0555556
Cina Tionghoa 0.7222222
Jawa-Cina Tionghoa 0.0555556
tentu Ewandene 0.5000000
saja Ewandene 0.5000000
Setiabudi Setiabudi 1.0000000
pendeta pandhita 1.0000000
dialih dialih 1.0000000
gratis gratis 1.0000000
1900-an 1900-an 1.0000000
kan kan 0.6666667
kerusuhan kan 0.3333333
mumpuni mumpuni 1.0000000
menguji nyoba 0.1250000
mencoba nyoba 0.2500000
berusaha nyoba 0.5000000
untuk nyoba 0.1250000
Budaya Kabudayan 1.0000000
nilai-nilai nilai 0.5000000
nilai nilai 0.5000000
daun dong 1.0000000
malam wengi 0.8750000
larut wengi 0.1250000
membersihkan ngresiki 1.0000000
saat wayahe 0.5000000
saatnya wayahe 0.5000000
regenerasi regenerasi 1.0000000
kepepet kepepet 0.5000000
hanya kepepet 0.5000000
siswa murid 0.4285714
murid murid 0.5714286
hasil karyane 1.0000000
kapur kapur 1.0000000
RI RI 1.0000000
untuk ditugasake 0.5000000
ditugaskan ditugasake 0.5000000
menjelaskan ngandharake 0.1315789
membahas ngandharake 0.0263158
mengklaim ngandharake 0.0263158
mengatakan ngandharake 0.8157895
kalinya kepindho 0.5000000
kedua kepindho 0.5000000
Internasional internasional 1.0000000
menjelaskan njlentrehake 1.0000000
upacara adicara 0.0666667
acara adicara 0.9333333
diberi ditugasi 0.5000000
tugas ditugasi 0.5000000
lingkungan kalang 1.0000000
rokok rokok 1.0000000
kirab kirab 1.0000000
metal metal 1.0000000
pendapat pamikir 1.0000000
setiap iki 0.0256410
ini iki 0.8717949
tersebut iki 0.0256410
NULL iki 0.0256410
itu iki 0.0512821
amit permisi 1.0000000
namanya jenenge 1.0000000
tempat papan 0.6666667
papan papan 0.3333333
membangun amangun 1.0000000
gunung gudung 1.0000000
Indrawan Indrawan 1.0000000
Orang Wong 1.0000000
tahun Rebecca 1.0000000
Anakmu Anakmu 1.0000000
keadaan kahanan 0.4000000
kondisi kahanan 0.4000000
Situasi kahanan 0.2000000
potensi potensi 1.0000000
tajam bisa 0.0114943
bisa bisa 0.5632184
dapat bisa 0.3678161
beriringan bisa 0.0114943
pegangan bisa 0.0114943
boleh bisa 0.0229885
berhasil bisa 0.0114943
? ? 1.0000000
berlarinya mlayune 1.0000000
perayaan pengetan 0.1428571
peringatan pengetan 0.8571429
berkembang ngrembaka 1.0000000
1960 1960 1.0000000
error error 1.0000000
Wonogiri Wonogiri 1.0000000
semakin sansaya 1.0000000
Pagongan Pagongan 1.0000000
di ning 0.5000000
jika ning 0.2500000
ada ning 0.2500000
bawang brambang 0.5000000
merah brambang 0.5000000
Suwadi Suwadi 1.0000000
membeda-bedakan mbedak-mbedakake 0.5000000
membedakan mbedak-mbedakake 0.5000000
menggambarkan nggambarake 1.0000000
menuju nuju 1.0000000
pekerjaan pagaweyan 1.0000000
pekerjaannya pakaryane 1.0000000
pemandu pamandu 1.0000000
mungkin mungkin 1.0000000
pemimpinannya mimpin 0.2500000
memimpin mimpin 0.5000000
di mimpin 0.2500000
berdiri ngadek 1.0000000
gerakan-gerakan beksan-beksan 1.0000000
Ini Iki 1.0000000
dilihat dideleng 1.0000000
lomba Kompetisi 1.0000000
ISI ISI 1.0000000
Pemenang Pemenang 1.0000000
mewujudkan mujudake 1.0000000
dan tur 1.0000000
Wedokan Wedokan 1.0000000
13 13 1.0000000
steril steril 1.0000000
naskah kitab 0.0769231
kitab kitab 0.6923077
buku kitab 0.2307692
nada nada 1.0000000
wanita wedhok 1.0000000
membasuh ngumbah 0.2500000
dicuci ngumbah 0.2500000
mencuci ngumbah 0.5000000
membantu ngewangi 1.0000000
tetangga tangga 1.0000000
bawakan gawane 1.0000000
Sragen Sragen 1.0000000
Dubai Dubai 1.0000000
Kethoprak kethoprak 0.0526316
ketoprak kethoprak 0.0526316
kethoprakk kethoprak 0.0526316
kethoprak kethoprak 0.8421053
menggantikannya nggenteni 1.0000000
keinginan kekarepan 0.5000000
Ketertarikannya kekarepan 0.5000000
Sudiroprajan Sudiroprajan 1.0000000
menumbuhkan nuwuhake 1.0000000
bersenandung rengeng-rengeng 1.0000000
terbentuk kebentuk 1.0000000
gusi gusi 1.0000000
Wayang Wayang 1.0000000
barat kulon 1.0000000
zaman jaman 0.7058824
kemajuan jaman 0.0294118
jaman jaman 0.1764706
dengan jaman 0.0294118
waktu jaman 0.0588235
merupakan minangka 0.1489362
adalah minangka 0.1489362
menurut minangka 0.0212766
sebagai minangka 0.5106383
jabatan minangka 0.0212766
seperti minangka 0.0212766
menjadi minangka 0.1276596
Selain Saliyane 1.0000000
Susu Susu 0.5000000
dan Susu 0.5000000
menjaga gumregut 1.0000000
Sudarsono Sudarsono 1.0000000
sulit angel 1.0000000
harinya dinane 1.0000000
lapar luwe 1.0000000
Cafe Cafe 1.0000000
mendaftar dhaftar 1.0000000
Nendra Nendra 1.0000000
rukun rukun 1.0000000
diucapkan diomongke 1.0000000
tema tema 1.0000000
Kusumo Soemirat 0.1666667
GPH Soemirat 0.1666667
Soemirat Soemirat 0.6666667
pedesaan padesan 1.0000000
tetap tetap 1.0000000
sebenarnya sangka 1.0000000
Hantu Hantu 1.0000000
wajib wajib 1.0000000
satunya sijine 0.7000000
satu sijine 0.3000000
700 700 1.0000000
berusaha ngupiya 0.5000000
supaya ngupiya 0.5000000
mengenal ngenal 1.0000000
biar ben 0.2000000
bersih ben 0.2000000
agar ben 0.4000000
supaya ben 0.2000000
dua-duanya loro-lorone 1.0000000
nasi Nasi 1.0000000
Kino Kino 1.0000000
batasnya watese 1.0000000
St St 0.5000000
di St 0.5000000
kuasa kuwasa 0.5000000
penuh kuwasa 0.5000000
setara barengan 1.0000000
memiliki duwe 0.8095238
mempunyai duwe 0.1428571
pasti duwe 0.0238095
punya duwe 0.0238095
Mada Mada 1.0000000
bencana bala 1.0000000
dikatakan dikandhani 0.5000000
diberitahu dikandhani 0.5000000
Taman Taman 1.0000000
tertentu tartamtu 1.0000000
karakter watak 1.0000000
busana busana 0.5000000
Fashion busana 0.5000000
peneliti panaliten 0.2500000
penelitian panaliten 0.7500000
membela mbela 1.0000000
Punakawan Punakawan 1.0000000
Minggu Minggu 1.0000000
singkong pohung 1.0000000
Ancaman Ancaman 1.0000000
penelitian panliten 1.0000000
dan apadene 1.0000000
kelompok rombongan 1.0000000
dongeng dongeng 0.9565217
merekam dongeng 0.0434783
menjelaskan njlentrekake 1.0000000
hidup uripe 0.5000000
hidupnya uripe 0.5000000
rumahnya yektine 1.0000000
45 45 1.0000000
diubah-ubah diowah-owah 1.0000000
ilegal ilegal 1.0000000
pemikirannya pemikirane 1.0000000
kuno pujangga 0.3333333
penyair pujangga 0.6666667
artikel tulisan-tulisan 1.0000000
penggemar penggemar 1.0000000
Blebes Blebes 1.0000000
terus trus 0.5000000
jadi trus 0.5000000
maju kruyukan 1.0000000
mudah gampang 0.8421053
sederhana gampang 0.0526316
sangatlah gampang 0.0526316
gampang gampang 0.0526316
suku suku 1.0000000
utuh wutuh 1.0000000
toko toko 1.0000000
Desinfektan Disinfektan 1.0000000
Dinda Dinda 1.0000000
disimpan kasimpen 1.0000000
Pakubuwana Pakubuwana 1.0000000
rasanya rasane 1.0000000
lidah ilat 1.0000000
persyaratan sarat 1.0000000
bersih merti 1.0000000
gunung gunungan 0.3333333
tumpukkan gunungan 0.6666667
kuota kuota 1.0000000
maaf pangapura 1.0000000
mereka kuwi 0.0333333
adalah kuwi 0.0666667
itu kuwi 0.7666667
saat kuwi 0.1000000
ini kuwi 0.0333333
lagu-lagu Tembang-tembange 1.0000000
pisang gedhang 1.0000000
sebenarnya jan-jane 1.0000000
Yifei Yifei 1.0000000
jauh adoh 1.0000000
tanah tanah 1.0000000
mengucapkan ngucapake 1.0000000
budaya Budaya 0.2000000
Budaya Budaya 0.8000000
meningkat ningkat 1.0000000
sukses sukses 0.5000000
kesuksesan sukses 0.2500000
berhasil sukses 0.2500000
berusaha ngupaya 1.0000000
menyambut mapag 1.0000000
by by 1.0000000
berkumpulnya kumpule 1.0000000
Kembang Kembang 1.0000000
pakar-pakar pakar-pakar 1.0000000
maksimal maksimal 1.0000000
bingung mbingungi 0.5000000
membuat mbingungi 0.5000000
mengulangi mutrani 1.0000000
menjaga ngleluri 0.5000000
melestarikan ngleluri 0.2500000
menggeluti ngleluri 0.2500000
moderen modheren 0.1250000
modern modheren 0.8750000
mengikuti meloni 1.0000000
dalamnya njerone 1.0000000
25 25 1.0000000
Shankara Shankara 1.0000000
nafsu nepsu 1.0000000
Buta Buta 1.0000000
perginya ngendi 0.3333333
mana ngendi 0.6666667
dasar dasar 1.0000000
materi materi 1.0000000
biaya biaya 1.0000000
seperti ngono 0.4000000
memang ngono 0.1000000
itu ngono 0.4000000
begitu ngono 0.1000000
pembantaian geger 1.0000000
mengandalkan ngendel-endelake 1.0000000
pencak pencak 1.0000000
membahas ngrembug 1.0000000
diciptakan sinuwun 1.0000000
Satrio Satrio 1.0000000
Ignatian Ignasia 0.5000000
Ignasian Ignasia 0.5000000
titik titimangsane 1.0000000
permohonan dedonga 1.0000000
sembilan songo 1.0000000
diterjemahkan basa 0.0416667
Bahasa basa 0.0833333
bahasa basa 0.8333333
Basa basa 0.0416667
arang areng 1.0000000
Walikota Wali 1.0000000
desa kelurahan 1.0000000
betina tawon 0.0714286
tawon tawon 0.4285714
Tawon tawon 0.0714286
lebah tawon 0.4285714
pergi menyang 0.2800000
Kemanapun menyang 0.0400000
ke menyang 0.5600000
kepada menyang 0.1200000
pengusaha pengusaha 1.0000000
didalam jajan 0.5000000
kue jajan 0.5000000
singgahnya panggone 0.5000000
tempatnya panggone 0.5000000
macapatan macapatan 1.0000000
murid siswa 0.3333333
siswa siswa 0.6666667
akal judheg 0.5000000
kehabisan judheg 0.5000000
sudah wus 1.0000000
merah ngandung 0.5000000
mengandung ngandung 0.5000000
Ambya Ambya 1.0000000
UKM UKM 1.0000000
batik Bhatik 1.0000000
teman kanca 1.0000000
tepat tepat 1.0000000
sukerta sukerta 1.0000000
busuk bosok 1.0000000
padepokan-padepokan padhepokan-padhepokan 1.0000000
Habibie Habibie 1.0000000
Bogor Bogor 0.5000000
pada Bogor 0.2500000
bogor Bogor 0.2500000
kesusahan kangelan 0.5000000
kesulitan kangelan 0.5000000
dicuci diwisuh 1.0000000
pelajaran kawruh 0.5000000
pengetahuan kawruh 0.5000000
diabetes diabetes 1.0000000
penyebaran panyebaran 1.0000000
soal soal 1.0000000
rusak rusak 1.0000000
ditemui ditemokake 0.5000000
ditemukan ditemokake 0.5000000
resep resep 1.0000000
Wiyono Wiyono 1.0000000
acuh crah 1.0000000
Anak Anak 1.0000000
mengeluarkan ngetoke 1.0000000
Bagas Bagas 1.0000000
bentuk cakrik 1.0000000
hafal apal 0.3333333
pandai apal 0.3333333
dikuasai apal 0.3333333
hal prekara 1.0000000
MTA MTA 1.0000000
pemilih pilih-pilih 1.0000000
rilis rilis 1.0000000
Strawberry Stroberi 1.0000000
tari nari 0.5000000
menari nari 0.5000000
menjadi dadi 0.7741935
sehingga dadi 0.0322581
jadi dadi 0.1129032
Negeri dadi 0.0161290
pemeran dadi 0.0161290
memnjadi dadi 0.0161290
semakin dadi 0.0161290
adalah dadi 0.0161290
berpergian panggonan 0.3333333
tempat panggonan 0.6666667
harusnya kudune 0.6000000
seharusnya kudune 0.4000000
Tantri Tantri 1.0000000
Dwi Dwi 1.0000000
diterapkan ditrepake 0.8000000
diulang ditrepake 0.2000000
menyebarkan Nyebar 1.0000000
dipentaskan dipentaske 1.0000000
keliling nganglang 0.3333333
bahkan nganglang 0.3333333
pindah nganglang 0.3333333
saat nalika 0.2289157
ketika nalika 0.7108434
pada nalika 0.0361446
dulu nalika 0.0120482
jika nalika 0.0120482
diteruskan diterusake 1.0000000
manis-manis legi-legi 1.0000000
tisu tisu 1.0000000
pembukaan pambukane 1.0000000
keindahan kaendahan 1.0000000
canggih canggih 1.0000000
teman-temannya kanca-kancane 1.0000000
Wiswakarman Wiswakarman 1.0000000
keroncong Keroncong 1.0000000
piala piala 1.0000000
setuju setuju 1.0000000
mentah mentah 1.0000000
sebelum sakdurunge 0.6000000
sebelumnya sakdurunge 0.4000000
yang kepungkur 0.2105263
lalu kepungkur 0.6315789
kebelakang kepungkur 0.0526316
terakhir kepungkur 0.0526316
kemarin kepungkur 0.0526316
aku aku 0.6333333
saya aku 0.3666667
26 26 1.0000000
diragukan diragukan 1.0000000
kertas kertas 1.0000000
berdiskusi rembugan 1.0000000
3 3 1.0000000
materinya materine 1.0000000
Orde Baru 0.3333333
Baru Baru 0.6666667
2006 2006 1.0000000
ulap-ulap ulap-ulap 1.0000000
arogan umuk 1.0000000
paham pangerten 1.0000000
Gumiho Gumiho 1.0000000
Rembang Rembang 1.0000000
BRI Bri 1.0000000
permen permen 1.0000000
menarik narik 1.0000000
kayu kayu 1.0000000
influenza influenza 1.0000000
ke-100 kaping-100 1.0000000
Sura Sura 1.0000000
siswa Murid 1.0000000
mengatur ngatur 0.5000000
mengelola ngatur 0.5000000
kerabat sanak 1.0000000
dua Rung 1.0000000
umumnya umume 1.0000000
menulis nulis 1.0000000
Sania Sania 1.0000000
doa donga 1.0000000
dipelajari disinau 1.0000000
budayawan budayawan 1.0000000
terhadap winates 0.5000000
terbatas winates 0.5000000
selama suwene 0.5000000
lamanya suwene 0.5000000
single single 1.0000000
baju sandhangan 0.5000000
tambahan sandhangan 0.5000000
tahun tahun 0.7142857
1986 tahun 0.1428571
itu tahun 0.1428571
kaitannya sambung 1.0000000
inspirasi inspirasi 1.0000000
60 60 1.0000000
terluka cilaka 1.0000000
selalu tansah 1.0000000
kebanyakan akeh-akeh 1.0000000
pengucapannya pocapane 1.0000000
percaya nganut 1.0000000
memenuhi nyukupi 1.0000000
desa-desa desa-desa 1.0000000
batuk batuk 1.0000000
bersuara nyuwara 0.6666667
suara nyuwara 0.3333333
lomba lomba 0.8750000
lari lomba 0.1250000
keluarga kaluwarga 1.0000000
sore sonten 1.0000000
Jenderal Jenderal 1.0000000
keluar metu 1.0000000
dibedakan dibedakake 1.0000000
bagian perangan 1.0000000
memahami mangerteni 1.0000000
murid-murid murid-murid 1.0000000
telah nampani 0.5000000
menyambutnya nampani 0.5000000
taman taman 1.0000000
menekankan negesake 0.3333333
menegaskan negesake 0.6666667
mendaftarkan ndhaptarake 1.0000000
keamanan keamanan 1.0000000
bercampur cawuh 1.0000000
termasuk kapiji 1.0000000
gizi gizi 1.0000000
Ajisaka Ajisaka 1.0000000
narkoba narkoba 1.0000000
Widyaloka Widyaloka 1.0000000
peserta pamawa 1.0000000
sikat sikat 1.0000000
guru Guru 1.0000000
melakukan nglakoni 1.0000000
kulit kulit 1.0000000
rutin ajeg 0.3333333
tetap ajeg 0.6666667
berbaris dharik 1.0000000
sekitar kira-kira 1.0000000
jenis jinis 0.9583333
tumbuhan jinis 0.0416667
ditulis diripta 0.5000000
diciptakan diripta 0.5000000
melestarikan nglestarekake 1.0000000
gitaris gitaris 1.0000000
sungguh-sungguh greged 0.3333333
semangat greged 0.3333333
baik greged 0.3333333
menyatu yawiji 1.0000000
manca nagara 0.2500000
Negara nagara 0.2500000
negara nagara 0.5000000
obat-obatan obat-obatan 1.0000000
mengiringi ngiringi 0.5000000
mengiringinya ngiringi 0.5000000
bawah ngisor 1.0000000
kerupuknya kerupuke 1.0000000
dimiliki dinduweni 1.0000000
hutan gegrumbulan 1.0000000
Perdamaian Damai 1.0000000
saja ngendi-ngendi 0.1666667
berasal ngendi-ngendi 0.1666667
kemana-mana ngendi-ngendi 0.5000000
mana ngendi-ngendi 0.1666667
Ga Ga 1.0000000
terkait karo 0.0156250
dibenci karo 0.0312500
mematuhi karo 0.0156250
bersama karo 0.1875000
ditunggu-tunggu karo 0.0156250
Safitri karo 0.0156250
bersamaWiwid karo 0.0156250
NULL karo 0.0156250
Arin karo 0.0156250
dengan karo 0.6562500
denga karo 0.0156250
berfungsi berfungsi 1.0000000
TPA TPA 1.0000000
kerajaan kerajaan 1.0000000
awan awan 0.5000000
siang awan 0.5000000
memperkenalkan nepangake 1.0000000
kerap kerep 0.0370370
akan kerep 0.1111111
sering kerep 0.8518519
Grup Grup 1.0000000
Sastra Sastra 0.7500000
sastra Sastra 0.2500000
nyata cetha 0.2500000
jelas cetha 0.7500000
sehingga saengga 0.8000000
Akibatnya saengga 0.2000000
Penolakan Penolakan 1.0000000
Sekretaris Sekretaris 1.0000000
Jepang Jepang 1.0000000
laminasi laminasi 1.0000000
kesadaran kaskaya 1.0000000
berhenti mandeg 0.2500000
henti mandeg 0.7500000
makna makna 1.0000000
hewan gegremetan 1.0000000
membayar mbayar 1.0000000
Berseri Berseri 1.0000000
dibenarkan dibenerake 1.0000000
boleh kena 0.6666667
sakit kena 0.3333333
belum grothal-grathul 0.5000000
lancar grothal-grathul 0.5000000
imam Imam 0.1428571
Imam Imam 0.8571429
Wayang wayang 0.0303030
wayang wayang 0.9696970
kecap kecap 1.0000000
pilihan pilehan 1.0000000
membantu nyengkuyung 0.2000000
pendiri nyengkuyung 0.2000000
memimpin nyengkuyung 0.2000000
berpartisipasi nyengkuyung 0.2000000
mendukung nyengkuyung 0.2000000
mencari nggoleki 1.0000000
melayani nglayani 1.0000000
membela mbelani 1.0000000
sembari sambi 0.2000000
sambil sambi 0.8000000
seenaknya sakpenake 1.0000000
gurunya gurune 1.0000000
karakter wewatakan 1.0000000
mengurangi ngurangi 1.0000000
pengalamannya pengalamane 1.0000000
rumput suket 1.0000000
masanya kalane 1.0000000
akustik akustik 1.0000000
senang betah 1.0000000
musiknya musike 1.0000000
Tradisional Tradisi 0.5000000
Tradisi Tradisi 0.5000000
dipanaskan dipanaske 1.0000000
tinggi duwur 1.0000000
pernikahan nikah 1.0000000
masalah masalah 1.0000000
mengeluarkan nerbitake 1.0000000
diserap diudhar 1.0000000
berdiri ngadeg 1.0000000
ras ras 1.0000000
ditulis mrejit 1.0000000
puskesmas puskesmas 1.0000000
berpisah pisah 1.0000000
pinggiran pinggir 1.0000000
pentingnya wigatine 1.0000000
wilayah tlatah 1.0000000
terbagi kaperang 1.0000000
Etnomusikologi Etnomusikologi 1.0000000
Saya Aku 0.7500000
saya Aku 0.2500000
dibantu disengkuyung 0.2500000
didukung disengkuyung 0.2500000
saling disengkuyung 0.2500000
dilakukan disengkuyung 0.2500000
dipercaya dipercaya 1.0000000
The The 1.0000000
budaya budaya 0.9500000
bahasa budaya 0.0250000
Budaya budaya 0.0250000
keinginan karepe 1.0000000
rengginang rengginang 1.0000000
mengandalkan ngandhelake 1.0000000
kadang kadang 0.2500000
kerabat kadang 0.2500000
petani kadang 0.2500000
anak kadang 0.2500000
bawang bawang 1.0000000
terlihat katone 1.0000000
Penjajah Bumiraja 1.0000000
direktur Sutradara 0.5000000
sutradara Sutradara 0.5000000
Nita Nita 1.0000000
Radio Radio 1.0000000
Kinanthi Kinanthi 1.0000000
bersih-bersih resik-resik 0.6666667
adalah resik-resik 0.3333333
alas landhesan 1.0000000
Maret Maret 0.6666667
Eleven Maret 0.1111111
maret Maret 0.2222222
Undang-Undang Undang-Undang 1.0000000
tekanan tekanan 1.0000000
March FKIP 0.2500000
FKIP FKIP 0.7500000
Wisma Wisma 0.6666667
Pendapa Wisma 0.3333333
kotoran rereget 1.0000000
contohnya Tuladhane 0.5000000
contoh Tuladhane 0.5000000
Luar istana 0.5000000
istana istana 0.5000000
mungkin mokal 0.5000000
tidak mokal 0.5000000
berkembang sumrambyah 1.0000000
pintar cerdas 0.5000000
cerdas cerdas 0.5000000
mendalang ndhalang 0.6666667
dalang ndhalang 0.3333333
malam bengi 1.0000000
seseorang sawong 0.6666667
oleh sawong 0.3333333
siang siang 1.0000000
meniup nyebul 1.0000000
Ganis Ganis 1.0000000
Umbul Umbul 1.0000000
kehilangan kelangan 1.0000000
Obat Obat 1.0000000
&apos; &apos; 1.0000000
diajarkan dileske 1.0000000
Sejahtera Sejahtera 1.0000000
Jayapura Jayapura 1.0000000
email enamel 1.0000000
mengandalkan ngandelake 1.0000000
30mm 30mm 1.0000000
penghargaan pakurmatan 1.0000000
19 COVID-19 0.5000000
covid COVID-19 0.5000000
Chenthini Chenthini 1.0000000
kalangan kalangan 1.0000000
bareng bareng 0.1666667
dengan bareng 0.1666667
sebentar bareng 0.1666667
bersama bareng 0.5000000
harmonis harmonis 1.0000000
Suradi Suradi 1.0000000
hewan kewan 1.0000000
B2 B2 1.0000000
paris Paris 1.0000000
2944 2944 1.0000000
tiba-tiba dumadakan 1.0000000
besar akeh-akehe 0.3333333
kebanyakan akeh-akehe 0.3333333
sebagian akeh-akehe 0.3333333
jumlahnya cacahe 0.7500000
jumlah cacahe 0.1250000
julahnya cacahe 0.1250000
ada pelem 0.5000000
mangga pelem 0.5000000
diketahui dimangerteni 1.0000000
ditempatkan diselehake 1.0000000
upacara upacara 1.0000000
Luar saknjabane 0.3333333
di saknjabane 0.3333333
luar saknjabane 0.3333333
Hutama Hutama 1.0000000
tulis tulis 1.0000000
Arif Arif 1.0000000
lakukan Tio 0.5000000
Tio Tio 0.5000000
dihindari diselaki 1.0000000
sekolah sekolah 1.0000000
Kapuas Kapuas 1.0000000
ST ST 1.0000000
pacul pacul 1.0000000
meningkatkan ningkatake 1.0000000
punah punah 1.0000000
kebiasaan pakulinane 1.0000000
teringat kelingan 1.0000000
dilagukan ditembangke 1.0000000
awal limbukan 1.0000000
tumbuh tuwuh 1.0000000
Macapat Macapat 1.0000000
kuliah kuliahe 1.0000000
menghilangkan ngilangna 1.0000000
Bertindaklah tumindak 0.1428571
melakukan tumindak 0.1428571
bertingkah tumindak 0.1428571
perbuatan tumindak 0.1428571
bertindak tumindak 0.4285714
minuman ombenan 1.0000000
Ayah Ayah 1.0000000
menyokong urun 0.5000000
ikut urun 0.5000000
gong gong 1.0000000
bertanggung tanggung 1.0000000
Irawan Irawan 1.0000000
membesarkan ngedekake 1.0000000
dimulai diwiwiti 1.0000000
setelah sawise 1.0000000
pelaksanaan pelaksanaan 1.0000000
ambil saut 1.0000000
Asap Asap 1.0000000
setempat sapanggon 1.0000000
leluhur luhur 1.0000000
nabi nabi 0.5000000
seorang nabi 0.5000000
diminta dijak 0.5000000
diajak dijak 0.5000000
bersyukur matur 0.2000000
terima matur 0.8000000
oval oval 0.5000000
berbentuk oval 0.5000000
bersikap tepa 0.5000000
menjaga tepa 0.5000000
telur endhog 1.0000000
Syifa Syifa 1.0000000
hasilnya kasile 1.0000000
Trans Trans 1.0000000
Kongres Kongres 1.0000000
sifat rasa 0.0769231
rasa rasa 0.8461538
perasaan rasa 0.0769231
Yogyakarta Ngayogyakarta 1.0000000
pertama pisan 0.5000000
sekali pisan 0.5000000
Surakartan Surakartan 0.5000000
Surakarta Surakartan 0.5000000
muda mudha 0.8750000
pemuda mudha 0.1250000
membuatnya nggawene 0.6666667
merasa nggawene 0.3333333
taman kebon 0.5000000
kebun kebon 0.5000000
ikan gereh 0.5000000
tahu gereh 0.5000000
ini kuliah 0.2000000
belajar kuliah 0.2000000
kuliah kuliah 0.6000000
artinya maknane 1.0000000
PT PT 1.0000000
Dora Dora 1.0000000
ditemui disowani 1.0000000
semua Dekne 1.0000000
kapan kapan 1.0000000
legal legal 1.0000000
gerakan gerak 1.0000000
ku Kucingku 0.5000000
kucing Kucingku 0.5000000
flu flu 1.0000000
Dino Dino 1.0000000
yang adiluhung 0.5000000
berkualitas adiluhung 0.5000000
dinamakan dijenengke 1.0000000
Destionanta Destionanta 1.0000000
gunanya gunane 1.0000000
khas sasmita 0.5000000
ciri sasmita 0.5000000
jawa geguritan 0.5000000
geguritan geguritan 0.5000000
disukai dikaremi 1.0000000
kebingungan bingung 0.5000000
bingung bingung 0.5000000
BTS BTS 1.0000000
2,3 2.3 1.0000000
ceritanya keceritane 1.0000000
Nun Nun 1.0000000
terbuka mbukak 0.5000000
membuka mbukak 0.5000000
RRI RRI 1.0000000
keliling jajah 1.0000000
kering asat 1.0000000
tradisional tradhisi 0.6562500
tradisi tradhisi 0.3437500
kontroversi kontroversi 1.0000000
kemajuan kemajuan 1.0000000
pengunjung panilik 1.0000000
memotong ngethok 1.0000000
banyak gedhe 0.0588235
kencang gedhe 0.0588235
NULL gedhe 0.0588235
terbesar gedhe 0.0588235
yang gedhe 0.0588235
bagus gedhe 0.0588235
besar gedhe 0.5882353
jumlahnya gedhe 0.0588235
kantor kantor 1.0000000
Koleksi Koleksi 1.0000000
mempelajari ngugemi 0.3333333
menghargai ngugemi 0.3333333
mengagumi ngugemi 0.3333333
pertunjukan pakeliran 0.2000000
pementasan pakeliran 0.6000000
pagelaran pakeliran 0.2000000
muncul timbul 1.0000000
karena Mula 0.5000000
Oleh Mula 0.5000000
onde-onde ondhe-ondhe 1.0000000
perusahaan perusahaan 1.0000000
tarian beksan 0.6666667
beksan beksan 0.3333333
menjadi mbalung 1.0000000
segala sadhengah 1.0000000
terpilih kapilih 1.0000000
Sasak Sasak 1.0000000
Sebaliknya Sakwalike 1.0000000
putih putih 1.0000000
hati asor 1.0000000
atmosfir atmosfir 1.0000000
dari mubarang 0.5000000
berasal mubarang 0.5000000
ditanya ditakoni 1.0000000
boleh oleh 0.5000000
oleh oleh 0.2500000
diperagakan oleh 0.2500000
resolusi resolusi 1.0000000
undang-undang undang-undang 1.0000000
juara juara 1.0000000
dan dan 1.0000000
rajin Rajin 1.0000000
VII VII 1.0000000
perwakilan wakil 1.0000000
Filipina Filipina 1.0000000
Bangsa Bangsa 1.0000000
1990-an 1990-an 0.6666667
, 1990-an 0.3333333
Musik Musik 1.0000000
lingkungan lingkungan 1.0000000
candi candi 1.0000000
terkait gandhengane 1.0000000
Madya Madya 1.0000000
tersandung kesandung 0.5000000
dengan kesandung 0.5000000
lagu-lagu tembang-tembang 1.0000000
petasan api 0.8333333
api api 0.1666667
batas wates 1.0000000
dilestarikan dilestarekake 1.0000000
warna werna 0.6666667
macam werna 0.3333333
memutihkan mutihake 1.0000000
Dini Dini 1.0000000
orang Pacinan 1.0000000
menghargai ngregani 1.0000000
cemilan cemilan 1.0000000
mengeluh ngeluh 1.0000000
daerah daerah 1.0000000
2007 2007 1.0000000
penurunan pamudhunan 1.0000000
pengantar rinakit 1.0000000
handal tanja 1.0000000
dipegang dicekel 1.0000000
Di Ing 1.0000000
Jilbab Hijab 1.0000000
Terbaik Terbaik 1.0000000
mati mati 1.0000000
penularan panularan 1.0000000
kemudian banjur 0.5238095
lalu banjur 0.4047619
Seiring banjur 0.0238095
selanjutnya banjur 0.0238095
sehingga banjur 0.0238095
sedang kesandhung 0.2500000
tersandung kesandhung 0.7500000
sejahat kaya 0.0322581
gayanya kaya 0.0322581
seperti kaya 0.9032258
Berikut kaya 0.0322581
menyesal getun 1.0000000
terkait raket 1.0000000
bersatu nyawiji 0.2500000
menyatu nyawiji 0.2500000
bercampur nyawiji 0.2500000
disatukan nyawiji 0.2500000
menjelaskan nerangake 1.0000000
kasus kasus 1.0000000
air mbrebes 0.5000000
berlinang mbrebes 0.5000000
pesertanya pasartane 1.0000000
bahagia lah 1.0000000
disimpan disimpen 1.0000000
diiringan diiringi 1.0000000
berhenti mandek 1.0000000
mereka ketemu 0.5000000
bertemu ketemu 0.5000000
oleh dienteni 0.5000000
ditunggu dienteni 0.5000000
Hikmah Hikmah 1.0000000
tempat anggone 0.0588235
dalam anggone 0.5882353
berpengalaman anggone 0.0588235
untuk anggone 0.0588235
di anggone 0.0588235
ia anggone 0.0588235
tentang anggone 0.0588235
sejak anggone 0.0588235
sinar srengenge 0.5000000
oleh srengenge 0.5000000
menjelekkan ngasorake 1.0000000
atas atas 1.0000000
menit menit 1.0000000
pakaian ageman 1.0000000
Rudy Rudy 1.0000000
merusak ngrusak 1.0000000
Zaza Zaza 1.0000000
Niat Krentek 1.0000000
bergunjing rasan-rasan 1.0000000
Cakra Cakra 1.0000000
Jl Jl 1.0000000
Mangkunegoro Mangkunegoro 1.0000000
2012 2012 1.0000000
panti panti 1.0000000
lintas lintas 1.0000000
Dongeng Dongeng 1.0000000
Malaysia Malaysia 1.0000000
impiannnya mimpine 1.0000000
2020 2020 1.0000000
